booster[0]:
0:[BK12_NUM_TC_ACT<-0.0249999985] yes=1,no=2,missing=1
	1:[MAX_PCT_VIGENTEH_03M<-0.00203655334] yes=3,no=4,missing=3
		3:[R_BAL_BY_CRED_LIM<0.628375411] yes=7,no=8,missing=7
			7:[AVG_PND_MENOS_AVG_HI_CALCAR_FLOOR_12M<8.24655533] yes=15,no=16,missing=15
				15:[AVG_PND_MAS_PCT_VENC60M_03M<0.00822499953] yes=31,no=32,missing=31
					31:[DEUDA_TOT<0.0462184884] yes=63,no=64,missing=63
						63:[R_BAL_BY_CRED_LIM<0.330427885] yes=127,no=128,missing=127
							127:[AVG_PND_MAS_R_BAL_BY_MAX_BAL_03M<0.141114205] yes=239,no=240,missing=239
								239:[MIN_VENC29_06M<12.5] yes=425,no=426,missing=425
									425:[AVG_VENC59_12M<12.954546] yes=681,no=682,missing=681
										681:leaf=-0.278048784
										682:leaf=-0.5390625
									426:[MIN_PCT_VENC29_03M<0.00966604985] yes=683,no=684,missing=683
										683:leaf=-0.466666698
										684:leaf=0.5
								240:[AVG_PND_MENOS_PCT_VENC30M_12M<0.0054390002] yes=427,no=428,missing=427
									427:[D_CRED_LIM_TO_BAL<-0.185578674] yes=685,no=686,missing=685
										685:leaf=0.300000012
										686:leaf=-0.5
									428:[AVG_PND_MENOS_VENC59_12M<62.8783722] yes=687,no=688,missing=687
										687:leaf=0.47532469
										688:leaf=-0.504000008
							128:[AVG_PND_MAS_R_BAL_BY_CRED_LIM_03M<0.565079331] yes=241,no=242,missing=241
								241:[AVG_PND_MENOS_VENCIDO30MAS_12M<83.3076935] yes=429,no=430,missing=429
									429:[MIN_R_BAL_BY_MAX_BAL_03M<0.0244691502] yes=689,no=690,missing=689
										689:leaf=0.0612244941
										690:leaf=0.473076969
									430:leaf=-0.458823562
								242:[CUR_BAL<1.62688303] yes=431,no=432,missing=431
									431:[AVG_VIGENTEH_03M<-0.223762363] yes=691,no=692,missing=691
										691:leaf=0.111111112
										692:leaf=-0.526829302
									432:leaf=0.420000017
						64:[MAX_PCT_VIGENTEH_03M<-0.0861139223] yes=129,no=130,missing=129
							129:[MIN_PCT_VIGENTEH_06M<-48.8106461] yes=243,no=244,missing=243
								243:[MAX_BAL_06M<-0.324322104] yes=433,no=434,missing=433
									433:leaf=-0.360000014
									434:leaf=0.536842108
								244:leaf=-0.466666698
							130:[AVG_PND_MENOS_PCT_VENC89_03M<0.0104005001] yes=245,no=246,missing=245
								245:[MAX_R_BAL_BY_MAX_BAL_12M<-2.80007172] yes=435,no=436,missing=435
									435:[MIN_R_BAL_BY_CRED_LIM_12M<-0.0268506706] yes=693,no=694,missing=693
										693:leaf=-0.471428573
										694:leaf=0.169230789
									436:[AVG_VENCIDO30MAS_12M<0.845454514] yes=695,no=696,missing=695
										695:leaf=0.342857182
										696:leaf=-0.507032216
								246:[D_CRED_LIM_TO_BAL<0.915983796] yes=437,no=438,missing=437
									437:[MAX_BAL_06M<2.79908085] yes=697,no=698,missing=697
										697:leaf=0.504000008
										698:leaf=-0.0666666701
									438:leaf=-0.360000014
					32:[MIN_R_BAL_BY_MAX_BAL_12M<0.0325395986] yes=65,no=66,missing=65
						65:[AVG_PND_MENOS_VENCIDO60MAS_03M<6.0999999] yes=131,no=132,missing=131
							131:[MIN_PCT_VIGENTEH_06M<-37.7043991] yes=247,no=248,missing=247
								247:[MAX_R_BAL_BY_MAX_BAL_06M<-2.92109156] yes=439,no=440,missing=439
									439:leaf=0.150000006
									440:leaf=0.538461566
								248:[AVG_PND_MAS_R_BAL_BY_MAX_BAL_06M<-0.0311763939] yes=441,no=442,missing=441
									441:leaf=-0.410526335
									442:leaf=0.428571463
							132:[MAX_VENC59_12M<3412] yes=249,no=250,missing=249
								249:[AVG_PND_MENOS_PCT_VENC29_03M<0.277226985] yes=443,no=444,missing=443
									443:[MIN_PCT_VENC59_06M<0.017644573] yes=699,no=700,missing=699
										699:leaf=-0.347488165
										700:leaf=0.458823562
									444:[CUR_BAL<-0.310829639] yes=701,no=702,missing=701
										701:leaf=-0
										702:leaf=0.466666698
								250:[NBK12_PCT_PROMT<3.6287818] yes=445,no=446,missing=445
									445:[NBK12_PCT_PROMT<3.13629436] yes=703,no=704,missing=703
										703:leaf=0.546666682
										704:leaf=0.163636371
									446:[MIN_VENC59_03M<63.5] yes=705,no=706,missing=705
										705:leaf=-0.413333356
										706:leaf=0.371428609
						66:[AVG_PCT_VIGENTEH_12M<-27.4040604] yes=133,no=134,missing=133
							133:[NBK12_PCT_PROMT<2.49851251] yes=251,no=252,missing=251
								251:[AVG_VENCIDO60MAS_12M<20.882576] yes=447,no=448,missing=447
									447:[BK12_NUM_CRED<-0.204999998] yes=707,no=708,missing=707
										707:leaf=0.00659340713
										708:leaf=0.450000018
									448:[MAX_PCT_VENC60M_06M<0.296143711] yes=709,no=710,missing=709
										709:leaf=-0.387234062
										710:leaf=-0.128014848
								252:[MIN_PCT_VIGENTEH_12M<-26.7712135] yes=449,no=450,missing=449
									449:[MAX_PCT_VENC89_06M<0.367822349] yes=711,no=712,missing=711
										711:leaf=0.34710744
										712:leaf=-0.331034482
									450:[AVG_PND_MAS_D_CRED_LIM_TO_BAL_12M<0.471004486] yes=713,no=714,missing=713
										713:leaf=-0.422222227
										714:leaf=0.300000012
							134:[MAX_R_BAL_BY_CRED_LIM_03M<0.344628334] yes=253,no=254,missing=253
								253:[AVG_PND_MAS_PCT_VENC60M_12M<0.0101945] yes=451,no=452,missing=451
									451:[AVG_PND_MAS_PCT_VENC89_03M<0.0127134994] yes=715,no=716,missing=715
										715:leaf=0.280000001
										716:leaf=-0.356756777
									452:[BK12_PCT_PROMT<0.0949999988] yes=717,no=718,missing=717
										717:leaf=0.435555577
										718:leaf=-0.371428609
								254:[AVG_PND_MAS_PCT_VENC59_12M<0.0128195006] yes=453,no=454,missing=453
									453:[MIN_PCT_VENC30M_03M<0.0454564393] yes=719,no=720,missing=719
										719:leaf=-0.435000032
										720:leaf=0.450000018
									454:[AVG_PND_MENOS_R_BAL_BY_MAX_BAL_06M<0.270373523] yes=721,no=722,missing=721
										721:leaf=-0.150000006
										722:leaf=0.450000018
				16:[MAX_VIGENTEH_06M<-0.336212873] yes=33,no=34,missing=33
					33:[DS_OL_CL<-0.136828154] yes=67,no=68,missing=67
						67:[MAX_R_BAL_BY_CRED_LIM_03M<-0.996650338] yes=135,no=136,missing=135
							135:[AVG_R_BAL_BY_MAX_BAL_06M<-2.09785986] yes=255,no=256,missing=255
								255:leaf=-0.360000014
								256:[AVG_PND_MAS_PCT_VENC89_12M<0.00826849975] yes=455,no=456,missing=455
									455:[AVG_PCT_VIGENTEH_06M<-487.605713] yes=723,no=724,missing=723
										723:leaf=0.381818205
										724:leaf=-0.225000009
									456:[BK12_NUM_EXP_PAIDONTIME<-0.665000021] yes=725,no=726,missing=725
										725:leaf=0.200000018
										726:leaf=0.552000046
							136:[AVG_PND_MENOS_VENCIDO30MAS_03M<35.4055557] yes=257,no=258,missing=257
								257:[MIN_PCT_VIGENTEH_12M<-12.7293367] yes=457,no=458,missing=457
									457:[AVG_PND_MENOS_PCT_VENC29_06M<112.030899] yes=727,no=728,missing=727
										727:leaf=-0.532075524
										728:leaf=-0.0461538509
									458:[AVG_PND_MENOS_VENC29_06M<2.63095188] yes=729,no=730,missing=729
										729:leaf=0.360000014
										730:leaf=-0.0545454584
								258:[MIN_R_BAL_BY_MAX_BAL_03M<-0.149825767] yes=459,no=460,missing=459
									459:leaf=-0.333333373
									460:[AVG_PND_MAS_VENC29_06M<11.6875114] yes=731,no=732,missing=731
										731:leaf=0.514285743
										732:leaf=-0.300000012
						68:[MIN_VIGENTEH_12M<-0.175932437] yes=137,no=138,missing=137
							137:[AVG_AVG_HI_CALCAR_L_12M<4.76129246] yes=259,no=260,missing=259
								259:[AVG_PCT_VENC29_06M<47.0133362] yes=461,no=462,missing=461
									461:[MIN_VENCIDO1MAS_12M<227] yes=733,no=734,missing=733
										733:leaf=-0.493596077
										734:leaf=-0.062068969
									462:[AVG_PND_MAS_PCT_VENC29_06M<128.885056] yes=735,no=736,missing=735
										735:leaf=0.266666681
										736:leaf=-0.324590176
								260:leaf=0.342857182
							138:[CUR_CRED_LIM<-0.188973576] yes=261,no=262,missing=261
								261:leaf=0.4909091
								262:leaf=-0.300000012
					34:[MIN_R_BAL_BY_MAX_BAL_06M<0.335040838] yes=69,no=70,missing=69
						69:[BK12_IND_QCRA<10.5] yes=139,no=140,missing=139
							139:[AVG_PND_MENOS_VENC89_12M<1538.83984] yes=263,no=264,missing=263
								263:[BK12_DPD_PROM<4.5] yes=463,no=464,missing=463
									463:[AVG_PND_MENOS_PCT_VENC30M_12M<0.00439350028] yes=737,no=738,missing=737
										737:leaf=0.0272727292
										738:leaf=-0.442831874
									464:[D_CRED_LIM_TO_BAL<0.340085685] yes=739,no=740,missing=739
										739:leaf=-0.440000027
										740:leaf=0.485714316
								264:[MIN_R_BAL_BY_MAX_BAL_12M<-0.434245706] yes=465,no=466,missing=465
									465:leaf=-0.300000012
									466:leaf=0.466666698
							140:[AVG_PND_MENOS_PCT_VENC29_03M<0.0646255016] yes=265,no=266,missing=265
								265:[CUR_BAL<-0.0822732002] yes=467,no=468,missing=467
									467:leaf=-0
									468:leaf=-0.428571463
								266:[MS_OP<-0.166666672] yes=469,no=470,missing=469
									469:leaf=-0
									470:leaf=0.514285743
						70:[MS_OP<0.59523809] yes=141,no=142,missing=141
							141:[AVG_VENC90M_12M<1780.29163] yes=267,no=268,missing=267
								267:[AVG_PND_MENOS_MAX_HI_CALCAR_L_12M<1.76890564] yes=471,no=472,missing=471
									471:leaf=0.400000036
									472:[MAX_VIGENTEH_03M<-0.213455349] yes=741,no=742,missing=741
										741:leaf=-0.144827589
										742:leaf=-0.556451619
								268:[AVG_PND_MENOS_AVG_HI_CALCAR_FLOOR_12M<15.3104134] yes=473,no=474,missing=473
									473:[AVG_PND_MAS_BAL_12M<0.278873026] yes=743,no=744,missing=743
										743:leaf=-0.0857142955
										744:leaf=0.529411793
									474:[MIN_R_BAL_BY_MAX_BAL_06M<0.343270123] yes=745,no=746,missing=745
										745:leaf=0.150000006
										746:leaf=-0.494117677
							142:[AVG_PND_MENOS_D_CRED_LIM_TO_BAL_06M<-0.175796539] yes=269,no=270,missing=269
								269:[DEUDA_TOT<0.466386557] yes=475,no=476,missing=475
									475:[AVG_PND_MAS_VENC89_06M<2] yes=747,no=748,missing=747
										747:leaf=0.0500000045
										748:leaf=0.53513515
									476:[AVG_PND_MENOS_PCT_VENC29_06M<7.21910095] yes=749,no=750,missing=749
										749:leaf=0.342857182
										750:leaf=-0.495652169
								270:[D_CRED_LIM_TO_BAL<1.18366003] yes=477,no=478,missing=477
									477:leaf=-0.53513515
									478:[MIN_CRED_LIM_12M<1.01270127] yes=751,no=752,missing=751
										751:leaf=0.41538465
										752:leaf=-0.0666666701
			8:[AVG_PND_MENOS_PCT_VIGENTEH_06M<-119.989044] yes=17,no=18,missing=17
				17:[AVG_AVG_HI_CALCAR_FLOOR_12M<15.7630215] yes=35,no=36,missing=35
					35:[AVG_PND_MAS_R_BAL_BY_CRED_LIM_03M<0.680352449] yes=71,no=72,missing=71
						71:[MAX_VENC59_12M<459.5] yes=143,no=144,missing=143
							143:[MIN_BAL_03M<-0.302947938] yes=271,no=272,missing=271
								271:leaf=-0
								272:leaf=0.41538465
							144:leaf=-0.428571463
						72:[NUM_AVG_HI_CALCAR_FLOOR_06M<-0.125] yes=145,no=146,missing=145
							145:leaf=-0.120000005
							146:[AVG_PND_MAS_PCT_VENC89_03M<0.0780140013] yes=273,no=274,missing=273
								273:[MIN_R_BAL_BY_MAX_BAL_06M<0.420547605] yes=479,no=480,missing=479
									479:leaf=0.567857206
									480:leaf=0.150000006
								274:[AVG_PND_MAS_R_BAL_BY_MAX_BAL_06M<0.391343415] yes=481,no=482,missing=481
									481:leaf=-0.150000006
									482:leaf=0.300000012
					36:[MAX_R_BAL_BY_CRED_LIM_03M<0.591417432] yes=73,no=74,missing=73
						73:[MAX_BAL_12M<0.610929489] yes=147,no=148,missing=147
							147:leaf=-0.485714316
							148:leaf=0.300000012
						74:leaf=0.342857182
				18:[AVG_PND_MENOS_PCT_VENC29_03M<0.00231050001] yes=37,no=38,missing=37
					37:[MAX_VENC59_12M<71] yes=75,no=76,missing=75
						75:[BK12_MAX_CREDIT_AMT<-0.693548381] yes=149,no=150,missing=149
							149:[MAX_CRED_LIM_12M<1.07407403] yes=275,no=276,missing=275
								275:[AVG_PND_MENOS_R_BAL_BY_CRED_LIM_06M<0.748395205] yes=483,no=484,missing=483
									483:leaf=-0.541463435
									484:leaf=-0
								276:leaf=0.300000012
							150:[MAX_AVG_HI_CALCAR_L_03M<1.81818175] yes=277,no=278,missing=277
								277:[MS_OP<0.547619104] yes=485,no=486,missing=485
									485:leaf=-0.504000008
									486:leaf=0.120000005
								278:[MAX_PCT_VENC59_12M<0.0518640839] yes=487,no=488,missing=487
									487:leaf=0.545454562
									488:[AVG_PND_MENOS_BAL_03M<-0.174062178] yes=753,no=754,missing=753
										753:leaf=-0.300000012
										754:leaf=-0
						76:[MIN_VENC90M_06M<72] yes=151,no=152,missing=151
							151:[CUR_BAL<5.26351404] yes=279,no=280,missing=279
								279:leaf=-0.565217435
								280:leaf=-0.150000006
							152:leaf=-0
					38:[AVG_R_BAL_BY_MAX_BAL_06M<0.43460682] yes=77,no=78,missing=77
						77:[MIN_VENCIDO1MAS_03M<6.5] yes=153,no=154,missing=153
							153:[MAX_PCT_VIGENTEH_06M<-0.0199160241] yes=281,no=282,missing=281
								281:leaf=-0.163636371
								282:leaf=0.5
							154:[AVG_PND_MENOS_PCT_VENC29_12M<4.57867146] yes=283,no=284,missing=283
								283:[MIN_BAL_06M<1.14783335] yes=489,no=490,missing=489
									489:leaf=0.400000036
									490:leaf=-0
								284:[AVG_PCT_VENC59_03M<0.246451497] yes=491,no=492,missing=491
									491:[BK12_CLEAN<3] yes=755,no=756,missing=755
										755:leaf=-0.458823562
										756:leaf=0.200000018
									492:leaf=0.300000012
						78:[BK24_PCT_60PLUS<0.00499999989] yes=155,no=156,missing=155
							155:[MAX_VENC59_12M<1523.5] yes=285,no=286,missing=285
								285:[AVG_PND_MENOS_VENC59_06M<14.5019836] yes=493,no=494,missing=493
									493:[AVG_PND_MENOS_MAX_HI_CALCAR_CEIL_12M<0.205441773] yes=757,no=758,missing=757
										757:leaf=-0.342857182
										758:leaf=0.502702713
									494:[AVG_PND_MENOS_R_BAL_BY_CRED_LIM_12M<0.723272085] yes=759,no=760,missing=759
										759:leaf=-0.51219517
										760:leaf=0.0666666701
								286:leaf=0.466666698
							156:[AVG_PCT_VIGENTEH_06M<-205.112564] yes=287,no=288,missing=287
								287:leaf=0.0666666701
								288:leaf=0.559322059
		4:[R_BAL_BY_CRED_LIM<0.622986197] yes=9,no=10,missing=9
			9:[MAX_PCT_VENC89_06M<0.036611788] yes=19,no=20,missing=19
				19:[DEUDA_TOT<-0.0798319355] yes=39,no=40,missing=39
					39:[MIN_R_BAL_BY_MAX_BAL_06M<-0.578051567] yes=79,no=80,missing=79
						79:[BK12_PCT_90PLUS<-0.585000038] yes=157,no=158,missing=157
							157:[CUR_BAL<-0.306206584] yes=289,no=290,missing=289
								289:leaf=-0.360000014
								290:leaf=0.388235331
							158:[DS_OL_CL<-0.483345926] yes=291,no=292,missing=291
								291:leaf=0.120000005
								292:[DS_OL_CL<0.967070401] yes=495,no=496,missing=495
									495:[MAX_R_BAL_BY_CRED_LIM_12M<-3.20057034] yes=761,no=762,missing=761
										761:leaf=-0
										762:leaf=-0.565580189
									496:[MIN_D_CRED_LIM_TO_BAL_12M<-0.210025504] yes=763,no=764,missing=763
										763:leaf=0.333333373
										764:leaf=-0.450000018
						80:[MAX_R_BAL_BY_MAX_BAL_03M<-1.49067426] yes=159,no=160,missing=159
							159:[MIN_BAL_12M<-0.280517578] yes=293,no=294,missing=293
								293:[MAX_R_BAL_BY_MAX_BAL_06M<-0.93253547] yes=497,no=498,missing=497
									497:leaf=-0.150000006
									498:leaf=0.41538465
								294:[DS_OL_CL<0.963474631] yes=499,no=500,missing=499
									499:[NBK12_NUM_CRED<-0.297999352] yes=765,no=766,missing=765
										765:leaf=-0.242553204
										766:leaf=-0.538181841
									500:[CUR_BAL<-0.20928809] yes=767,no=768,missing=767
										767:leaf=0.300000012
										768:leaf=-0
							160:[NUM_AVG_HI_CALCAR_FLOOR_12M<-0.214285731] yes=295,no=296,missing=295
								295:[MAX_R_BAL_BY_MAX_BAL_06M<-1.51525307] yes=501,no=502,missing=501
									501:[CUR_CRED_LIM<-0.238039345] yes=769,no=770,missing=769
										769:leaf=-0.247058839
										770:leaf=0.548936188
									502:[AVG_PND_MAS_VENC89_12M<5.59740257] yes=771,no=772,missing=771
										771:leaf=-0.275428593
										772:leaf=0.458823562
								296:[AVG_PND_MAS_PCT_VENC30M_06M<0.0070475] yes=503,no=504,missing=503
									503:[MIN_R_BAL_BY_CRED_LIM_12M<0.876214743] yes=773,no=774,missing=773
										773:leaf=-0.473493993
										774:leaf=0.247058839
									504:[MIN_PCT_VIGENTEH_06M<-91.4122314] yes=775,no=776,missing=775
										775:leaf=-0.466666698
										776:leaf=-0.183382794
					40:[NUM_VIGENTEH_12M<-1.5] yes=81,no=82,missing=81
						81:[BK_IND_PMOR<-0.0682692304] yes=161,no=162,missing=161
							161:[BK_IND_PMOR<-0.258915365] yes=297,no=298,missing=297
								297:[NBK12_DEUDA_CP<-0.293089628] yes=505,no=506,missing=505
									505:[AVG_PND_MAS_BAL_06M<-0.269682914] yes=777,no=778,missing=777
										777:leaf=-0.351724148
										778:leaf=0.371428609
									506:[AVG_PND_MENOS_D_CRED_LIM_TO_BAL_03M<-0.293523967] yes=779,no=780,missing=779
										779:leaf=-0.150000006
										780:leaf=-0.564285755
								298:[NBK12_COMM_PCT_PLUS<-0.375] yes=507,no=508,missing=507
									507:[AVG_FD_CALCAR_L<1.5] yes=781,no=782,missing=781
										781:leaf=-0.41538465
										782:leaf=0.413333356
									508:[NBK12_DEUDA_TOT<0.238121241] yes=783,no=784,missing=783
										783:leaf=-0.306293726
										784:leaf=0.155555561
							162:[BK12_MAX_CREDIT_AMT<2.06451607] yes=299,no=300,missing=299
								299:[DS_CL<-0.776264548] yes=509,no=510,missing=509
									509:leaf=0.360000014
									510:[AVG_PND_MENOS_VENC29_06M<424.897583] yes=785,no=786,missing=785
										785:leaf=-0.50993073
										786:leaf=0.360000014
								300:[AVG_FD_CALCAR_CEIL<10.6031742] yes=511,no=512,missing=511
									511:leaf=0.485714316
									512:leaf=-0.473684251
						82:[DS_CL<-0.810311317] yes=163,no=164,missing=163
							163:[NUM_VENC29_12M<3.5] yes=301,no=302,missing=301
								301:[DS_OL_CL<-0.419379234] yes=513,no=514,missing=513
									513:leaf=-0.480000019
									514:leaf=-0
								302:[AVG_PND_MAS_D_CRED_LIM_TO_BAL_12M<-0.246766567] yes=515,no=516,missing=515
									515:leaf=-0
									516:leaf=0.466666698
							164:[MAX_VENC89_12M<8913] yes=303,no=304,missing=303
								303:[MAX_PCT_VENC30M_12M<0.981224895] yes=517,no=518,missing=517
									517:[MIN_BAL_06M<8.11396599] yes=787,no=788,missing=787
										787:leaf=-0.541262627
										788:leaf=0.333333373
									518:[DS_OL_CL<0.655374765] yes=789,no=790,missing=789
										789:leaf=0.400000036
										790:leaf=-0.485714316
								304:leaf=0.381818205
				20:[NBK12_PCT_PROMT<8.56562996] yes=41,no=42,missing=41
					41:[AVG_PND_MAS_PCT_VENC89_03M<0.181266993] yes=83,no=84,missing=83
						83:[MAX_PCT_VENC89_06M<0.0380501077] yes=165,no=166,missing=165
							165:[MIN_D_CRED_LIM_TO_BAL_12M<-0.129412055] yes=305,no=306,missing=305
								305:[MAX_PCT_VENC59_03M<0.0462111197] yes=519,no=520,missing=519
									519:leaf=-0.495652169
									520:leaf=-0
								306:[AVG_AVG_HI_CALCAR_CEIL_12M<7.93929243] yes=521,no=522,missing=521
									521:leaf=-0.120000005
									522:leaf=0.536842108
							166:[DEUDA_TOT<-0.348739505] yes=307,no=308,missing=307
								307:[AVG_PCT_VENC89_12M<0.00473050028] yes=523,no=524,missing=523
									523:[R_BAL_BY_CRED_LIM<0.204511106] yes=791,no=792,missing=791
										791:leaf=-0.333333373
										792:leaf=0.527272761
									524:[AVG_PND_MENOS_AVG_HI_CALCAR_CEIL_06M<40.6155167] yes=793,no=794,missing=793
										793:leaf=-0.305454552
										794:leaf=0.177777782
								308:[AVG_PND_MAS_VENCIDO30MAS_06M<7.14285707] yes=525,no=526,missing=525
									525:[AVG_PND_MAS_VENC29_03M<1.1500001] yes=795,no=796,missing=795
										795:leaf=-0.317647099
										796:leaf=0.5
									526:[AVG_AVG_HI_CALCAR_L_12M<3.74193716] yes=797,no=798,missing=797
										797:leaf=-0.433546156
										798:leaf=-0.210000008
						84:[AVG_PND_MENOS_PCT_VENC29_06M<524.036499] yes=167,no=168,missing=167
							167:[AVG_VENCIDO60MAS_06M<43.5] yes=309,no=310,missing=309
								309:[CUR_BAL<-0.193039238] yes=527,no=528,missing=527
									527:leaf=0.0666666701
									528:leaf=-0.400000036
								310:[AVG_PND_MAS_PCT_VENC30M_03M<0.43037349] yes=529,no=530,missing=529
									529:leaf=0.544186056
									530:[CUR_BAL<-0.177607775] yes=799,no=800,missing=799
										799:leaf=-0.300000012
										800:leaf=0.150000006
							168:leaf=-0.466666698
					42:[MAX_AVG_HI_CALCAR_L_06M<0.5625] yes=85,no=86,missing=85
						85:leaf=-0.485714316
						86:[MIN_R_BAL_BY_CRED_LIM_03M<-0.875896454] yes=169,no=170,missing=169
							169:leaf=-0.333333373
							170:[MAX_D_CRED_LIM_TO_BAL_03M<-0.297810256] yes=311,no=312,missing=311
								311:leaf=-0.300000012
								312:leaf=0.558620751
			10:[MIN_BAL_06M<-0.0187243503] yes=21,no=22,missing=21
				21:[MAX_R_BAL_BY_CRED_LIM_03M<0.685130596] yes=43,no=44,missing=43
					43:[NBK12_NUM_CRED<-0.0935361534] yes=87,no=88,missing=87
						87:[AVG_PND_MENOS_PCT_VENC1M_03M<3359.10742] yes=171,no=172,missing=171
							171:[AVG_PND_MAS_AVG_HI_CALCAR_CEIL_03M<35.2598572] yes=313,no=314,missing=313
								313:[BK12_MAX_CREDIT_AMT<0.693548381] yes=531,no=532,missing=531
									531:[NBK12_DEUDA_TOT<-0.14770849] yes=801,no=802,missing=801
										801:leaf=0.0666666701
										802:leaf=-0.534693897
									532:leaf=0.200000018
								314:[MIN_R_BAL_BY_MAX_BAL_12M<-0.031503763] yes=533,no=534,missing=533
									533:leaf=-0.381818205
									534:leaf=0.342857182
							172:[BK12_PCT_PROMT<0.159999996] yes=315,no=316,missing=315
								315:leaf=0.41538465
								316:leaf=-0.333333373
						88:[AVG_PND_MENOS_R_BAL_BY_MAX_BAL_06M<0.372959912] yes=173,no=174,missing=173
							173:[MAX_R_BAL_BY_MAX_BAL_12M<-0.240758166] yes=317,no=318,missing=317
								317:[CUR_BAL<-0.291200161] yes=535,no=536,missing=535
									535:leaf=-0
									536:leaf=0.360000014
								318:[MIN_BAL_06M<-0.303714782] yes=537,no=538,missing=537
									537:leaf=0.120000005
									538:[SUM_VENC90MAS_06M<17750] yes=803,no=804,missing=803
										803:leaf=-0.505263209
										804:leaf=0.120000005
							174:[MIN_VIGENTEH_03M<-0.195798323] yes=319,no=320,missing=319
								319:leaf=-0
								320:leaf=0.5
					44:[NBK12_NUM_CRED<-0.308348477] yes=89,no=90,missing=89
						89:leaf=-0.300000012
						90:[AVG_PND_MAS_D_CRED_LIM_TO_BAL_03M<-0.292978525] yes=175,no=176,missing=175
							175:leaf=0.4909091
							176:leaf=0.0666666701
				22:[DEUDA_TOT<0.512605071] yes=45,no=46,missing=45
					45:[MIN_R_BAL_BY_MAX_BAL_12M<0.48606503] yes=91,no=92,missing=91
						91:[BK12_NUM_CRED<-0.704999983] yes=177,no=178,missing=177
							177:leaf=-0.300000012
							178:[NUM_VENC89_06M<4.5] yes=321,no=322,missing=321
								321:[NBK12_PCT_SAT<10.5743608] yes=539,no=540,missing=539
									539:[MAX_D_CRED_LIM_TO_BAL_03M<-0.248975441] yes=805,no=806,missing=805
										805:leaf=0.557522118
										806:leaf=-0.0666666701
									540:leaf=-0.150000006
								322:leaf=-0.120000005
						92:[AVG_PND_MENOS_D_CRED_LIM_TO_BAL_12M<-0.333535165] yes=179,no=180,missing=179
							179:[MAX_VENC29_06M<64.5] yes=323,no=324,missing=323
								323:[AVG_PND_MENOS_R_BAL_BY_MAX_BAL_03M<0.366897047] yes=541,no=542,missing=541
									541:leaf=-0.0545454584
									542:leaf=-0.522580683
								324:[CUR_BAL<0.752451897] yes=543,no=544,missing=543
									543:leaf=0.333333373
									544:leaf=-0
							180:[MIN_R_BAL_BY_MAX_BAL_06M<0.388314575] yes=325,no=326,missing=325
								325:leaf=-0.360000014
								326:[AVG_PND_MENOS_R_BAL_BY_MAX_BAL_03M<0.363597363] yes=545,no=546,missing=545
									545:leaf=-0.120000005
									546:[DEUDA_TOT_CP<2.75] yes=807,no=808,missing=807
										807:leaf=0.502702713
										808:leaf=-0
					46:[BK_IND_PMOR<-0.0730384588] yes=93,no=94,missing=93
						93:leaf=0.333333373
						94:[CUR_CRED_LIM<1.93339205] yes=181,no=182,missing=181
							181:[R_BAL_BY_CRED_LIM<0.625050366] yes=327,no=328,missing=327
								327:leaf=-0.150000006
								328:leaf=-0.544186056
							182:leaf=-0
	2:[AVG_PND_MAS_VENCIDO1MAS_03M<45.4776154] yes=5,no=6,missing=5
		5:[R_BAL_BY_CRED_LIM<0.622127712] yes=11,no=12,missing=11
			11:[AVG_R_BAL_BY_CRED_LIM_12M<0.475297272] yes=23,no=24,missing=23
				23:[DS_CL<-0.777480543] yes=47,no=48,missing=47
					47:[MIN_R_BAL_BY_CRED_LIM_06M<0.504354358] yes=95,no=96,missing=95
						95:[BK12_PCT_PROMT<0.0149999997] yes=183,no=184,missing=183
							183:[AVG_AVG_HI_CALCAR_CEIL_12M<25.0789528] yes=329,no=330,missing=329
								329:[BK12_DPD_PROM<0.5] yes=547,no=548,missing=547
									547:[AVG_PND_MAS_BAL_03M<-0.251532793] yes=809,no=810,missing=809
										809:leaf=-0.563636363
										810:leaf=-0.289340109
									548:[AVG_PND_MENOS_R_BAL_BY_MAX_BAL_12M<0.408749402] yes=811,no=812,missing=811
										811:leaf=-0.587564826
										812:leaf=-0.286956549
								330:leaf=0.333333373
							184:[DS_OL_CL<-0.425435305] yes=331,no=332,missing=331
								331:leaf=-0.150000006
								332:leaf=0.360000014
						96:[DEUDA_TOT<-0.100840338] yes=185,no=186,missing=185
							185:leaf=0.473684251
							186:[AVG_PND_MENOS_R_BAL_BY_CRED_LIM_12M<0.375376761] yes=333,no=334,missing=333
								333:leaf=-0
								334:leaf=-0.41538465
					48:[BK12_MAX_CREDIT_AMT<16197.1777] yes=97,no=98,missing=97
						97:[AVG_FD_CALCAR_L<3.29166651] yes=187,no=188,missing=187
							187:[MIN_R_BAL_BY_CRED_LIM_06M<0.0833664984] yes=335,no=336,missing=335
								335:[AVG_PND_MENOS_AVG_HI_CALCAR_L_12M<4.11598778] yes=549,no=550,missing=549
									549:[AVG_PND_MENOS_PCT_VENC29_12M<827.09436] yes=813,no=814,missing=813
										813:leaf=-0.593570113
										814:leaf=-0.0947368443
									550:[CUR_BAL<0.00871661305] yes=815,no=816,missing=815
										815:leaf=-0.400000036
										816:leaf=0.360000014
								336:[MAX_PCT_VENC29_03M<0.0300076529] yes=551,no=552,missing=551
									551:[BK12_CLEAN<62] yes=817,no=818,missing=817
										817:leaf=-0.581212103
										818:leaf=-0.0545454584
									552:leaf=0.333333373
							188:[BK12_IND_QCRA<32.5] yes=337,no=338,missing=337
								337:[MAX_VENCIDO1MAS_12M<109.166672] yes=553,no=554,missing=553
									553:[AVG_PND_MENOS_BAL_12M<6.73987865] yes=819,no=820,missing=819
										819:leaf=-0.544691384
										820:leaf=0.280000001
									554:[AVG_PND_MENOS_R_BAL_BY_CRED_LIM_12M<0.112881489] yes=821,no=822,missing=821
										821:leaf=-0.466666698
										822:leaf=0.345454544
								338:leaf=0.400000036
						98:leaf=0.400000036
				24:[MS_OP<0.59523809] yes=49,no=50,missing=49
					49:[DEUDA_TOT<-0.39915967] yes=99,no=100,missing=99
						99:[BK_DEUDA_CP<0.264999986] yes=189,no=190,missing=189
							189:[MONTHS_ON_FILE_BANKING<-0.5] yes=339,no=340,missing=339
								339:[MAX_VENC29_03M<2.5] yes=555,no=556,missing=555
									555:[MAX_R_BAL_BY_CRED_LIM_06M<0.468828291] yes=823,no=824,missing=823
										823:leaf=-0.534688413
										824:leaf=-0.385303527
									556:[MAX_VIGENTEH_06M<-0.170813173] yes=825,no=826,missing=825
										825:leaf=0.120000005
										826:leaf=-0.46875003
								340:[CUR_BAL<-0.332702696] yes=557,no=558,missing=557
									557:leaf=0.150000006
									558:[AVG_PND_MENOS_PCT_VENC89_06M<0.000495499989] yes=827,no=828,missing=827
										827:leaf=-0.569353163
										828:leaf=-0.314285755
							190:[BK12_DPD_PROM<1.5] yes=341,no=342,missing=341
								341:[BK12_PC_SAT<0.125] yes=559,no=560,missing=559
									559:[NUM_VIGENTEH_06M<-1.5] yes=829,no=830,missing=829
										829:leaf=-0.339534879
										830:leaf=-0.534082413
									560:leaf=0.466666698
								342:[BK12_CLEAN<1.25] yes=561,no=562,missing=561
									561:leaf=-0.548936188
									562:[BK12_IND_QCRA<1.5] yes=831,no=832,missing=831
										831:leaf=0.483870983
										832:leaf=-0.480000019
						100:[AVG_PND_MENOS_AVG_HI_CALCAR_L_03M<-0.00314625003] yes=191,no=192,missing=191
							191:[AVG_PND_MAS_VENC29_03M<125.599998] yes=343,no=344,missing=343
								343:[MAX_VENC29_12M<1502.875] yes=563,no=564,missing=563
									563:[AVG_PND_MAS_VENC29_03M<50.8000031] yes=833,no=834,missing=833
										833:leaf=-0.590122283
										834:leaf=-0.365853667
									564:[MIN_BAL_06M<0.276444793] yes=835,no=836,missing=835
										835:leaf=0.300000012
										836:leaf=-0.440000027
								344:[MIN_BAL_06M<4.36574268] yes=565,no=566,missing=565
									565:leaf=-0.41538465
									566:leaf=0.300000012
							192:[MAX_R_BAL_BY_CRED_LIM_06M<0.466917783] yes=345,no=346,missing=345
								345:[AVG_R_BAL_BY_CRED_LIM_12M<0.475865662] yes=567,no=568,missing=567
									567:[AVG_AVG_HI_CALCAR_L_12M<-0.064516291] yes=837,no=838,missing=837
										837:leaf=0.323076963
										838:leaf=-0.446153879
									568:[BK12_NUM_CRED<-0.324999988] yes=839,no=840,missing=839
										839:leaf=-0.280000001
										840:leaf=-0.570417225
								346:[AVG_MAX_HI_CALCAR_L_06M<-0.354545236] yes=569,no=570,missing=569
									569:[MAX_D_CRED_LIM_TO_BAL_03M<-0.283828735] yes=841,no=842,missing=841
										841:leaf=-0.483870983
										842:leaf=0.360000014
									570:[BK12_NUM_EXP_PAIDONTIME<-0.145000011] yes=843,no=844,missing=843
										843:leaf=-0.0800000057
										844:leaf=-0.517848432
					50:[DS_CL<-0.486624509] yes=101,no=102,missing=101
						101:[AVG_MAX_HI_CALCAR_L_12M<0.850877047] yes=193,no=194,missing=193
							193:[MAX_BAL_03M<-0.323511839] yes=347,no=348,missing=347
								347:leaf=0.360000014
								348:[MAX_R_BAL_BY_CRED_LIM_06M<0.471466541] yes=571,no=572,missing=571
									571:[BK12_NUM_TC_ACT<-0.00499999989] yes=845,no=846,missing=845
										845:leaf=0.062068969
										846:leaf=-0.458297879
									572:[AVG_PND_MENOS_R_BAL_BY_MAX_BAL_12M<0.40574035] yes=847,no=848,missing=847
										847:leaf=-0.288888901
										848:leaf=0.371428609
							194:[MIN_D_CRED_LIM_TO_BAL_12M<-0.22917968] yes=349,no=350,missing=349
								349:[BK12_NUM_EXP_PAIDONTIME<-0.0500000007] yes=573,no=574,missing=573
									573:leaf=0.41538465
									574:[AVG_R_BAL_BY_MAX_BAL_03M<0.341313928] yes=849,no=850,missing=849
										849:leaf=-0
										850:leaf=-0.567123294
								350:[MIN_D_CRED_LIM_TO_BAL_06M<-0.22786516] yes=575,no=576,missing=575
									575:[DS_CL<-0.514591455] yes=851,no=852,missing=851
										851:leaf=0.517241418
										852:leaf=-0
									576:[MAX_R_BAL_BY_MAX_BAL_12M<-0.34923926] yes=853,no=854,missing=853
										853:leaf=0.329032272
										854:leaf=-0.162500009
						102:[BK12_NUM_TC_ACT<-0.00499999989] yes=195,no=196,missing=195
							195:[DS_CL<0.599465013] yes=351,no=352,missing=351
								351:[MAX_D_CRED_LIM_TO_BAL_03M<-0.308761597] yes=577,no=578,missing=577
									577:leaf=0.272727281
									578:[D_CRED_LIM_TO_BAL<-0.289426982] yes=855,no=856,missing=855
										855:leaf=-0.150000006
										856:leaf=-0.540983617
								352:[MIN_R_BAL_BY_CRED_LIM_12M<0.667818129] yes=579,no=580,missing=579
									579:leaf=-0.342857182
									580:[NBK12_COMM_PCT_PLUS<0.875] yes=857,no=858,missing=857
										857:leaf=0.120000005
										858:leaf=0.507692337
							196:[AVG_MAX_HI_CALCAR_CEIL_12M<1.55636406] yes=353,no=354,missing=353
								353:[AVG_D_CRED_LIM_TO_BAL_12M<-0.267454028] yes=581,no=582,missing=581
									581:[AVG_PND_MENOS_PCT_VIGENTEH_03M<-725.09552] yes=859,no=860,missing=859
										859:leaf=0.120000005
										860:leaf=-0.525124788
									582:[MAX_R_BAL_BY_CRED_LIM_12M<0.0144634685] yes=861,no=862,missing=861
										861:leaf=0.0666666701
										862:leaf=-0.582238674
								354:[AVG_AVG_HI_CALCAR_FLOOR_12M<0.773594916] yes=583,no=584,missing=583
									583:[AVG_PND_MAS_R_BAL_BY_MAX_BAL_06M<0.246584594] yes=863,no=864,missing=863
										863:leaf=-0.300000012
										864:leaf=0.428571463
									584:[BK_IND_PMOR<6.29907703] yes=865,no=866,missing=865
										865:leaf=-0.463750035
										866:leaf=0.300000012
			12:[MIN_D_CRED_LIM_TO_BAL_12M<-0.485071123] yes=25,no=26,missing=25
				25:[BK12_NUM_EXP_PAIDONTIME<-0.0850000009] yes=51,no=52,missing=51
					51:[CUR_BAL<1.60821187] yes=103,no=104,missing=103
						103:leaf=-0.458823562
						104:leaf=0.360000014
					52:[MAX_R_BAL_BY_MAX_BAL_03M<-5.07754183] yes=105,no=106,missing=105
						105:leaf=-0
						106:[AVG_PND_MENOS_MAX_HI_CALCAR_CEIL_12M<18.3560314] yes=197,no=198,missing=197
							197:leaf=-0.596633971
							198:leaf=-0.120000005
				26:[R_BAL_BY_CRED_LIM<0.652628541] yes=53,no=54,missing=53
					53:[MIN_BAL_12M<-0.210876465] yes=107,no=108,missing=107
						107:[BK12_DPD_PROM<1.5] yes=199,no=200,missing=199
							199:[MAX_R_BAL_BY_CRED_LIM_12M<0.424110889] yes=355,no=356,missing=355
								355:[MIN_BAL_06M<-0.317074895] yes=585,no=586,missing=585
									585:leaf=-0.150000006
									586:[BK_IND_PMOR<1.39481962] yes=867,no=868,missing=867
										867:leaf=-0.573913097
										868:leaf=-0.150000006
								356:[DEUDA_TOT<-0.59663868] yes=587,no=588,missing=587
									587:[MIN_VIGENTEH_03M<-0.293837547] yes=869,no=870,missing=869
										869:leaf=-0.360000014
										870:leaf=0.24000001
									588:[AVG_PCT_VENC29_12M<21.708725] yes=871,no=872,missing=871
										871:leaf=-0.496688753
										872:leaf=-0
							200:[AVG_PND_MAS_R_BAL_BY_CRED_LIM_03M<0.60344547] yes=357,no=358,missing=357
								357:leaf=-0.458823562
								358:[MIN_BAL_06M<-0.282045931] yes=589,no=590,missing=589
									589:leaf=0.323076963
									590:leaf=-0.0666666701
						108:[MIN_R_BAL_BY_CRED_LIM_06M<0.764840305] yes=201,no=202,missing=201
							201:[AVG_PND_MENOS_D_CRED_LIM_TO_BAL_06M<-0.278903842] yes=359,no=360,missing=359
								359:[DEUDA_TOT<-0.390756309] yes=591,no=592,missing=591
									591:[AVG_MAX_HI_CALCAR_CEIL_06M<0.226923078] yes=873,no=874,missing=873
										873:leaf=-0.0534653515
										874:leaf=0.400000036
									592:[MIN_R_BAL_BY_MAX_BAL_06M<0.212590173] yes=875,no=876,missing=875
										875:leaf=0.186206892
										876:leaf=-0.296385556
								360:[BK12_MAX_CREDIT_AMT<0.693548381] yes=593,no=594,missing=593
									593:[BK12_MAX_CREDIT_AMT<-0.725806475] yes=877,no=878,missing=877
										877:leaf=-0.130434781
										878:leaf=-0.523943722
									594:[CUR_BAL<0.114295647] yes=879,no=880,missing=879
										879:leaf=-0
										880:leaf=0.333333373
							202:[DS_CL<-0.763375521] yes=361,no=362,missing=361
								361:[AVG_PND_MAS_R_BAL_BY_MAX_BAL_12M<0.459131718] yes=595,no=596,missing=595
									595:leaf=-0.360000014
									596:leaf=0.41538465
								362:[NUM_VIGENTEH_06M<-6.5] yes=597,no=598,missing=597
									597:[AVG_FD_CALCAR_CEIL<5.47619057] yes=881,no=882,missing=881
										881:leaf=-0.347899199
										882:leaf=0.216000021
									598:[MONTHS_ON_FILE_BANKING<-0.5] yes=883,no=884,missing=883
										883:leaf=-0.329268306
										884:leaf=-0.541666687
					54:[D_CRED_LIM_TO_BAL<-0.27711305] yes=109,no=110,missing=109
						109:[NUM_VIGENTEH_06M<-0.5] yes=203,no=204,missing=203
							203:[AVG_R_BAL_BY_CRED_LIM_06M<0.729482234] yes=363,no=364,missing=363
								363:[MS_OP<-0.738095284] yes=599,no=600,missing=599
									599:leaf=-0.272727281
									600:[BK_IND_PMOR<1.68369234] yes=885,no=886,missing=885
										885:leaf=0.400000036
										886:leaf=-0.333333373
								364:[MONTHS_ON_FILE_BANKING<-0.5] yes=601,no=602,missing=601
									601:[AVG_PND_MENOS_R_BAL_BY_CRED_LIM_03M<0.692285717] yes=887,no=888,missing=887
										887:leaf=-0.200000018
										888:leaf=0.371428609
									602:[DEUDA_TOT_CP<-0.25] yes=889,no=890,missing=889
										889:leaf=0.163636371
										890:leaf=-0.476923108
							204:[MIN_R_BAL_BY_CRED_LIM_12M<0.810239792] yes=365,no=366,missing=365
								365:[MIN_R_BAL_BY_MAX_BAL_06M<0.410009503] yes=603,no=604,missing=603
									603:[BK12_DPD_PROM<1.5] yes=891,no=892,missing=891
										891:leaf=-0.51111114
										892:leaf=-0.0545454584
									604:[AVG_PND_MAS_R_BAL_BY_CRED_LIM_03M<0.701715112] yes=893,no=894,missing=893
										893:leaf=-0.300000012
										894:leaf=0.333333373
								366:[MIN_R_BAL_BY_MAX_BAL_06M<0.411783457] yes=605,no=606,missing=605
									605:leaf=0.41538465
									606:leaf=-0.150000006
						110:[AVG_PND_MAS_MAX_HI_CALCAR_L_03M<0.84375] yes=205,no=206,missing=205
							205:[AVG_PND_MENOS_PCT_VIGENTEH_06M<-136.205307] yes=367,no=368,missing=367
								367:leaf=0.300000012
								368:[BK12_MAX_CREDIT_AMT<-0.661290288] yes=607,no=608,missing=607
									607:[MIN_BAL_03M<-0.300536513] yes=895,no=896,missing=895
										895:leaf=0.360000014
										896:leaf=-0.230769247
									608:[MAX_R_BAL_BY_CRED_LIM_03M<0.628357708] yes=897,no=898,missing=897
										897:leaf=-0.491566271
										898:leaf=-0.229090914
							206:[MIN_D_CRED_LIM_TO_BAL_03M<-0.259997904] yes=369,no=370,missing=369
								369:[AVG_PND_MAS_BAL_03M<-0.321551263] yes=609,no=610,missing=609
									609:leaf=0.495652169
									610:[CUR_BAL<-0.289651275] yes=899,no=900,missing=899
										899:leaf=-0.300000012
										900:leaf=-0
								370:[AVG_VENC29_06M<0.58333391] yes=611,no=612,missing=611
									611:[MIN_D_CRED_LIM_TO_BAL_06M<-0.232697189] yes=901,no=902,missing=901
										901:leaf=-0.495652169
										902:leaf=0.0666666701
									612:leaf=0.24000001
		6:[R_BAL_BY_CRED_LIM<0.624067962] yes=13,no=14,missing=13
			13:[MIN_VENCIDO1MAS_03M<0.5] yes=27,no=28,missing=27
				27:[MIN_R_BAL_BY_CRED_LIM_12M<0.152558297] yes=55,no=56,missing=55
					55:[MAX_VENC59_12M<1.5] yes=111,no=112,missing=111
						111:[NBK12_PCT_PROMT<107.736099] yes=207,no=208,missing=207
							207:[AVG_PND_MENOS_PCT_VIGENTEH_06M<-0.158792019] yes=371,no=372,missing=371
								371:[AVG_PND_MAS_AVG_HI_CALCAR_CEIL_03M<3.16756296] yes=613,no=614,missing=613
									613:[AVG_PND_MENOS_BAL_12M<-0.371048629] yes=903,no=904,missing=903
										903:leaf=0.0666666701
										904:leaf=-0.577989399
									614:[AVG_PND_MENOS_D_CRED_LIM_TO_BAL_12M<-0.271482289] yes=905,no=906,missing=905
										905:leaf=-0.250632912
										906:leaf=-0.525833368
								372:[DEUDA_TOT<-0.40336135] yes=615,no=616,missing=615
									615:[AVG_PND_MENOS_CRED_LIM_12M<-0.323082983] yes=907,no=908,missing=907
										907:leaf=-0.150000006
										908:leaf=0.4909091
									616:[D_CRED_LIM_TO_BAL<-0.278279245] yes=909,no=910,missing=909
										909:leaf=-0
										910:leaf=-0.563636363
							208:[CUR_CRED_LIM<2.37261224] yes=373,no=374,missing=373
								373:leaf=-0.333333373
								374:leaf=0.41538465
						112:[MONTHS_ON_FILE_BANKING<-0.5] yes=209,no=210,missing=209
							209:[AVG_PND_MENOS_D_CRED_LIM_TO_BAL_06M<3.68559837] yes=375,no=376,missing=375
								375:[MAX_VENC59_12M<2.5] yes=617,no=618,missing=617
									617:[AVG_PND_MENOS_PCT_VENC30M_06M<0.00245949998] yes=911,no=912,missing=911
										911:leaf=-0.495652169
										912:leaf=0.388235331
									618:[AVG_PND_MENOS_PCT_VIGENTEH_03M<-3.70099688] yes=913,no=914,missing=913
										913:leaf=-0.444408447
										914:leaf=0.0923077017
								376:[AVG_PND_MAS_CRED_LIM_03M<5.86310911] yes=619,no=620,missing=619
									619:leaf=0.461538494
									620:leaf=-0.400000036
							210:[AVG_PND_MAS_MAX_HI_CALCAR_FLOOR_03M<10.8945732] yes=377,no=378,missing=377
								377:[AVG_PCT_VENC30M_12M<4.40000003e-05] yes=621,no=622,missing=621
									621:[MIN_D_CRED_LIM_TO_BAL_03M<1.99489808] yes=915,no=916,missing=915
										915:leaf=-0.423529446
										916:leaf=0.458823562
									622:[AVG_PND_MENOS_VENC59_12M<0.0453779995] yes=917,no=918,missing=917
										917:leaf=0.300000012
										918:leaf=-0.550462663
								378:[AVG_PND_MAS_VIGENTEH_03M<0.359095603] yes=623,no=624,missing=623
									623:[MIN_R_BAL_BY_CRED_LIM_12M<0.0400249436] yes=919,no=920,missing=919
										919:leaf=0.458823562
										920:leaf=-0.150000006
									624:[MAX_BAL_03M<2.24853611] yes=921,no=922,missing=921
										921:leaf=-0.5
										922:leaf=-0
					56:[DEUDA_TOT<-0.105042018] yes=113,no=114,missing=113
						113:[AVG_PND_MAS_R_BAL_BY_MAX_BAL_03M<0.0775186867] yes=211,no=212,missing=211
							211:[AVG_PCT_VIGENTEH_03M<-21.65625] yes=379,no=380,missing=379
								379:[AVG_PND_MENOS_AVG_HI_CALCAR_L_03M<0.349064648] yes=625,no=626,missing=625
									625:[AVG_PND_MENOS_D_CRED_LIM_TO_BAL_06M<-0.297802836] yes=923,no=924,missing=923
										923:leaf=-0
										924:leaf=-0.548726439
									626:[AVG_PND_MENOS_VENC29_06M<10.9880905] yes=925,no=926,missing=925
										925:leaf=-0.390697688
										926:leaf=-0.518878818
								380:[D_CRED_LIM_TO_BAL<-0.204898089] yes=627,no=628,missing=627
									627:leaf=-0.333333373
									628:leaf=0.400000036
							212:[MIN_R_BAL_BY_MAX_BAL_06M<0.373847097] yes=381,no=382,missing=381
								381:[NBK12_COMM_PCT_PLUS<-0.125] yes=629,no=630,missing=629
									629:[AVG_PND_MAS_PCT_VENC59_03M<0.0125830006] yes=927,no=928,missing=927
										927:leaf=-0.28126651
										928:leaf=0.27619049
									630:[NBK12_PCT_PROMT<-0.0141508868] yes=929,no=930,missing=929
										929:leaf=-0.528143764
										930:leaf=-0.333070874
								382:[AVG_PND_MAS_MAX_HI_CALCAR_CEIL_06M<10.4722242] yes=631,no=632,missing=631
									631:[AVG_PND_MENOS_VENC89_03M<20.416666] yes=931,no=932,missing=931
										931:leaf=-0.49170199
										932:leaf=0.0285714306
									632:[AVG_PND_MENOS_D_CRED_LIM_TO_BAL_03M<-0.289102972] yes=933,no=934,missing=933
										933:leaf=-0.200000018
										934:leaf=0.420000017
						114:[MS_OP<0.547619104] yes=213,no=214,missing=213
							213:[MAX_VENC29_12M<2731.4375] yes=383,no=384,missing=383
								383:[MIN_CRED_LIM_03M<5.28664017] yes=633,no=634,missing=633
									633:[AVG_PND_MAS_R_BAL_BY_CRED_LIM_03M<-0.285881639] yes=935,no=936,missing=935
										935:leaf=0.230769247
										936:leaf=-0.541963518
									634:[MIN_D_CRED_LIM_TO_BAL_03M<5.62530661] yes=937,no=938,missing=937
										937:leaf=-0.458823562
										938:leaf=0.458823562
								384:[MIN_D_CRED_LIM_TO_BAL_03M<-0.278292477] yes=635,no=636,missing=635
									635:leaf=-0.300000012
									636:leaf=0.440000027
							214:[DS_CL<-0.480301559] yes=385,no=386,missing=385
								385:[MIN_R_BAL_BY_CRED_LIM_03M<0.705958903] yes=637,no=638,missing=637
									637:[MAX_MAX_HI_CALCAR_L_12M<-0.25] yes=939,no=940,missing=939
										939:leaf=-0.514285743
										940:leaf=-0.15882355
									638:[MAX_VENCIDO1MAS_03M<37] yes=941,no=942,missing=941
										941:leaf=-0.24000001
										942:leaf=0.475862086
								386:[R_BAL_BY_CRED_LIM<0.614111423] yes=639,no=640,missing=639
									639:[AVG_R_BAL_BY_CRED_LIM_03M<-0.288320243] yes=943,no=944,missing=943
										943:leaf=0.300000012
										944:leaf=-0.498859316
									640:[MAX_PCT_VENC29_12M<1.56998205] yes=945,no=946,missing=945
										945:leaf=0.342857182
										946:leaf=-0.300000012
				28:[DEUDA_TOT<-0.138655469] yes=57,no=58,missing=57
					57:[AVG_PND_MAS_PCT_VIGENTEH_03M<-39.0753822] yes=115,no=116,missing=115
						115:[AVG_PND_MENOS_PCT_VIGENTEH_03M<-31.2159462] yes=215,no=216,missing=215
							215:[BK_DEUDA_CP<4.96500015] yes=387,no=388,missing=387
								387:[AVG_PND_MAS_PCT_VENC89_06M<0.026354] yes=641,no=642,missing=641
									641:[BK12_MAX_CREDIT_AMT<1.61290324] yes=947,no=948,missing=947
										947:leaf=-0.38758111
										948:leaf=-0.0990291312
									642:[AVG_PND_MENOS_VENC89_12M<4.27272701] yes=949,no=950,missing=949
										949:leaf=0.190588251
										950:leaf=-0.444155872
								388:[MAX_PCT_VENC30M_12M<0.0219024289] yes=643,no=644,missing=643
									643:[AVG_PND_MAS_MAX_HI_CALCAR_FLOOR_03M<10.2891521] yes=951,no=952,missing=951
										951:leaf=-0.404444456
										952:leaf=0.317647099
									644:[AVG_VENC29_06M<9.7000103] yes=953,no=954,missing=953
										953:leaf=-0.434482753
										954:leaf=0.213223144
							216:[AVG_MAX_HI_CALCAR_CEIL_12M<0.360000074] yes=389,no=390,missing=389
								389:leaf=-0.495652169
								390:[BK12_NUM_EXP_PAIDONTIME<-0.150000006] yes=645,no=646,missing=645
									645:leaf=-0.41538465
									646:[AVG_PND_MAS_R_BAL_BY_MAX_BAL_12M<-0.130956978] yes=955,no=956,missing=955
										955:leaf=-0.150000006
										956:leaf=0.560655773
						116:[MIN_R_BAL_BY_MAX_BAL_03M<0.192307413] yes=217,no=218,missing=217
							217:[AVG_PND_MAS_PCT_VENC29_06M<169.620697] yes=391,no=392,missing=391
								391:[AVG_PCT_VIGENTEH_12M<-1.1753974] yes=647,no=648,missing=647
									647:[D_CRED_LIM_TO_BAL<-0.274078339] yes=957,no=958,missing=957
										957:leaf=-0.150000006
										958:leaf=-0.576867521
									648:leaf=-0.0666666701
								392:leaf=0.360000014
							218:[BK12_MAX_CREDIT_AMT<0.145161286] yes=393,no=394,missing=393
								393:[AVG_PND_MENOS_PCT_VENC1M_06M<4.88084459] yes=649,no=650,missing=649
									649:[AVG_PND_MENOS_R_BAL_BY_MAX_BAL_12M<0.431571245] yes=959,no=960,missing=959
										959:leaf=0.25
										960:leaf=-0.440000027
									650:[AVG_PND_MAS_PCT_VENC29_06M<60.4310341] yes=961,no=962,missing=961
										961:leaf=-0.576000035
										962:leaf=0.0545454584
								394:[MAX_R_BAL_BY_MAX_BAL_06M<-0.0610864758] yes=651,no=652,missing=651
									651:[BK_IND_PMOR<0.696661949] yes=963,no=964,missing=963
										963:leaf=0.51000005
										964:leaf=-0.333333373
									652:[AVG_PND_MENOS_PCT_VENC89_12M<0.000431499997] yes=965,no=966,missing=965
										965:leaf=-0.492857188
										966:leaf=0.333333373
					58:[BK12_PCT_PROMT<0.0249999985] yes=117,no=118,missing=117
						117:[AVG_PND_MAS_VENC89_06M<183.571426] yes=219,no=220,missing=219
							219:[BK12_MAX_CREDIT_AMT<4.88709688] yes=395,no=396,missing=395
								395:[MIN_AVG_HI_CALCAR_CEIL_06M<1.02651513] yes=653,no=654,missing=653
									653:[MAX_VENC29_06M<9382.75] yes=967,no=968,missing=967
										967:leaf=-0.534775734
										968:leaf=0.300000012
									654:[AVG_PCT_VIGENTEH_12M<-2.28340197] yes=969,no=970,missing=969
										969:leaf=-0.456494868
										970:leaf=0.076363638
								396:[BK_IND_PMOR<-0.137461543] yes=655,no=656,missing=655
									655:[AVG_PND_MENOS_D_CRED_LIM_TO_BAL_12M<-0.222624421] yes=971,no=972,missing=971
										971:leaf=-0.300000012
										972:leaf=0.495652169
									656:[AVG_PND_MENOS_MAX_HI_CALCAR_CEIL_12M<7.36384869] yes=973,no=974,missing=973
										973:leaf=-0.487850487
										974:leaf=0.138461545
							220:[NBK12_PCT_SAT<1.12395] yes=397,no=398,missing=397
								397:[D_CRED_LIM_TO_BAL<-0.180524498] yes=657,no=658,missing=657
									657:[CUR_BAL<0.608520389] yes=975,no=976,missing=975
										975:leaf=-0
										976:leaf=-0.381818205
									658:[MIN_R_BAL_BY_MAX_BAL_03M<0.0340757221] yes=977,no=978,missing=977
										977:leaf=-0
										978:leaf=0.533333361
								398:[AVG_PND_MAS_PCT_VIGENTEH_12M<-44.2137527] yes=659,no=660,missing=659
									659:leaf=0.360000014
									660:[AVG_PND_MENOS_BAL_12M<6.76035452] yes=979,no=980,missing=979
										979:leaf=-0.515294135
										980:leaf=0.300000012
						118:[AVG_PND_MENOS_AVG_HI_CALCAR_CEIL_06M<27.6343384] yes=221,no=222,missing=221
							221:[AVG_PND_MAS_D_CRED_LIM_TO_BAL_03M<-0.274552405] yes=399,no=400,missing=399
								399:leaf=0.150000006
								400:leaf=-0.520000041
							222:[MS_OP<1.09523821] yes=401,no=402,missing=401
								401:leaf=0.529411793
								402:leaf=-0.150000006
			14:[AVG_R_BAL_BY_MAX_BAL_03M<0.374896497] yes=29,no=30,missing=29
				29:[NBK12_COMM_PCT_PLUS<-0.375] yes=59,no=60,missing=59
					59:[AVG_PND_MENOS_PCT_VENC59_06M<0.00390050001] yes=119,no=120,missing=119
						119:[AVG_PND_MAS_VENC29_03M<2.08333349] yes=223,no=224,missing=223
							223:[AVG_PND_MENOS_AVG_HI_CALCAR_CEIL_03M<-0.416666687] yes=403,no=404,missing=403
								403:[MIN_R_BAL_BY_MAX_BAL_12M<0.250426114] yes=661,no=662,missing=661
									661:leaf=-0.24000001
									662:leaf=0.323076963
								404:[AVG_PND_MAS_R_BAL_BY_MAX_BAL_03M<0.376402825] yes=663,no=664,missing=663
									663:[AVG_PND_MENOS_R_BAL_BY_CRED_LIM_03M<0.736949921] yes=981,no=982,missing=981
										981:leaf=-0.488000005
										982:leaf=-0
									664:[CUR_BAL<-0.172911227] yes=983,no=984,missing=983
										983:leaf=0.300000012
										984:leaf=-0.300000012
							224:[DEUDA_TOT<-0.0630252138] yes=405,no=406,missing=405
								405:leaf=0.388235331
								406:leaf=-0.300000012
						120:[AVG_PND_MAS_MAX_HI_CALCAR_L_03M<-0.208333433] yes=225,no=226,missing=225
							225:[MIN_BAL_03M<-0.318825573] yes=407,no=408,missing=407
								407:leaf=0.41538465
								408:leaf=-0.466666698
							226:leaf=0.466666698
					60:[MAX_R_BAL_BY_CRED_LIM_06M<0.475054622] yes=121,no=122,missing=121
						121:[MAX_D_CRED_LIM_TO_BAL_03M<-0.292367637] yes=227,no=228,missing=227
							227:leaf=0.360000014
							228:leaf=-0.150000006
						122:[MIN_PCT_VIGENTEH_12M<-0.738982499] yes=229,no=230,missing=229
							229:[NBK12_NUM_CRED<5.05039406] yes=409,no=410,missing=409
								409:[AVG_PND_MENOS_VENC89_12M<89.1164703] yes=665,no=666,missing=665
									665:[AVG_PND_MAS_AVG_HI_CALCAR_L_03M<4.38742208] yes=985,no=986,missing=985
										985:leaf=-0.4909091
										986:leaf=0.120000005
									666:[CUR_BAL<-0.169996262] yes=987,no=988,missing=987
										987:leaf=0.300000012
										988:leaf=-0.150000006
								410:leaf=0.200000018
							230:leaf=0.24000001
				30:[AVG_PND_MAS_MAX_HI_CALCAR_CEIL_03M<0.356932282] yes=61,no=62,missing=61
					61:[NBK12_PCT_SAT<0.00896675419] yes=123,no=124,missing=123
						123:[AVG_PND_MAS_R_BAL_BY_MAX_BAL_12M<0.462081909] yes=231,no=232,missing=231
							231:[AVG_PND_MAS_MAX_HI_CALCAR_L_06M<-0.443181634] yes=411,no=412,missing=411
								411:leaf=0.200000018
								412:leaf=-0.53513515
							232:[AVG_PND_MENOS_D_CRED_LIM_TO_BAL_12M<-0.298923641] yes=413,no=414,missing=413
								413:[AVG_PND_MENOS_R_BAL_BY_MAX_BAL_06M<0.413237184] yes=667,no=668,missing=667
									667:leaf=0.388235331
									668:[MAX_D_CRED_LIM_TO_BAL_03M<-0.302099556] yes=989,no=990,missing=989
										989:leaf=0.0947368443
										990:leaf=-0.367741942
								414:[R_BAL_BY_CRED_LIM<0.631129503] yes=669,no=670,missing=669
									669:leaf=-0.300000012
									670:[DS_OL_CL<-0.443414092] yes=991,no=992,missing=991
										991:leaf=-0
										992:leaf=0.497142881
						124:[AVG_VENCIDO1MAS_12M<0.376420438] yes=233,no=234,missing=233
							233:leaf=0.24000001
							234:[AVG_VENC59_12M<51.8035736] yes=415,no=416,missing=415
								415:[AVG_PND_MAS_PCT_VIGENTEH_03M<-8.14408398] yes=671,no=672,missing=671
									671:leaf=-0.567567587
									672:leaf=-0.0545454584
								416:leaf=0.150000006
					62:[MIN_R_BAL_BY_CRED_LIM_12M<0.879281521] yes=125,no=126,missing=125
						125:[MIN_PCT_VIGENTEH_06M<-3.41286182] yes=235,no=236,missing=235
							235:[AVG_PND_MENOS_D_CRED_LIM_TO_BAL_03M<-0.290825665] yes=417,no=418,missing=417
								417:[AVG_PND_MAS_D_CRED_LIM_TO_BAL_12M<-0.322067201] yes=673,no=674,missing=673
									673:[MS_OP<0.0714285746] yes=993,no=994,missing=993
										993:leaf=-0.125581399
										994:leaf=0.342857182
									674:[AVG_PND_MENOS_PCT_VENC29_12M<133.492126] yes=995,no=996,missing=995
										995:leaf=0.460869581
										996:leaf=-0.300000012
								418:[AVG_VENCIDO1MAS_03M<1313.33325] yes=675,no=676,missing=675
									675:[MIN_R_BAL_BY_CRED_LIM_06M<0.739247203] yes=997,no=998,missing=997
										997:leaf=-0.41538465
										998:leaf=0.150000006
									676:leaf=0.360000014
							236:[AVG_PND_MAS_MAX_HI_CALCAR_L_06M<0.652272582] yes=419,no=420,missing=419
								419:[AVG_PND_MAS_PCT_VIGENTEH_03M<-8.72519112] yes=677,no=678,missing=677
									677:leaf=0.450000018
									678:leaf=-0.360000014
								420:[AVG_PND_MENOS_R_BAL_BY_MAX_BAL_12M<0.43254447] yes=679,no=680,missing=679
									679:leaf=-0.507692337
									680:leaf=-0
						126:[AVG_PND_MAS_PCT_VENC30M_03M<0.0145135] yes=237,no=238,missing=237
							237:[AVG_FD_CALCAR_L<0.25] yes=421,no=422,missing=421
								421:leaf=-0
								422:leaf=-0.525000036
							238:[CUR_BAL<-0.0970230922] yes=423,no=424,missing=423
								423:leaf=-0
								424:leaf=0.150000006
booster[1]:
0:[AVG_PND_MAS_PCT_VENC30M_03M<0.00671250001] yes=1,no=2,missing=1
	1:[R_BAL_BY_CRED_LIM<0.624141097] yes=3,no=4,missing=3
		3:[AVG_PND_MAS_VENCIDO1MAS_03M<34.2462692] yes=7,no=8,missing=7
			7:[BK_DEUDA_CP<3.40500021] yes=15,no=16,missing=15
				15:[AVG_D_CRED_LIM_TO_BAL_12M<-0.266336977] yes=31,no=32,missing=31
					31:[AVG_PND_MAS_R_BAL_BY_MAX_BAL_03M<0.0433561616] yes=63,no=64,missing=63
						63:[DS_CL<-0.833657622] yes=121,no=122,missing=121
							121:[BK12_MAX_CREDIT_AMT<-0.241935477] yes=229,no=230,missing=229
								229:leaf=-0.021562567
								230:leaf=0.32077691
							122:[AVG_PND_MENOS_AVG_HI_CALCAR_L_03M<2.0544219] yes=231,no=232,missing=231
								231:[BK12_PC_SAT<0.170000002] yes=395,no=396,missing=395
									395:[AVG_PND_MENOS_AVG_HI_CALCAR_L_03M<-1.24121332] yes=625,no=626,missing=625
										625:leaf=-0.0171359107
										626:leaf=-0.451665014
									396:[BK12_PC_SAT<0.185000002] yes=627,no=628,missing=627
										627:leaf=0.304811031
										628:leaf=-0.358981818
								232:[AVG_PND_MAS_AVG_HI_CALCAR_L_06M<1.08731258] yes=397,no=398,missing=397
									397:leaf=0.432766438
									398:[MIN_D_CRED_LIM_TO_BAL_06M<-0.146417975] yes=629,no=630,missing=629
										629:leaf=-0.4080486
										630:leaf=0.359069616
						64:[MS_OP<0.547619104] yes=123,no=124,missing=123
							123:[BK12_NUM_TC_ACT<-0.0450000018] yes=233,no=234,missing=233
								233:[MIN_BAL_12M<-0.115910597] yes=399,no=400,missing=399
									399:leaf=0.478433251
									400:leaf=-0.260043889
								234:[AVG_PND_MAS_AVG_HI_CALCAR_L_06M<-0.0012044789] yes=401,no=402,missing=401
									401:[AVG_PND_MENOS_VENC29_12M<1810.84009] yes=631,no=632,missing=631
										631:leaf=-0.442028105
										632:leaf=-0.0570694134
									402:[MIN_R_BAL_BY_CRED_LIM_12M<0.866909027] yes=633,no=634,missing=633
										633:leaf=-0.392389864
										634:leaf=-0.451736659
							124:[MS_OP<0.880952358] yes=235,no=236,missing=235
								235:[AVG_FD_CALCAR_CEIL<3.30952382] yes=403,no=404,missing=403
									403:[AVG_PCT_VENC29_03M<0.00116049999] yes=635,no=636,missing=635
										635:leaf=-0.348083824
										636:leaf=0.106597863
									404:[BK12_CLEAN<-0.25] yes=637,no=638,missing=637
										637:leaf=-0.251383603
										638:leaf=0.102245472
								236:[AVG_PND_MENOS_VENC29_12M<1944.44434] yes=405,no=406,missing=405
									405:[MAX_PCT_VENC29_03M<0.00759594748] yes=639,no=640,missing=639
										639:leaf=-0.412202746
										640:leaf=0.156654745
									406:leaf=0.279576689
					32:[DS_CL<-0.789153695] yes=65,no=66,missing=65
						65:[AVG_MAX_HI_CALCAR_FLOOR_12M<7.9480505] yes=125,no=126,missing=125
							125:[AVG_PND_MAS_BAL_03M<-0.251443088] yes=237,no=238,missing=237
								237:leaf=-0.457879514
								238:[NBK12_DEUDA_CP<-0.232841417] yes=407,no=408,missing=407
									407:[MAX_R_BAL_BY_MAX_BAL_06M<-0.00394078577] yes=641,no=642,missing=641
										641:leaf=0.21536997
										642:leaf=-0.384016782
									408:[AVG_FD_CALCAR_L<3.625] yes=643,no=644,missing=643
										643:leaf=-0.354212582
										644:leaf=0.207697824
							126:[R_BAL_BY_CRED_LIM<0.110902563] yes=239,no=240,missing=239
								239:leaf=-0.0467735678
								240:leaf=0.409728765
						66:[MAX_FD_CALCAR_L<0.5] yes=127,no=128,missing=127
							127:[AVG_PND_MAS_VENC29_03M<125.833328] yes=241,no=242,missing=241
								241:[AVG_PND_MAS_VENC89_12M<183.536743] yes=409,no=410,missing=409
									409:[MIN_CRED_LIM_12M<-0.431707382] yes=645,no=646,missing=645
										645:leaf=0.038425114
										646:leaf=-0.458035916
									410:leaf=0.120860994
								242:leaf=0.158482641
							128:[BK12_MAX_CREDIT_AMT<16197.1777] yes=243,no=244,missing=243
								243:[AVG_PCT_VENC29_12M<413.281189] yes=411,no=412,missing=411
									411:[AVG_PND_MAS_AVG_HI_CALCAR_L_06M<2.84660673] yes=647,no=648,missing=647
										647:leaf=-0.444037259
										648:leaf=-0.336773276
									412:leaf=0.377547443
								244:leaf=0.329610318
				16:[AVG_VENCIDO1MAS_12M<0.0791666135] yes=33,no=34,missing=33
					33:[BK_IND_PMOR<-0.0673076957] yes=67,no=68,missing=67
						67:[AVG_D_CRED_LIM_TO_BAL_03M<-0.297046185] yes=129,no=130,missing=129
							129:[AVG_R_BAL_BY_MAX_BAL_06M<0.435145617] yes=245,no=246,missing=245
								245:leaf=-0.133631051
								246:[AVG_PND_MENOS_D_CRED_LIM_TO_BAL_03M<-0.295346975] yes=413,no=414,missing=413
									413:leaf=0.584610522
									414:leaf=0.0698199198
							130:[DS_OL_CL<0.753974259] yes=247,no=248,missing=247
								247:[NBK12_COMM_PCT_PLUS<-0.125] yes=415,no=416,missing=415
									415:[MIN_D_CRED_LIM_TO_BAL_12M<0.0918118358] yes=649,no=650,missing=649
										649:leaf=-0.150159672
										650:leaf=0.154873297
									416:[NBK12_PCT_PROMT<0.201923162] yes=651,no=652,missing=651
										651:leaf=-0.347919106
										652:leaf=-0.0799199194
								248:[MIN_R_BAL_BY_CRED_LIM_12M<0.42117092] yes=417,no=418,missing=417
									417:[BK12_NUM_CRED<-0.100000001] yes=653,no=654,missing=653
										653:leaf=-0.474506319
										654:leaf=-0.154926941
									418:[AVG_PND_MENOS_R_BAL_BY_CRED_LIM_03M<0.541662455] yes=655,no=656,missing=655
										655:leaf=0.0962643176
										656:leaf=-0.399068803
						68:[BK_DEUDA_CP<3.54999995] yes=131,no=132,missing=131
							131:[D_CRED_LIM_TO_BAL<1.10610521] yes=249,no=250,missing=249
								249:leaf=-0.413873136
								250:[CUR_BAL<0.517343879] yes=419,no=420,missing=419
									419:leaf=0.108367577
									420:leaf=0.689118266
							132:[AVG_FD_CALCAR_CEIL<9.23809528] yes=251,no=252,missing=251
								251:[BK12_MAX_CREDIT_AMT<2] yes=421,no=422,missing=421
									421:[BK12_MAX_CREDIT_AMT<-0.887096763] yes=657,no=658,missing=657
										657:leaf=0.0458407514
										658:leaf=-0.439728111
									422:leaf=0.3167018
								252:[AVG_FD_CALCAR_CEIL<11.2698412] yes=423,no=424,missing=423
									423:[BK_DEUDA_CP<7.1500001] yes=659,no=660,missing=659
										659:leaf=-0.161492676
										660:leaf=0.612883627
									424:[MAX_R_BAL_BY_MAX_BAL_03M<-0.47035712] yes=661,no=662,missing=661
										661:leaf=-0.38343522
										662:leaf=-0.223120302
					34:[DS_CL<-0.684824944] yes=69,no=70,missing=69
						69:[MAX_PCT_VENC89_12M<0.164583758] yes=133,no=134,missing=133
							133:[AVG_PND_MENOS_D_CRED_LIM_TO_BAL_03M<-0.246289939] yes=253,no=254,missing=253
								253:[MS_OP<0.547619104] yes=425,no=426,missing=425
									425:[AVG_PND_MAS_PCT_VENC29_06M<3.25574708] yes=663,no=664,missing=663
										663:leaf=-0.392836362
										664:leaf=0.0186718237
									426:[DEUDA_TOT_CP<-0.25] yes=665,no=666,missing=665
										665:leaf=-0.295210034
										666:leaf=0.388839543
								254:[AVG_PND_MENOS_AVG_HI_CALCAR_L_06M<1.44391811] yes=427,no=428,missing=427
									427:[DS_CL<-0.741974711] yes=667,no=668,missing=667
										667:leaf=0.0270149987
										668:leaf=-0.289545089
									428:leaf=-0.451305836
							134:[MS_OP<0.59523809] yes=255,no=256,missing=255
								255:leaf=-0.0604053326
								256:leaf=0.557739079
						70:[AVG_PND_MAS_MAX_HI_CALCAR_L_12M<3.58529186] yes=135,no=136,missing=135
							135:[AVG_PND_MENOS_D_CRED_LIM_TO_BAL_12M<-0.205907196] yes=257,no=258,missing=257
								257:[AVG_PND_MAS_PCT_VENC29_06M<13.3908043] yes=429,no=430,missing=429
									429:[MIN_R_BAL_BY_CRED_LIM_12M<0.882428288] yes=669,no=670,missing=669
										669:leaf=-0.437582344
										670:leaf=0.171720728
									430:[AVG_PND_MAS_PCT_VENC29_06M<15.7298851] yes=671,no=672,missing=671
										671:leaf=0.119030632
										672:leaf=-0.374660015
								258:[AVG_AVG_HI_CALCAR_CEIL_12M<50.5079498] yes=431,no=432,missing=431
									431:[AVG_PND_MAS_R_BAL_BY_MAX_BAL_03M<-5.99308205] yes=673,no=674,missing=673
										673:leaf=-0.0215233006
										674:leaf=-0.461728752
									432:leaf=0.103571787
							136:leaf=0.390229106
			8:[MIN_R_BAL_BY_CRED_LIM_06M<0.171338156] yes=17,no=18,missing=17
				17:[AVG_PND_MENOS_AVG_HI_CALCAR_L_06M<2.92993784] yes=35,no=36,missing=35
					35:[MIN_VENC29_03M<1.5] yes=71,no=72,missing=71
						71:[BK24_IND_EXP<0.955000043] yes=137,no=138,missing=137
							137:[AVG_PND_MAS_D_CRED_LIM_TO_BAL_03M<-0.286741257] yes=259,no=260,missing=259
								259:[AVG_PND_MENOS_VENC89_12M<1.07792199] yes=433,no=434,missing=433
									433:[NUM_VIGENTEH_12M<-1.5] yes=675,no=676,missing=675
										675:leaf=0.0766806006
										676:leaf=-0.395257205
									434:[DEUDA_TOT<-0.0924369767] yes=677,no=678,missing=677
										677:leaf=0.49445346
										678:leaf=-0.117283627
								260:[AVG_PND_MAS_AVG_HI_CALCAR_FLOOR_12M<0.625886679] yes=435,no=436,missing=435
									435:[MAX_PCT_VENC59_03M<0.0548356809] yes=679,no=680,missing=679
										679:leaf=-0.448144764
										680:leaf=0.211788848
									436:[AVG_MAX_HI_CALCAR_FLOOR_06M<-0.38472718] yes=681,no=682,missing=681
										681:leaf=-0.0703647286
										682:leaf=-0.418104619
							138:[NUM_VENC29_06M<4.5] yes=261,no=262,missing=261
								261:[MIN_AVG_HI_CALCAR_L_12M<-0.400000006] yes=437,no=438,missing=437
									437:leaf=0.133680001
									438:leaf=-0.435932934
								262:leaf=0.553097367
						72:[CUR_BAL<3.85434556] yes=139,no=140,missing=139
							139:[AVG_PND_MAS_VENCIDO60MAS_03M<21.3833351] yes=263,no=264,missing=263
								263:[AVG_PND_MENOS_VENC29_12M<4.34036732] yes=439,no=440,missing=439
									439:[MIN_R_BAL_BY_CRED_LIM_06M<-0.169921026] yes=683,no=684,missing=683
										683:leaf=-0.458139747
										684:leaf=0.244312972
									440:[AVG_PND_MAS_PCT_VENC60M_06M<0.00306949997] yes=685,no=686,missing=685
										685:leaf=-0.413602144
										686:leaf=-0.0600821376
								264:[MAX_R_BAL_BY_MAX_BAL_12M<-1.03803337] yes=441,no=442,missing=441
									441:[MIN_R_BAL_BY_MAX_BAL_06M<-0.12856096] yes=687,no=688,missing=687
										687:leaf=0.553553581
										688:leaf=0.119306549
									442:leaf=-0.301307529
							140:leaf=0.537833989
					36:[MAX_R_BAL_BY_CRED_LIM_03M<-0.526405334] yes=73,no=74,missing=73
						73:[MIN_R_BAL_BY_CRED_LIM_12M<-0.182520717] yes=141,no=142,missing=141
							141:[AVG_AVG_HI_CALCAR_L_12M<2.48387194] yes=265,no=266,missing=265
								265:[AVG_PND_MENOS_R_BAL_BY_MAX_BAL_03M<-0.868272066] yes=443,no=444,missing=443
									443:leaf=0.434970677
									444:leaf=0.015156243
								266:[BK_DEUDA_CP<50.6800003] yes=445,no=446,missing=445
									445:[NUM_MAX_HI_CALCAR_FLOOR_12M<-0.0714285746] yes=689,no=690,missing=689
										689:leaf=0.146607161
										690:leaf=-0.453179866
									446:leaf=0.15594843
							142:[AVG_PND_MAS_PCT_VENC30M_12M<0.00395799987] yes=267,no=268,missing=267
								267:[MAX_R_BAL_BY_CRED_LIM_03M<-0.535841227] yes=447,no=448,missing=447
									447:[BK12_IND_QCRA<1.5] yes=691,no=692,missing=691
										691:leaf=-0.453161955
										692:leaf=0.278886527
									448:[REVOLVENTE<-0.5] yes=693,no=694,missing=693
										693:leaf=0.0717036948
										694:leaf=0.332617223
								268:[NUM_VENCIDO30MAS_12M<4.5] yes=449,no=450,missing=449
									449:[MAX_VENC89_12M<122] yes=695,no=696,missing=695
										695:leaf=0.53547883
										696:leaf=-0.334644437
									450:[MIN_PCT_VIGENTEH_12M<-3.0284245] yes=697,no=698,missing=697
										697:leaf=-0.379858762
										698:leaf=0.436516225
						74:[AVG_PCT_VENC29_06M<4.52666664] yes=143,no=144,missing=143
							143:[AVG_PND_MAS_R_BAL_BY_MAX_BAL_12M<-0.802396536] yes=269,no=270,missing=269
								269:leaf=-0.302246153
								270:leaf=0.370640129
							144:[MIN_R_BAL_BY_MAX_BAL_03M<0.30175516] yes=271,no=272,missing=271
								271:[MAX_R_BAL_BY_CRED_LIM_12M<-0.953574538] yes=451,no=452,missing=451
									451:[REVOLVENTE<-0.5] yes=699,no=700,missing=699
										699:leaf=0.270714432
										700:leaf=-0.3117989
									452:[AVG_PND_MAS_R_BAL_BY_CRED_LIM_03M<-0.927360654] yes=701,no=702,missing=701
										701:leaf=0.00231830915
										702:leaf=-0.451506943
								272:leaf=0.137981355
				18:[DEUDA_TOT<-0.205882356] yes=37,no=38,missing=37
					37:[NBK12_PCT_SAT<1.91597314e-06] yes=75,no=76,missing=75
						75:[AVG_VENC90M_06M<53.6071434] yes=145,no=146,missing=145
							145:[AVG_PND_MAS_PCT_VIGENTEH_12M<-3.97162294] yes=273,no=274,missing=273
								273:[SUM_VIGENTEH_03M<-0.371664673] yes=453,no=454,missing=453
									453:[MAX_VIGENTEH_06M<-0.394724727] yes=703,no=704,missing=703
										703:leaf=-0.172668815
										704:leaf=0.480082065
									454:[MIN_D_CRED_LIM_TO_BAL_06M<-0.24900946] yes=705,no=706,missing=705
										705:leaf=-0.176400274
										706:leaf=-0.431833237
								274:[AVG_PND_MENOS_VENCIDO1MAS_03M<408.634918] yes=455,no=456,missing=455
									455:[AVG_PND_MAS_PCT_VENC29_03M<0.00978800002] yes=707,no=708,missing=707
										707:leaf=-0.302562058
										708:leaf=-0.17444098
									456:[NUM_VENC29_12M<2.5] yes=709,no=710,missing=709
										709:leaf=-0.285672247
										710:leaf=0.366238594
							146:[AVG_PND_MENOS_R_BAL_BY_MAX_BAL_06M<-0.0356962904] yes=275,no=276,missing=275
								275:leaf=-0.00867799576
								276:leaf=0.519353867
						76:[AVG_PND_MAS_AVG_HI_CALCAR_CEIL_06M<33.2065887] yes=147,no=148,missing=147
							147:[MIN_VENCIDO1MAS_03M<135] yes=277,no=278,missing=277
								277:[AVG_PND_MENOS_VENCIDO1MAS_03M<25.0238094] yes=457,no=458,missing=457
									457:leaf=0.399030119
									458:[AVG_VENC59_03M<83] yes=711,no=712,missing=711
										711:leaf=-0.389068305
										712:leaf=0.221462831
								278:[AVG_PND_MAS_R_BAL_BY_MAX_BAL_03M<0.258367002] yes=459,no=460,missing=459
									459:leaf=0.380959004
									460:leaf=0.0482686423
							148:leaf=0.462597162
					38:[MS_OP<0.547619104] yes=77,no=78,missing=77
						77:[AVG_PND_MAS_D_CRED_LIM_TO_BAL_03M<4.83646202] yes=149,no=150,missing=149
							149:[AVG_PND_MAS_PCT_VIGENTEH_03M<-4.38740444] yes=279,no=280,missing=279
								279:[MIN_VENC29_03M<232] yes=461,no=462,missing=461
									461:[MAX_VENC29_06M<223914.75] yes=713,no=714,missing=713
										713:leaf=-0.415031523
										714:leaf=0.268144369
									462:[MAX_PCT_VENC29_03M<0.278272897] yes=715,no=716,missing=715
										715:leaf=-0.401427835
										716:leaf=0.450079203
								280:leaf=0.227170512
							150:[MAX_AVG_HI_CALCAR_L_03M<0.681818187] yes=281,no=282,missing=281
								281:leaf=-0.253874987
								282:leaf=0.386297315
						78:[MS_OP<0.880952358] yes=151,no=152,missing=151
							151:[AVG_PND_MAS_MAX_HI_CALCAR_L_06M<1.39772689] yes=283,no=284,missing=283
								283:[AVG_PND_MENOS_PCT_VENC89_12M<0.00191499991] yes=463,no=464,missing=463
									463:[AVG_PND_MAS_VIGENTEH_03M<-0.367380142] yes=717,no=718,missing=717
										717:leaf=0.271880478
										718:leaf=-0.307235926
									464:[MAX_R_BAL_BY_CRED_LIM_03M<0.283734977] yes=719,no=720,missing=719
										719:leaf=0.568837702
										720:leaf=-0.246810049
								284:[AVG_VIGENTEH_03M<1.00291896] yes=465,no=466,missing=465
									465:[NBK12_PCT_PROMT<0.344658077] yes=721,no=722,missing=721
										721:leaf=-0.210514903
										722:leaf=0.290582329
									466:[MAX_MAX_HI_CALCAR_FLOOR_12M<0.336363614] yes=723,no=724,missing=723
										723:leaf=0.29355374
										724:leaf=-0.33566013
							152:[MAX_PCT_VENC30M_12M<0.6127249] yes=285,no=286,missing=285
								285:[AVG_PND_MENOS_VIGENTEH_12M<-0.357964933] yes=467,no=468,missing=467
									467:[MIN_R_BAL_BY_MAX_BAL_06M<0.110405296] yes=725,no=726,missing=725
										725:leaf=-0.442835242
										726:leaf=0.0924715921
									468:[AVG_VENC90M_06M<141.785706] yes=727,no=728,missing=727
										727:leaf=-0.412205607
										728:leaf=0.0510679372
								286:[AVG_PND_MENOS_VENCIDO30MAS_12M<68.1818237] yes=469,no=470,missing=469
									469:leaf=0.445003003
									470:leaf=-0.214092419
		4:[MIN_D_CRED_LIM_TO_BAL_12M<-0.555941463] yes=9,no=10,missing=9
			9:[MAX_PCT_VENC59_03M<0.00184514793] yes=19,no=20,missing=19
				19:[MAX_R_BAL_BY_MAX_BAL_03M<-5.07754183] yes=39,no=40,missing=39
					39:leaf=-0
					40:[BK12_NUM_EXP_PAIDONTIME<-0.0850000009] yes=79,no=80,missing=79
						79:[MIN_BAL_03M<1.85038054] yes=153,no=154,missing=153
							153:leaf=-0.410126477
							154:leaf=0.231826127
						80:[AVG_PND_MENOS_VENC29_12M<601.993042] yes=155,no=156,missing=155
							155:leaf=-0.464257061
							156:leaf=-0.123198479
				20:[MAX_D_CRED_LIM_TO_BAL_03M<-0.349769533] yes=41,no=42,missing=41
					41:leaf=-0.295119494
					42:leaf=0.325415015
			10:[D_CRED_LIM_TO_BAL<-0.276388645] yes=21,no=22,missing=21
				21:[R_BAL_BY_CRED_LIM<0.64960742] yes=43,no=44,missing=43
					43:[DS_OL_CL<-0.489591211] yes=81,no=82,missing=81
						81:[DS_OL_CL<-0.520817578] yes=157,no=158,missing=157
							157:leaf=-0.122970648
							158:leaf=-0.482641459
						82:[AVG_PND_MAS_R_BAL_BY_MAX_BAL_03M<0.389604211] yes=159,no=160,missing=159
							159:[BK12_MAX_CREDIT_AMT<1.61290324] yes=287,no=288,missing=287
								287:[AVG_PND_MAS_PCT_VENC59_12M<0.00907349959] yes=471,no=472,missing=471
									471:[AVG_R_BAL_BY_MAX_BAL_12M<0.472801447] yes=729,no=730,missing=729
										729:leaf=-0.321333975
										730:leaf=-0.0940080807
									472:leaf=0.3180843
								288:[BK12_NUM_CRED<-0.0149999997] yes=473,no=474,missing=473
									473:leaf=-0.0439648554
									474:leaf=0.418356806
							160:[AVG_VENCIDO30MAS_12M<9.70833302] yes=289,no=290,missing=289
								289:[AVG_D_CRED_LIM_TO_BAL_12M<-0.327040195] yes=475,no=476,missing=475
									475:[NBK12_PCT_PROMT<2.87495923] yes=731,no=732,missing=731
										731:leaf=-0.424332201
										732:leaf=-0.0866990089
									476:[MIN_D_CRED_LIM_TO_BAL_03M<-0.274904102] yes=733,no=734,missing=733
										733:leaf=0.0880512595
										734:leaf=-0.17504856
								290:[AVG_PND_MENOS_VENC89_12M<81.0754242] yes=477,no=478,missing=477
									477:[AVG_AVG_HI_CALCAR_L_12M<3.86999178] yes=735,no=736,missing=735
										735:leaf=0.449039966
										736:leaf=0.0580717511
									478:leaf=-0.146013796
					44:[AVG_PND_MAS_R_BAL_BY_MAX_BAL_06M<0.336451769] yes=83,no=84,missing=83
						83:[BK12_NUM_TC_ACT<-0.00499999989] yes=161,no=162,missing=161
							161:[MAX_BAL_12M<-0.180203497] yes=291,no=292,missing=291
								291:[AVG_PND_MAS_PCT_VIGENTEH_12M<-3.70129061] yes=479,no=480,missing=479
									479:leaf=0.208621308
									480:leaf=-0.256727129
								292:leaf=0.366156548
							162:[MAX_R_BAL_BY_CRED_LIM_12M<0.645858169] yes=293,no=294,missing=293
								293:[NUM_VIGENTEH_03M<-0.5] yes=481,no=482,missing=481
									481:[MIN_R_BAL_BY_MAX_BAL_12M<-1.08967304] yes=737,no=738,missing=737
										737:leaf=0.373809457
										738:leaf=-0.127803251
									482:[MIN_VIGENTEH_03M<1.92464995] yes=739,no=740,missing=739
										739:leaf=-0.376093209
										740:leaf=0.0900040418
								294:leaf=-0.447941095
						84:[DEUDA_TOT<-0.0882352963] yes=163,no=164,missing=163
							163:[MIN_R_BAL_BY_CRED_LIM_06M<0.802339315] yes=295,no=296,missing=295
								295:[MIN_R_BAL_BY_CRED_LIM_12M<0.292147785] yes=483,no=484,missing=483
									483:[NBK12_DEUDA_CP<-0.119686477] yes=741,no=742,missing=741
										741:leaf=0.127348781
										742:leaf=-0.439113408
									484:[AVG_PND_MENOS_PCT_VENC29_12M<4.96678305] yes=743,no=744,missing=743
										743:leaf=0.317297012
										744:leaf=0.016400421
								296:[AVG_PND_MENOS_AVG_HI_CALCAR_L_03M<0.000425178558] yes=485,no=486,missing=485
									485:leaf=-0.375758439
									486:leaf=0.0237741675
							164:[BK12_MAX_CREDIT_AMT<1.03225803] yes=297,no=298,missing=297
								297:[AVG_PND_MENOS_BAL_03M<-0.295959651] yes=487,no=488,missing=487
									487:leaf=0.373128414
									488:[NUM_VIGENTEH_03M<-1.5] yes=745,no=746,missing=745
										745:leaf=0.0832165852
										746:leaf=-0.303058386
								298:leaf=0.388623565
				22:[R_BAL_BY_CRED_LIM<0.723050714] yes=45,no=46,missing=45
					45:[AVG_AVG_HI_CALCAR_FLOOR_06M<1.54262257] yes=85,no=86,missing=85
						85:[AVG_PND_MAS_VENCIDO1MAS_03M<539.582092] yes=165,no=166,missing=165
							165:[AVG_PND_MAS_PCT_VIGENTEH_12M<-27.9211464] yes=299,no=300,missing=299
								299:[MIN_R_BAL_BY_CRED_LIM_06M<-0.0500436351] yes=489,no=490,missing=489
									489:leaf=0.233350426
									490:leaf=-0.201620385
								300:[R_BAL_BY_CRED_LIM<0.663157701] yes=491,no=492,missing=491
									491:[AVG_PND_MENOS_PCT_VENC59_06M<0.00245000003] yes=747,no=748,missing=747
										747:leaf=-0.408853531
										748:leaf=-0.0612116009
									492:[AVG_PND_MAS_R_BAL_BY_MAX_BAL_06M<0.239898607] yes=749,no=750,missing=749
										749:leaf=-0.419566065
										750:leaf=-0.182534233
							166:[NBK12_COMM_PCT_PLUS<-0.125] yes=301,no=302,missing=301
								301:leaf=0.380243123
								302:leaf=-0.317367166
						86:[AVG_PCT_VIGENTEH_12M<-3.25132442] yes=167,no=168,missing=167
							167:[AVG_PCT_VIGENTEH_06M<-16.3787308] yes=303,no=304,missing=303
								303:[AVG_PND_MENOS_VENCIDO1MAS_12M<16.239872] yes=493,no=494,missing=493
									493:[MIN_PCT_VIGENTEH_12M<-4.92495775] yes=751,no=752,missing=751
										751:leaf=0.146555454
										752:leaf=-0.285296261
									494:leaf=-0.374666154
								304:leaf=-0.446866632
							168:[AVG_R_BAL_BY_CRED_LIM_12M<0.700153589] yes=305,no=306,missing=305
								305:[AVG_PND_MENOS_R_BAL_BY_MAX_BAL_12M<-0.731129229] yes=495,no=496,missing=495
									495:leaf=-0.00451603346
									496:leaf=-0.396691859
								306:[MIN_D_CRED_LIM_TO_BAL_06M<-0.233140111] yes=497,no=498,missing=497
									497:[R_BAL_BY_CRED_LIM<0.628817677] yes=753,no=754,missing=753
										753:leaf=0.0982624218
										754:leaf=0.494843841
									498:leaf=-0.282449186
					46:[AVG_PND_MAS_R_BAL_BY_CRED_LIM_06M<0.548999608] yes=87,no=88,missing=87
						87:leaf=-0.384799778
						88:[AVG_BAL_12M<-0.36521107] yes=169,no=170,missing=169
							169:leaf=-0.211040795
							170:[MIN_BAL_12M<-0.282184452] yes=307,no=308,missing=307
								307:[AVG_PND_MENOS_PCT_VENC29_03M<0.0144954994] yes=499,no=500,missing=499
									499:leaf=0.466528803
									500:leaf=0.0527708828
								308:leaf=-0.155961066
	2:[MAX_PCT_VIGENTEH_03M<-0.00373482797] yes=5,no=6,missing=5
		5:[R_BAL_BY_CRED_LIM<0.625365853] yes=11,no=12,missing=11
			11:[AVG_PND_MAS_VENC89_06M<0.976190507] yes=23,no=24,missing=23
				23:[DEUDA_TOT<-0.39915967] yes=47,no=48,missing=47
					47:[NUM_VENC29_12M<6.5] yes=89,no=90,missing=89
						89:[MIN_R_BAL_BY_MAX_BAL_06M<0.0111959241] yes=171,no=172,missing=171
							171:[AVG_PND_MENOS_AVG_HI_CALCAR_L_06M<2.21278858] yes=309,no=310,missing=309
								309:[AVG_VENCIDO30MAS_12M<0.236111] yes=501,no=502,missing=501
									501:leaf=0.00367037137
									502:[BK12_NUM_TC_ACT<-0.300000012] yes=755,no=756,missing=755
										755:leaf=-0.0472721197
										756:leaf=-0.464397371
								310:[MIN_PCT_VIGENTEH_03M<-247.920319] yes=503,no=504,missing=503
									503:[MAX_PCT_VENC59_03M<0.161036909] yes=757,no=758,missing=757
										757:leaf=-0.389627248
										758:leaf=0.242900655
									504:[AVG_PND_MAS_R_BAL_BY_MAX_BAL_06M<-0.468613803] yes=759,no=760,missing=759
										759:leaf=-0.107742563
										760:leaf=0.403629422
							172:[MS_OP<0.642857194] yes=311,no=312,missing=311
								311:[NBK12_DEUDA_TOT<-0.016929619] yes=505,no=506,missing=505
									505:[AVG_PND_MAS_R_BAL_BY_MAX_BAL_03M<0.00940246508] yes=761,no=762,missing=761
										761:leaf=-0.248197392
										762:leaf=0.0706418082
									506:[AVG_PND_MAS_R_BAL_BY_CRED_LIM_03M<0.673239887] yes=763,no=764,missing=763
										763:leaf=-0.414916694
										764:leaf=0.211272091
								312:[AVG_PND_MENOS_MAX_HI_CALCAR_L_06M<-0.135555789] yes=507,no=508,missing=507
									507:leaf=0.046758309
									508:leaf=0.495769918
						90:[AVG_PND_MAS_PCT_VENC30M_03M<0.0212689992] yes=173,no=174,missing=173
							173:[MIN_D_CRED_LIM_TO_BAL_03M<-0.287626684] yes=313,no=314,missing=313
								313:leaf=0.381036639
								314:[AVG_VENCIDO1MAS_03M<13.666666] yes=509,no=510,missing=509
									509:leaf=0.00805513747
									510:[AVG_PND_MAS_PCT_VENC59_03M<0.0191389993] yes=765,no=766,missing=765
										765:leaf=-0.444858611
										766:leaf=-0.0829829872
							174:[AVG_PCT_VENC59_03M<0.092573002] yes=315,no=316,missing=315
								315:[AVG_PND_MENOS_D_CRED_LIM_TO_BAL_03M<-0.253690004] yes=511,no=512,missing=511
									511:leaf=-0.360028774
									512:[MAX_PCT_VIGENTEH_06M<-0.00306372554] yes=767,no=768,missing=767
										767:leaf=0.510684013
										768:leaf=-0.297638059
								316:leaf=-0.402854145
					48:[AVG_PCT_VENC30M_03M<0.00638149958] yes=91,no=92,missing=91
						91:[CUR_BAL<-0.117203757] yes=175,no=176,missing=175
							175:leaf=-0.0306693558
							176:leaf=0.612559855
						92:[MS_OP<0.547619104] yes=177,no=178,missing=177
							177:[AVG_PCT_VIGENTEH_12M<-15.9944077] yes=317,no=318,missing=317
								317:[MAX_PCT_VENC29_12M<86.856369] yes=513,no=514,missing=513
									513:[AVG_PND_MENOS_PCT_VENC59_12M<0.131459504] yes=769,no=770,missing=769
										769:leaf=-0.418545365
										770:leaf=0.106776655
									514:[AVG_VENCIDO1MAS_12M<737.556763] yes=771,no=772,missing=771
										771:leaf=-0.259545982
										772:leaf=0.460577816
								318:[AVG_VENCIDO30MAS_06M<64.8214264] yes=515,no=516,missing=515
									515:[NBK12_DEUDA_TOT<-0.0789511502] yes=773,no=774,missing=773
										773:leaf=-0.142654479
										774:leaf=-0.380299747
									516:[MIN_VIGENTEH_03M<1.59243703] yes=775,no=776,missing=775
										775:leaf=0.431549639
										776:leaf=-0.235199749
							178:[DS_CL<-0.498784065] yes=319,no=320,missing=319
								319:[AVG_PND_MENOS_VENCIDO1MAS_03M<341.452393] yes=517,no=518,missing=517
									517:[MIN_PCT_VIGENTEH_03M<-62.6765137] yes=777,no=778,missing=777
										777:leaf=-0.426925331
										778:leaf=-0.000400454272
									518:[AVG_PND_MAS_VENC59_06M<4.81818199] yes=779,no=780,missing=779
										779:leaf=0.313173115
										780:leaf=-0.0425501056
								320:[MAX_VIGENTEH_12M<-0.256730378] yes=519,no=520,missing=519
									519:[AVG_AVG_HI_CALCAR_L_12M<4.52805662] yes=781,no=782,missing=781
										781:leaf=-0.205330938
										782:leaf=0.375244826
									520:[MAX_PCT_VIGENTEH_03M<-0.0337185711] yes=783,no=784,missing=783
										783:leaf=-0.438558131
										784:leaf=-0.246265754
				24:[DEUDA_TOT<0.382352948] yes=49,no=50,missing=49
					49:[AVG_PND_MENOS_PCT_VENC1M_12M<22.3022766] yes=93,no=94,missing=93
						93:[MIN_D_CRED_LIM_TO_BAL_12M<-0.21563071] yes=179,no=180,missing=179
							179:[BK12_NUM_TC_ACT<-0.155000001] yes=321,no=322,missing=321
								321:[AVG_PND_MAS_MAX_HI_CALCAR_FLOOR_03M<5.74698544] yes=521,no=522,missing=521
									521:[DS_CL<-0.0933852121] yes=785,no=786,missing=785
										785:leaf=-0.345159709
										786:leaf=0.218742833
									522:leaf=0.461837739
								322:[MAX_AVG_HI_CALCAR_CEIL_12M<1.09848487] yes=523,no=524,missing=523
									523:[AVG_PND_MENOS_BAL_06M<-0.117376097] yes=787,no=788,missing=787
										787:leaf=-0.206342801
										788:leaf=0.412898481
									524:[MAX_VENC89_03M<8.5] yes=789,no=790,missing=789
										789:leaf=0.0950451195
										790:leaf=-0.418373317
							180:[AVG_PND_MAS_PCT_VENC89_03M<0.0236915015] yes=323,no=324,missing=323
								323:[BK12_CLEAN<1.75] yes=525,no=526,missing=525
									525:[MIN_AVG_HI_CALCAR_L_12M<0.416666687] yes=791,no=792,missing=791
										791:leaf=-0.246522412
										792:leaf=0.079255715
									526:[MIN_D_CRED_LIM_TO_BAL_03M<0.68846339] yes=793,no=794,missing=793
										793:leaf=0.489658445
										794:leaf=-0.363494307
								324:[MIN_R_BAL_BY_CRED_LIM_12M<0.084713161] yes=527,no=528,missing=527
									527:[AVG_PND_MENOS_PCT_VIGENTEH_03M<-89.5647812] yes=795,no=796,missing=795
										795:leaf=-0.365475744
										796:leaf=0.489951819
									528:[AVG_PND_MENOS_PCT_VENC59_03M<0.103936501] yes=797,no=798,missing=797
										797:leaf=0.398975641
										798:leaf=-0.331973374
						94:[MAX_VENCIDO1MAS_03M<3861] yes=181,no=182,missing=181
							181:[MIN_VIGENTEH_06M<1.82728946] yes=325,no=326,missing=325
								325:[AVG_VIGENTEH_06M<0.931656837] yes=529,no=530,missing=529
									529:[MAX_VENCIDO30MAS_12M<35.5] yes=799,no=800,missing=799
										799:leaf=0.0295751393
										800:leaf=-0.192978188
									530:[SUM_VIGENTEH_06M<1.15617096] yes=801,no=802,missing=801
										801:leaf=0.484534055
										802:leaf=-0.144970298
								326:[BK_IND_PMOR<0.334269226] yes=531,no=532,missing=531
									531:[MAX_R_BAL_BY_MAX_BAL_03M<-0.733167946] yes=803,no=804,missing=803
										803:leaf=0.0891358107
										804:leaf=0.386922985
									532:[MIN_VENCIDO60MAS_12M<426.5] yes=805,no=806,missing=805
										805:leaf=-0.477966994
										806:leaf=0.0188930519
							182:[BK12_PCT_PROMT<0.215000004] yes=327,no=328,missing=327
								327:[MAX_PCT_VENC29_06M<405.696259] yes=533,no=534,missing=533
									533:[MIN_PCT_VENC29_06M<0.0101521052] yes=807,no=808,missing=807
										807:leaf=0.271391213
										808:leaf=-0.412286848
									534:[AVG_PND_MAS_R_BAL_BY_MAX_BAL_06M<0.130098119] yes=809,no=810,missing=809
										809:leaf=0.00611703098
										810:leaf=-0.443467617
								328:[MIN_R_BAL_BY_CRED_LIM_03M<0.636274695] yes=535,no=536,missing=535
									535:leaf=-0.451168209
									536:leaf=0.260712206
					50:[MIN_VENC59_06M<165] yes=95,no=96,missing=95
						95:[NUM_VENCIDO1MAS_12M<3.25] yes=183,no=184,missing=183
							183:[NBK12_PCT_60PLUS<1.05799317] yes=329,no=330,missing=329
								329:[AVG_PND_MENOS_R_BAL_BY_MAX_BAL_06M<0.0238497946] yes=537,no=538,missing=537
									537:[AVG_PND_MENOS_MAX_HI_CALCAR_L_03M<1.48319411] yes=811,no=812,missing=811
										811:leaf=-0.437065721
										812:leaf=0.0119646108
									538:[MAX_R_BAL_BY_CRED_LIM_12M<0.366193116] yes=813,no=814,missing=813
										813:leaf=0.496841967
										814:leaf=-0.115027532
								330:[NUM_VENC59_12M<4.5] yes=539,no=540,missing=539
									539:leaf=-0.459580511
									540:leaf=0.309783429
							184:[BK12_MAX_CREDIT_AMT<12.2258062] yes=331,no=332,missing=331
								331:[MAX_PCT_VENC60M_03M<0.0353047997] yes=541,no=542,missing=541
									541:[AVG_PND_MAS_VENC89_03M<191.200012] yes=815,no=816,missing=815
										815:leaf=-0.426529944
										816:leaf=0.280353844
									542:[DEUDA_TOT_CP<-0.75] yes=817,no=818,missing=817
										817:leaf=-0.0640761107
										818:leaf=-0.269718289
								332:[AVG_PND_MENOS_D_CRED_LIM_TO_BAL_06M<-0.241571695] yes=543,no=544,missing=543
									543:leaf=-0.166530401
									544:leaf=0.434633464
						96:leaf=0.456376046
			12:[MIN_R_BAL_BY_MAX_BAL_03M<0.30893904] yes=25,no=26,missing=25
				25:[AVG_AVG_HI_CALCAR_L_06M<2.83748198] yes=51,no=52,missing=51
					51:[AVG_PCT_VENC59_03M<0.246451497] yes=97,no=98,missing=97
						97:[MIN_VIGENTEH_03M<-0.285434186] yes=185,no=186,missing=185
							185:[MAX_PCT_VENC29_06M<13.4172707] yes=333,no=334,missing=333
								333:leaf=-0.364402652
								334:[DS_OL_CL<0.733724475] yes=545,no=546,missing=545
									545:[AVG_PND_MENOS_R_BAL_BY_CRED_LIM_03M<0.68859148] yes=819,no=820,missing=819
										819:leaf=0.401967227
										820:leaf=0.048812747
									546:leaf=-0.264416248
							186:[BK12_PCT_PROMT<0.270000011] yes=335,no=336,missing=335
								335:[AVG_PCT_VENC59_12M<0.00201900001] yes=547,no=548,missing=547
									547:leaf=0.0176067576
									548:leaf=-0.478992909
								336:leaf=0.160214767
						98:leaf=0.334666729
					52:[R_BAL_BY_CRED_LIM<0.648753643] yes=99,no=100,missing=99
						99:[NBK12_DEUDA_TOT<0.29012084] yes=187,no=188,missing=187
							187:[MAX_R_BAL_BY_MAX_BAL_03M<-0.162330136] yes=337,no=338,missing=337
								337:leaf=-0.0814012736
								338:leaf=-0.446394116
							188:[AVG_PND_MENOS_AVG_HI_CALCAR_L_12M<3.85167933] yes=339,no=340,missing=339
								339:[MAX_R_BAL_BY_CRED_LIM_12M<0.460478485] yes=549,no=550,missing=549
									549:leaf=0.422348827
									550:leaf=-0.0506465174
								340:[AVG_R_BAL_BY_CRED_LIM_03M<0.708019853] yes=551,no=552,missing=551
									551:leaf=-0.372188866
									552:leaf=0.139877021
						100:[BK12_PCT_90PLUS<-0.935000002] yes=189,no=190,missing=189
							189:leaf=-0.328543574
							190:[AVG_PND_MAS_VENC89_06M<78.861908] yes=341,no=342,missing=341
								341:[AVG_PND_MAS_VENC59_12M<0.728571534] yes=553,no=554,missing=553
									553:leaf=-0.0155578889
									554:[AVG_PND_MENOS_AVG_HI_CALCAR_FLOOR_03M<7.6957674] yes=821,no=822,missing=821
										821:leaf=0.123720407
										822:leaf=0.457433164
								342:leaf=-0.187161297
				26:[BK12_MAX_CREDIT_AMT<-0.661290288] yes=53,no=54,missing=53
					53:[MAX_VENC29_12M<1.4375] yes=101,no=102,missing=101
						101:[MAX_VENCIDO1MAS_03M<2.5] yes=191,no=192,missing=191
							191:leaf=-0.0184507184
							192:leaf=-0.433929086
						102:[NBK12_NUM_CRED<0.231038392] yes=193,no=194,missing=193
							193:leaf=0.337141037
							194:leaf=-0.21807453
					54:[MAX_VIGENTEH_06M<0.775282145] yes=103,no=104,missing=103
						103:[AVG_PND_MENOS_VENC89_03M<34.8277779] yes=195,no=196,missing=195
							195:[D_CRED_LIM_TO_BAL<-0.276501715] yes=343,no=344,missing=343
								343:[AVG_PND_MENOS_VENC59_03M<19.8999996] yes=555,no=556,missing=555
									555:[AVG_PND_MENOS_AVG_HI_CALCAR_FLOOR_12M<17.1424847] yes=823,no=824,missing=823
										823:leaf=0.45123741
										824:leaf=-0.00804185867
									556:[MIN_PCT_VIGENTEH_12M<-23.1327095] yes=825,no=826,missing=825
										825:leaf=0.395694256
										826:leaf=-0.121762447
								344:leaf=-0.205727115
							196:[AVG_PCT_VENC29_03M<0.00521299988] yes=345,no=346,missing=345
								345:[DEUDA_TOT<-0.264705896] yes=557,no=558,missing=557
									557:leaf=-0.400161833
									558:leaf=-0.0610613786
								346:[AVG_PND_MENOS_PCT_VENC30M_03M<0.0771625042] yes=559,no=560,missing=559
									559:leaf=-0.287787139
									560:[DS_CL<-0.605544746] yes=827,no=828,missing=827
										827:leaf=0.0484951511
										828:leaf=0.373884559
						104:[AVG_PND_MAS_VENC59_03M<455.200012] yes=197,no=198,missing=197
							197:[MIN_VENC29_03M<3.5] yes=347,no=348,missing=347
								347:[AVG_PND_MAS_PCT_VENC29_12M<132.421356] yes=561,no=562,missing=561
									561:leaf=-0.456149936
									562:leaf=0.0716893375
								348:[CUR_BAL<0.949429393] yes=563,no=564,missing=563
									563:leaf=-0.0419237614
									564:leaf=0.400039941
							198:[AVG_FD_CALCAR_L<0.616666675] yes=349,no=350,missing=349
								349:leaf=0.00977694429
								350:leaf=0.434865624
		6:[NBK12_PCT_60PLUS<0.65731293] yes=13,no=14,missing=13
			13:[DEUDA_TOT<-0.172268912] yes=27,no=28,missing=27
				27:[MIN_R_BAL_BY_MAX_BAL_12M<-0.03704115] yes=55,no=56,missing=55
					55:[MIN_PCT_VIGENTEH_12M<-9.76952744] yes=105,no=106,missing=105
						105:[AVG_PND_MAS_PCT_VENC89_12M<0.131199002] yes=199,no=200,missing=199
							199:[MAX_VENC90M_03M<2583.5] yes=351,no=352,missing=351
								351:[BK_IND_PMOR<-0.421115398] yes=565,no=566,missing=565
									565:[MIN_R_BAL_BY_CRED_LIM_12M<-0.434367388] yes=829,no=830,missing=829
										829:leaf=0.372729659
										830:leaf=-0.277166247
									566:[AVG_VENC89_06M<3.53571463] yes=831,no=832,missing=831
										831:leaf=-0.446026802
										832:leaf=-0.299842328
								352:[AVG_PND_MENOS_D_CRED_LIM_TO_BAL_12M<0.581016123] yes=567,no=568,missing=567
									567:leaf=-0.0852702856
									568:leaf=0.345913559
							200:[MIN_BAL_03M<-0.320405155] yes=353,no=354,missing=353
								353:leaf=-0.21041131
								354:leaf=0.448380083
						106:[AVG_PND_MAS_PCT_VENC29_12M<33.4452248] yes=201,no=202,missing=201
							201:[NUM_VENC29_03M<2.5] yes=355,no=356,missing=355
								355:[BK12_PCT_PROMT<0.0249999985] yes=569,no=570,missing=569
									569:[AVG_PND_MENOS_PCT_VENC30M_12M<0.000976499985] yes=833,no=834,missing=833
										833:leaf=0.219054997
										834:leaf=-0.336734086
									570:[BK12_PCT_PROMT<0.174999997] yes=835,no=836,missing=835
										835:leaf=0.430254728
										836:leaf=-0.301880956
								356:leaf=0.435934454
							202:leaf=0.479447603
					56:[MAX_PCT_VENC89_12M<0.115548313] yes=107,no=108,missing=107
						107:[AVG_PND_MENOS_PCT_VENC30M_12M<0.00336850015] yes=203,no=204,missing=203
							203:[AVG_PND_MAS_VENC29_03M<6.69999981] yes=357,no=358,missing=357
								357:[MIN_R_BAL_BY_MAX_BAL_06M<0.166505128] yes=571,no=572,missing=571
									571:[AVG_PND_MENOS_PCT_VENC30M_06M<0.00785049982] yes=837,no=838,missing=837
										837:leaf=-0.402430177
										838:leaf=0.119510598
									572:[MIN_D_CRED_LIM_TO_BAL_12M<-0.217408329] yes=839,no=840,missing=839
										839:leaf=-0.249678552
										840:leaf=0.273832768
								358:[MAX_PCT_VENC30M_03M<0.025410004] yes=573,no=574,missing=573
									573:leaf=-0.348404914
									574:[MIN_VIGENTEH_03M<0.247899175] yes=841,no=842,missing=841
										841:leaf=0.500112891
										842:leaf=-0.208743975
							204:[BK12_NUM_CRED<-0.414999992] yes=359,no=360,missing=359
								359:[AVG_AVG_HI_CALCAR_L_03M<4.66133213] yes=575,no=576,missing=575
									575:[D_CRED_LIM_TO_BAL<2.73629999] yes=843,no=844,missing=843
										843:leaf=-0.446649641
										844:leaf=0.253754765
									576:[BK12_NUM_CRED<-0.654999971] yes=845,no=846,missing=845
										845:leaf=-0.231221065
										846:leaf=0.410298139
								360:[AVG_PND_MENOS_MAX_HI_CALCAR_FLOOR_12M<16.5491314] yes=577,no=578,missing=577
									577:[NBK12_PCT_60PLUS<0.10510204] yes=847,no=848,missing=847
										847:leaf=-0.27396366
										848:leaf=0.399312913
									578:leaf=0.504092932
						108:[AVG_PND_MAS_MAX_HI_CALCAR_CEIL_03M<21.6327438] yes=205,no=206,missing=205
							205:[AVG_MAX_HI_CALCAR_L_12M<1.45614004] yes=361,no=362,missing=361
								361:[AVG_PCT_VENC29_03M<0.0152124995] yes=579,no=580,missing=579
									579:[MAX_R_BAL_BY_MAX_BAL_06M<-0.628807664] yes=849,no=850,missing=849
										849:leaf=0.460419863
										850:leaf=-0.267742097
									580:leaf=0.573857963
								362:[MIN_BAL_06M<-0.0824154168] yes=581,no=582,missing=581
									581:[MAX_VENC89_12M<110.5] yes=851,no=852,missing=851
										851:leaf=-0.354692429
										852:leaf=0.177960813
									582:[MAX_PCT_VENC59_03M<0.214229077] yes=853,no=854,missing=853
										853:leaf=0.557228208
										854:leaf=-0.279534519
							206:[AVG_R_BAL_BY_MAX_BAL_03M<0.350190639] yes=363,no=364,missing=363
								363:[MAX_VENC90M_12M<162.5] yes=583,no=584,missing=583
									583:leaf=0.0384414271
									584:leaf=-0.471601576
								364:[AVG_PND_MENOS_PCT_VIGENTEH_12M<-29.7821236] yes=585,no=586,missing=585
									585:leaf=0.491465718
									586:leaf=-0.400494695
				28:[AVG_PND_MAS_R_BAL_BY_CRED_LIM_03M<0.68871665] yes=57,no=58,missing=57
					57:[MAX_BAL_03M<3.86155987] yes=109,no=110,missing=109
						109:[AVG_PND_MAS_PCT_VENC29_06M<30.3879318] yes=207,no=208,missing=207
							207:[NUM_VENC89_12M<9] yes=365,no=366,missing=365
								365:[AVG_PND_MENOS_PCT_VENC59_12M<0.170668513] yes=587,no=588,missing=587
									587:[AVG_PND_MAS_PCT_VENC59_03M<0.36758551] yes=855,no=856,missing=855
										855:leaf=-0.406721979
										856:leaf=0.217122093
									588:[CUR_BAL<0.0616725385] yes=857,no=858,missing=857
										857:leaf=0.439460427
										858:leaf=-0.127147093
								366:[CUR_BAL<-0.0465023182] yes=589,no=590,missing=589
									589:leaf=-0.145934209
									590:leaf=0.477146327
							208:[AVG_PCT_VIGENTEH_12M<-4.45055914] yes=367,no=368,missing=367
								367:[AVG_PND_MENOS_VENCIDO1MAS_03M<5298.70605] yes=591,no=592,missing=591
									591:[AVG_PCT_VENC29_12M<6.12684536] yes=859,no=860,missing=859
										859:leaf=0.0224164668
										860:leaf=-0.338751614
									592:[AVG_PND_MENOS_VENCIDO30MAS_03M<194.600006] yes=861,no=862,missing=861
										861:leaf=0.235932335
										862:leaf=-0.271633893
								368:[MIN_R_BAL_BY_MAX_BAL_03M<0.228916794] yes=593,no=594,missing=593
									593:leaf=0.661545515
									594:[MS_OP<-0.0238095243] yes=863,no=864,missing=863
										863:leaf=0.299836457
										864:leaf=-0.370596975
						110:[NBK12_PCT_PROMT<7.26312065] yes=209,no=210,missing=209
							209:[AVG_PND_MENOS_D_CRED_LIM_TO_BAL_12M<1.22414708] yes=369,no=370,missing=369
								369:leaf=0.162107334
								370:leaf=0.545991242
							210:leaf=-0.342048258
					58:[MS_OP<1.11904764] yes=111,no=112,missing=111
						111:[CUR_BAL<0.752451897] yes=211,no=212,missing=211
							211:[AVG_R_BAL_BY_CRED_LIM_03M<0.690648913] yes=371,no=372,missing=371
								371:leaf=-0.052352421
								372:[AVG_PND_MENOS_VENC59_03M<176.600006] yes=595,no=596,missing=595
									595:leaf=0.471330017
									596:leaf=0.064968057
							212:[AVG_PND_MENOS_R_BAL_BY_MAX_BAL_12M<0.414641201] yes=373,no=374,missing=373
								373:leaf=-0.372122586
								374:leaf=0.169457227
						112:[AVG_AVG_HI_CALCAR_L_03M<3.21466589] yes=213,no=214,missing=213
							213:leaf=-0.383381039
							214:leaf=-0.0177609082
			14:[BK12_NUM_CRED<-0.264999986] yes=29,no=30,missing=29
				29:[AVG_PND_MAS_VENC89_06M<365.017853] yes=59,no=60,missing=59
					59:[MAX_PCT_VENC29_03M<0.0425952747] yes=113,no=114,missing=113
						113:[MAX_AVG_HI_CALCAR_L_12M<1.35000002] yes=215,no=216,missing=215
							215:[NBK12_DEUDA_CP<0.664816201] yes=375,no=376,missing=375
								375:leaf=0.513454556
								376:[AVG_PND_MENOS_D_CRED_LIM_TO_BAL_06M<-0.0406875312] yes=597,no=598,missing=597
									597:leaf=-0.396524847
									598:[MS_OP<1.21428573] yes=865,no=866,missing=865
										865:leaf=0.115554631
										866:leaf=-0.152335137
							216:[AVG_BAL_12M<-0.361782193] yes=377,no=378,missing=377
								377:leaf=0.41470015
								378:[AVG_PCT_VIGENTEH_06M<-18.3177872] yes=599,no=600,missing=599
									599:[MS_OP<0.690476179] yes=867,no=868,missing=867
										867:leaf=-0.438617498
										868:leaf=-0.264939189
									600:leaf=0.244805381
						114:[NUM_VENC29_03M<2.5] yes=217,no=218,missing=217
							217:[AVG_PND_MENOS_PCT_VENC29_12M<33.9152107] yes=379,no=380,missing=379
								379:[CUR_CRED_LIM<0.452830195] yes=601,no=602,missing=601
									601:leaf=0.563715279
									602:leaf=-0.357187957
								380:[MIN_BAL_12M<2.67476463] yes=603,no=604,missing=603
									603:leaf=-0.45674482
									604:leaf=0.230756178
							218:[MIN_MAX_HI_CALCAR_L_12M<0.25] yes=381,no=382,missing=381
								381:leaf=-0.291679025
								382:[AVG_VENCIDO30MAS_12M<140.125] yes=605,no=606,missing=605
									605:leaf=0.0113010053
									606:leaf=0.62645781
					60:[MAX_MAX_HI_CALCAR_FLOOR_12M<5.16233778] yes=115,no=116,missing=115
						115:leaf=-0.291118979
						116:[AVG_PND_MENOS_VIGENTEH_12M<3.51146269] yes=219,no=220,missing=219
							219:leaf=0.578502536
							220:leaf=-0.189785317
				30:[MAX_R_BAL_BY_CRED_LIM_06M<0.482859492] yes=61,no=62,missing=61
					61:[NUM_VENC29_03M<1.5] yes=117,no=118,missing=117
						117:[DS_CL<-0.776507735] yes=221,no=222,missing=221
							221:[NBK12_PCT_SAT<0.469279289] yes=383,no=384,missing=383
								383:leaf=0.561213374
								384:leaf=-0.402277678
							222:[NBK12_PCT_PROMT<105.598114] yes=385,no=386,missing=385
								385:[AVG_PND_MAS_R_BAL_BY_CRED_LIM_06M<0.697168291] yes=607,no=608,missing=607
									607:[AVG_PND_MAS_PCT_VENC89_03M<0.18275249] yes=869,no=870,missing=869
										869:leaf=-0.447560996
										870:leaf=-0.200671315
									608:[AVG_VENC89_06M<12.7142868] yes=871,no=872,missing=871
										871:leaf=-0.33008945
										872:leaf=0.261265248
								386:[MAX_BAL_03M<1.2547245] yes=609,no=610,missing=609
									609:leaf=0.311961442
									610:leaf=-0.0424454845
						118:[MAX_VENCIDO60MAS_03M<740] yes=223,no=224,missing=223
							223:[MAX_PCT_VIGENTEH_12M<-0.00246876385] yes=387,no=388,missing=387
								387:[CUR_BAL<0.0141778905] yes=611,no=612,missing=611
									611:leaf=0.371421725
									612:leaf=-0.0707736611
								388:[MAX_AVG_HI_CALCAR_L_12M<1.06500006] yes=613,no=614,missing=613
									613:[NBK12_PCT_60PLUS<8.98758507] yes=873,no=874,missing=873
										873:leaf=-0.0323628411
										874:leaf=-0.379433274
									614:[MAX_PCT_VENC89_03M<0.152453303] yes=875,no=876,missing=875
										875:leaf=-0.458157927
										876:leaf=-0.0381007567
							224:[MAX_VENCIDO60MAS_12M<935] yes=389,no=390,missing=389
								389:[DEUDA_TOT<-0.126050428] yes=615,no=616,missing=615
									615:leaf=0.593226492
									616:[MIN_BAL_12M<1.03299665] yes=877,no=878,missing=877
										877:leaf=-0.302265078
										878:leaf=0.0542085283
								390:[BK12_PCT_PROMT<0.0249999985] yes=617,no=618,missing=617
									617:[NBK12_DEUDA_TOT<1.11553407] yes=879,no=880,missing=879
										879:leaf=0.0697848871
										880:leaf=-0.405515283
									618:[BK12_NUM_CRED<-0.224999994] yes=881,no=882,missing=881
										881:leaf=-0.386046499
										882:leaf=0.404267997
					62:[AVG_PCT_VENC89_12M<0.0322149992] yes=119,no=120,missing=119
						119:[AVG_D_CRED_LIM_TO_BAL_12M<-0.292854697] yes=225,no=226,missing=225
							225:[AVG_PCT_VIGENTEH_06M<-27.1915436] yes=391,no=392,missing=391
								391:[DS_CL<-0.610408545] yes=619,no=620,missing=619
									619:leaf=0.0273097791
									620:[AVG_PND_MENOS_PCT_VENC90M_03M<0.204653502] yes=883,no=884,missing=883
										883:leaf=-0.47498244
										884:leaf=-0.0435794368
								392:leaf=0.0807604343
							226:[AVG_R_BAL_BY_MAX_BAL_12M<0.321367204] yes=393,no=394,missing=393
								393:[AVG_PND_MENOS_D_CRED_LIM_TO_BAL_12M<-0.261191219] yes=621,no=622,missing=621
									621:leaf=0.265747428
									622:leaf=-0.409151107
								394:[AVG_PND_MENOS_CRED_LIM_12M<0.320661724] yes=623,no=624,missing=623
									623:leaf=0.540451169
									624:leaf=0.0384799875
						120:[CUR_BAL<-0.213125274] yes=227,no=228,missing=227
							227:leaf=-0.0580982901
							228:leaf=0.445634484
booster[2]:
0:[AVG_PND_MAS_VENCIDO1MAS_03M<66.3731384] yes=1,no=2,missing=1
	1:[MAX_R_BAL_BY_CRED_LIM_06M<0.466941118] yes=3,no=4,missing=3
		3:[BK12_NUM_TC_ACT<-0.0649999976] yes=7,no=8,missing=7
			7:[AVG_PND_MENOS_VENCIDO30MAS_12M<0.562051535] yes=15,no=16,missing=15
				15:[MAX_PCT_VENC59_12M<0.103006184] yes=31,no=32,missing=31
					31:[NBK12_COMM_PCT_PLUS<-0.125] yes=63,no=64,missing=63
						63:[MIN_D_CRED_LIM_TO_BAL_12M<0.560251832] yes=125,no=126,missing=125
							125:[MIN_R_BAL_BY_CRED_LIM_12M<0.625558376] yes=235,no=236,missing=235
								235:[BK12_NUM_CRED<-0.100000001] yes=415,no=416,missing=415
									415:[BK12_NUM_TC_ACT<-0.264999986] yes=687,no=688,missing=687
										687:leaf=-0.169452667
										688:leaf=-0.401211023
									416:[MS_OP<0.547619104] yes=689,no=690,missing=689
										689:leaf=-0.39381066
										690:leaf=0.227053702
								236:[MIN_R_BAL_BY_MAX_BAL_06M<0.398823589] yes=417,no=418,missing=417
									417:[BK12_MAX_CREDIT_AMT<-0.661290288] yes=691,no=692,missing=691
										691:leaf=-0.114453055
										692:leaf=0.613797009
									418:leaf=-0.372107148
							126:[AVG_PND_MAS_R_BAL_BY_CRED_LIM_03M<-0.573799253] yes=237,no=238,missing=237
								237:[BK12_MAX_CREDIT_AMT<-0.661290288] yes=419,no=420,missing=419
									419:[R_BAL_BY_CRED_LIM<-1.01505923] yes=693,no=694,missing=693
										693:leaf=-0.290111244
										694:leaf=0.241618365
									420:leaf=0.56438458
								238:[DEUDA_TOT<-0.294117659] yes=421,no=422,missing=421
									421:leaf=0.409455776
									422:leaf=-0.377541959
						64:[AVG_FD_CALCAR_CEIL<89.0238113] yes=127,no=128,missing=127
							127:[D_CRED_LIM_TO_BAL<9.44988823] yes=239,no=240,missing=239
								239:[AVG_PND_MAS_D_CRED_LIM_TO_BAL_12M<0.274390519] yes=423,no=424,missing=423
									423:[NBK12_PCT_SAT<3.41007757] yes=695,no=696,missing=695
										695:leaf=-0.242068529
										696:leaf=0.439700454
									424:[NBK12_COMM_PCT_PLUS<0.125] yes=697,no=698,missing=697
										697:leaf=-0.184933662
										698:leaf=-0.386530936
								240:[MS_OP<1.59523809] yes=425,no=426,missing=425
									425:leaf=-0.132292166
									426:leaf=0.366185486
							128:[BK12_MAX_CREDIT_AMT<0.645161271] yes=241,no=242,missing=241
								241:[CUR_BAL<0.297815531] yes=427,no=428,missing=427
									427:[BK12_PCT_PROMT<0.399999976] yes=699,no=700,missing=699
										699:leaf=-0.381430924
										700:leaf=-0.084029533
									428:leaf=0.311446309
								242:leaf=0.611551702
					32:[AVG_VENC29_06M<0.361111701] yes=65,no=66,missing=65
						65:leaf=0.115112089
						66:leaf=0.623212337
				16:[MAX_VENC89_12M<306.5] yes=33,no=34,missing=33
					33:[AVG_PND_MAS_VENCIDO1MAS_03M<55.7238808] yes=67,no=68,missing=67
						67:[DS_CL<-0.671449423] yes=129,no=130,missing=129
							129:[CUR_BAL<-0.232668445] yes=243,no=244,missing=243
