booster[0]:
0:[f90<-0.139091507] yes=1,no=2,missing=1
	1:[f395<-0.0074457638] yes=3,no=4,missing=3
		3:[f56<0.012334371] yes=7,no=8,missing=7
			7:[f243<0.37202847] yes=15,no=16,missing=15
				15:[f87<-0.00769678503] yes=31,no=32,missing=31
					31:leaf=-0.136560947
					32:leaf=-0.175725907
				16:[f340<-0.0525306985] yes=33,no=34,missing=33
					33:leaf=0.0697674379
					34:leaf=-0.124193549
			8:[f99<-0.00919369608] yes=17,no=18,missing=17
				17:[f33<-0.500977695] yes=35,no=36,missing=35
					35:leaf=0.146153852
					36:leaf=-0.0410256423
				18:[f298<-0.0784330517] yes=37,no=38,missing=37
					37:leaf=0.0909090936
					38:leaf=-0.172549024
		4:[f52<0.00412156526] yes=9,no=10,missing=9
			9:[f168<0.677420378] yes=19,no=20,missing=19
				19:[f103<-0.13097629] yes=39,no=40,missing=39
					39:leaf=-0.0945054963
					40:leaf=-0.152891517
				20:[f278<0.00194416812] yes=41,no=42,missing=41
					41:leaf=-0.0650371462
					42:leaf=-0.109671846
			10:[f76<0.823708653] yes=21,no=22,missing=21
				21:[f50<-1.45263827] yes=43,no=44,missing=43
					43:leaf=0.110000007
					44:leaf=-0.0627306327
				22:[f51<-1.12185407] yes=45,no=46,missing=45
					45:leaf=-0.13777779
					46:leaf=0.077173911
	2:[f52<0.00406828616] yes=5,no=6,missing=5
		5:[f212<0.00451047346] yes=11,no=12,missing=11
			11:[f67<0.019094497] yes=23,no=24,missing=23
				23:[f50<-1.74511647] yes=47,no=48,missing=47
					47:leaf=-0.115294121
					48:leaf=-0.195582092
				24:[f49<0.582706273] yes=49,no=50,missing=49
					49:leaf=-0.185645938
					50:leaf=-0.163849831
			12:[f395<0.0143467207] yes=25,no=26,missing=25
				25:[f64<0.262345612] yes=51,no=52,missing=51
					51:leaf=-0.182704911
					52:leaf=-0.157600865
				26:[f374<0.111514434] yes=53,no=54,missing=53
					53:leaf=-0.00639269454
					54:leaf=-0.134609729
		6:[f45<-0.425522983] yes=13,no=14,missing=13
			13:[f446<2.32764816] yes=27,no=28,missing=27
				27:[f432<1.45351791] yes=55,no=56,missing=55
					55:leaf=-0.195527166
					56:leaf=-0.0727272779
				28:[f8<-0.0546270609] yes=57,no=58,missing=57
					57:leaf=-0.120000005
					58:leaf=0.120000005
			14:[f52<0.00433722697] yes=29,no=30,missing=29
				29:[f122<-0.0504221097] yes=59,no=60,missing=59
					59:leaf=-0.141953498
					60:leaf=-0.0744027346
				30:[f38<-0.503580809] yes=61,no=62,missing=61
					61:leaf=0.0403162055
					62:leaf=-0.0761609897
booster[1]:
0:[f395<0.012620056] yes=1,no=2,missing=1
	1:[f52<0.00406828616] yes=3,no=4,missing=3
		3:[f308<-0.22060357] yes=7,no=8,missing=7
			7:[f67<0.0193713196] yes=15,no=16,missing=15
				15:[f50<-1.71900237] yes=31,no=32,missing=31
					31:leaf=-0.123596661
					32:leaf=-0.179283008
				16:[f49<0.647768497] yes=33,no=34,missing=33
					33:leaf=-0.171412542
					34:leaf=-0.152625039
			8:[f83<-0.64491874] yes=17,no=18,missing=17
				17:[f90<-0.531467319] yes=35,no=36,missing=35
					35:leaf=-0.114433363
					36:leaf=-0.150440067
				18:[f48<-0.4847157] yes=37,no=38,missing=37
					37:leaf=-0.152995721
					38:leaf=-0.174594864
		4:[f40<-0.483943939] yes=9,no=10,missing=9
			9:[f91<-0.0190705024] yes=19,no=20,missing=19
				19:leaf=0.11075002
				20:[f119<0.314866185] yes=39,no=40,missing=39
					39:leaf=-0.175011098
					40:leaf=0.0242023673
			10:[f52<0.0043400065] yes=21,no=22,missing=21
				21:[f130<-0.0830558464] yes=41,no=42,missing=41
					41:leaf=-0.13243784
					42:leaf=-0.0753415376
				22:[f37<-0.50442791] yes=43,no=44,missing=43
					43:leaf=0.0387634858
					44:leaf=-0.0697712153
	2:[f278<0.0428100601] yes=5,no=6,missing=5
		5:[f64<0.213787884] yes=11,no=12,missing=11
			11:[f136<2.39475346] yes=23,no=24,missing=23
				23:[f143<0.18828088] yes=45,no=46,missing=45
					45:leaf=-0.0958145782
					46:leaf=-0.156353474
				24:[f297<0.518620968] yes=47,no=48,missing=47
					47:leaf=0.103257872
					48:leaf=-0.0761164948
			12:[f99<-0.00937325694] yes=25,no=26,missing=25
				25:[f216<-0.215246052] yes=49,no=50,missing=49
					49:leaf=-0.107904933
					50:leaf=-0.0142183546
				26:[f105<-0.172187671] yes=51,no=52,missing=51
					51:leaf=-0.132112682
					52:leaf=-0.0622172169
		6:[f216<-0.229993582] yes=13,no=14,missing=13
			13:[f47<-0.506791651] yes=27,no=28,missing=27
				27:[f93<-0.0129992031] yes=53,no=54,missing=53
					53:leaf=-0.175727159
					54:leaf=-0.0452937223
				28:[f50<-1.78072667] yes=55,no=56,missing=55
					55:leaf=0.0751645565
					56:leaf=-0.1688364
			14:[f52<0.00408629328] yes=29,no=30,missing=29
				29:[f103<-0.46242547] yes=57,no=58,missing=57
					57:leaf=-0.0705858544
					58:leaf=-0.124209106
				30:[f12<-0.620609283] yes=59,no=60,missing=59
					59:leaf=-0.0748526677
					60:leaf=0.0684224665
booster[2]:
0:[f90<-0.139091507] yes=1,no=2,missing=1
	1:[f395<-0.0074457638] yes=3,no=4,missing=3
		3:[f99<-0.00913384184] yes=7,no=8,missing=7
			7:[f56<0.0123012178] yes=15,no=16,missing=15
				15:[f396<-0.15431878] yes=31,no=32,missing=31
					31:leaf=-0.141130626
					32:leaf=-0.0936648175
				16:[f40<-0.417820036] yes=33,no=34,missing=33
					33:leaf=0.136141688
					34:leaf=-0.045624841
			8:[f209<3.85848761] yes=17,no=18,missing=17
				17:[f219<9.25840187] yes=35,no=36,missing=35
					35:leaf=-0.152389154
					36:leaf=0.0232160948
				18:[f288<-0.220150799] yes=37,no=38,missing=37
					37:leaf=-0.125599489
					38:leaf=0.163404569
		4:[f52<0.00404386688] yes=9,no=10,missing=9
			9:[f254<0.172427684] yes=19,no=20,missing=19
				19:[f103<-0.46242547] yes=39,no=40,missing=39
					39:leaf=-0.06521523
					40:leaf=-0.108795643
				20:[f163<0.0103052408] yes=41,no=42,missing=41
					41:leaf=-0.010129218
					42:leaf=-0.0709048212
			10:[f76<0.826620936] yes=21,no=22,missing=21
				21:[f50<-1.50249243] yes=43,no=44,missing=43
					43:leaf=0.0998702198
					44:leaf=-0.0567355826
				22:[f87<-0.00848331675] yes=45,no=46,missing=45
					45:leaf=-0.125424981
					46:leaf=0.0639696345
	2:[f52<0.00408413261] yes=5,no=6,missing=5
		5:[f212<0.00451047346] yes=11,no=12,missing=11
			11:[f64<0.896456003] yes=23,no=24,missing=23
				23:[f283<0.352944046] yes=47,no=48,missing=47
					47:leaf=-0.159390479
					48:leaf=-0.166366398
				24:[f49<0.647768497] yes=49,no=50,missing=49
					49:leaf=-0.155857638
					50:leaf=-0.13102223
			12:[f99<-0.00963661447] yes=25,no=26,missing=25
				25:[f64<0.600701988] yes=51,no=52,missing=51
					51:leaf=-0.138479292
					52:leaf=-0.096635066
				26:[f428<2.66430044] yes=53,no=54,missing=53
					53:leaf=-0.148321867
					54:leaf=-0.0778807923
		6:[f45<-0.425946295] yes=13,no=14,missing=13
			13:[f432<1.45351791] yes=27,no=28,missing=27
				27:[f430<1.67237067] yes=55,no=56,missing=55
					55:leaf=-0.166100785
					56:leaf=-0.00408979738
				28:[f75<0.749181747] yes=57,no=58,missing=57
					57:leaf=-0.147925198
					58:leaf=0.0805957839
			14:[f33<-0.494828224] yes=29,no=30,missing=29
				29:[f238<0.125386536] yes=59,no=60,missing=59
					59:leaf=-0.0530013256
					60:leaf=0.0572892688
				30:[f52<0.0046515502] yes=61,no=62,missing=61
					61:leaf=-0.130779371
					62:leaf=0.0260715224
booster[3]:
0:[f383<0.00373380003] yes=1,no=2,missing=1
	1:[f52<0.00406828616] yes=3,no=4,missing=3
		3:[f306<-0.242921606] yes=7,no=8,missing=7
			7:[f67<0.0193713196] yes=15,no=16,missing=15
				15:[f50<-1.71188033] yes=31,no=32,missing=31
					31:leaf=-0.100658767
					32:leaf=-0.155464336
				16:[f49<0.647768497] yes=33,no=34,missing=33
					33:leaf=-0.148547575
					34:leaf=-0.131461188
			8:[f64<0.21817863] yes=17,no=18,missing=17
				17:[f96<0.470387638] yes=35,no=36,missing=35
					35:leaf=-0.150781766
					36:leaf=-0.104604207
				18:[f88<-0.0126854535] yes=37,no=38,missing=37
					37:leaf=-0.114724934
					38:leaf=-0.136598378
		4:[f40<-0.483943939] yes=9,no=10,missing=9
			9:[f119<0.314866185] yes=19,no=20,missing=19
				19:[f88<-0.541824937] yes=39,no=40,missing=39
					39:leaf=-0.0318222158
					40:leaf=-0.153512761
				20:leaf=0.0395156853
			10:[f52<0.0043394058] yes=21,no=22,missing=21
				21:[f13<-0.545790374] yes=41,no=42,missing=41
					41:leaf=-0.126146212
					42:leaf=-0.0666226298
				22:[f8<-0.597605109] yes=43,no=44,missing=43
					43:leaf=-0.0497468971
					44:leaf=0.0432298593
	2:[f278<0.0436768159] yes=5,no=6,missing=5
		5:[f52<0.00423080008] yes=11,no=12,missing=11
			11:[f99<-0.0104027428] yes=23,no=24,missing=23
				23:[f103<0.863371193] yes=45,no=46,missing=45
					45:leaf=-0.0076334672
					46:leaf=-0.149392679
				24:[f162<-0.0334741846] yes=47,no=48,missing=47
					47:leaf=-0.10225188
					48:leaf=-0.0532989912
			12:[f161<0.0890913457] yes=25,no=26,missing=25
				25:[f87<-0.00841777306] yes=49,no=50,missing=49
					49:leaf=-0.102605164
					50:leaf=0.122425459
				26:[f142<1.34778929] yes=51,no=52,missing=51
					51:leaf=-0.123463057
					52:leaf=0.135526076
		6:[f216<-0.229993582] yes=13,no=14,missing=13
			13:[f47<-0.506055832] yes=27,no=28,missing=27
				27:[f493<4.87230158] yes=53,no=54,missing=53
					53:leaf=-0.104965501
					54:leaf=0.0474937633
				28:[f50<-1.73372126] yes=55,no=56,missing=55
					55:leaf=0.00632921979
					56:leaf=-0.148718178
			14:[f99<-0.0100196786] yes=29,no=30,missing=29
				29:[f107<-0.0567521751] yes=57,no=58,missing=57
					57:leaf=-0.0348281302
					58:leaf=-0.109902881
				30:[f250<0.722498417] yes=59,no=60,missing=59
					59:leaf=-0.121747099
					60:leaf=-0.0749148726
booster[4]:
0:[f90<-0.139091507] yes=1,no=2,missing=1
	1:[f278<0.0757562667] yes=3,no=4,missing=3
		3:[f71<0.497974992] yes=7,no=8,missing=7
			7:[f190<-0.239113808] yes=15,no=16,missing=15
				15:[f50<-0.95409584] yes=31,no=32,missing=31
					31:leaf=0.0585236512
					32:leaf=-0.0350782387
				16:[f252<0.0287180468] yes=33,no=34,missing=33
					33:leaf=-0.106040753
					34:leaf=-0.0589782409
			8:[f99<-0.00946902297] yes=17,no=18,missing=17
				17:[f52<0.00434402749] yes=35,no=36,missing=35
					35:leaf=-0.00758600701
					36:leaf=0.125585735
				18:[f226<3.63094926] yes=37,no=38,missing=37
					37:leaf=-0.0603663288
					38:leaf=0.0505301952
		4:[f250<0.637441814] yes=9,no=10,missing=9
			9:[f99<-0.00922960788] yes=19,no=20,missing=19
				19:[f59<1.44511223] yes=39,no=40,missing=39
					39:leaf=-0.0979158953
					40:leaf=0.0521029793
				20:[f33<-0.488132954] yes=41,no=42,missing=41
					41:leaf=-0.0880518332
					42:leaf=-0.141100049
			10:[f105<0.718475759] yes=21,no=22,missing=21
				21:[f99<-0.00968449749] yes=43,no=44,missing=43
					43:leaf=-0.0285254177
					44:leaf=-0.0909328163
				22:[f112<-0.0134601993] yes=45,no=46,missing=45
					45:leaf=-0.135388449
					46:leaf=0.169024989
	2:[f131<0.159537971] yes=5,no=6,missing=5
		5:[f52<0.00409965031] yes=11,no=12,missing=11
			11:[f48<-0.484921575] yes=23,no=24,missing=23
				23:[f71<0.420918584] yes=47,no=48,missing=47
					47:leaf=-0.143494129
					48:leaf=-0.129059687
				24:[f50<-1.75936055] yes=49,no=50,missing=49
					49:leaf=-0.0694411248
					50:leaf=-0.146227852
			12:[f40<-0.437075734] yes=25,no=26,missing=25
				25:[f89<-0.0160348546] yes=51,no=52,missing=51
					51:leaf=0.000796141219
					52:leaf=-0.145956054
				26:[f33<-0.494730115] yes=53,no=54,missing=53
					53:leaf=-0.0306590479
					54:leaf=-0.10592977
		6:[f34<-0.500680327] yes=13,no=14,missing=13
			13:[f52<0.00409521908] yes=27,no=28,missing=27
				27:[f205<0.442952573] yes=55,no=56,missing=55
					55:leaf=-0.0820153281
					56:leaf=-0.118339472
				28:[f70<0.68611598] yes=57,no=58,missing=57
					57:leaf=-0.079945989
					58:leaf=0.0125634223
			14:[f278<0.109906882] yes=29,no=30,missing=29
				29:[f420<1.2813735] yes=59,no=60,missing=59
					59:leaf=-0.109854855
					60:leaf=-0.0625726953
				30:[f64<0.121404827] yes=61,no=62,missing=61
					61:leaf=-0.14258723
					62:leaf=-0.127780795
booster[5]:
0:[f90<-0.0368477702] yes=1,no=2,missing=1
	1:[f395<-0.0074457638] yes=3,no=4,missing=3
		3:[f99<-0.0090380758] yes=7,no=8,missing=7
			7:[f42<-0.515806675] yes=15,no=16,missing=15
				15:[f396<-0.171276242] yes=31,no=32,missing=31
					31:leaf=-0.030605644
					32:leaf=0.123118512
				16:[f493<-0.28741017] yes=33,no=34,missing=33
					33:leaf=0.0185641032
					34:leaf=-0.0955333859
			8:[f209<3.85848761] yes=17,no=18,missing=17
				17:[f281<-7.23499393] yes=35,no=36,missing=35
					35:leaf=0.112812035
					36:leaf=-0.125750974
				18:[f288<-0.220150799] yes=37,no=38,missing=37
					37:leaf=-0.0999397859
					38:leaf=0.163404599
		4:[f68<0.0399327502] yes=9,no=10,missing=9
			9:[f103<-0.793874621] yes=19,no=20,missing=19
				19:[f134<0.0564925298] yes=39,no=40,missing=39
					39:leaf=-0.00542551605
					40:leaf=-0.129705966
				20:[f355<1.74838316] yes=41,no=42,missing=41
					41:leaf=-0.101141348
					42:leaf=-0.0298136361
			10:[f99<-0.00937325694] yes=21,no=22,missing=21
				21:[f64<-0.160823584] yes=43,no=44,missing=43
					43:leaf=-0.0868751407
					44:leaf=-0.00514716376
				22:[f50<-1.71282995] yes=45,no=46,missing=45
					45:leaf=0.10251724
					46:leaf=-0.0682486445
	2:[f58<0.00147086754] yes=5,no=6,missing=5
		5:[f311<0.940570116] yes=11,no=12,missing=11
			11:[f59<0.512656331] yes=23,no=24,missing=23
				23:[f112<0.49265635] yes=47,no=48,missing=47
					47:leaf=-0.139994174
					48:leaf=-0.116348341
				24:[f307<-0.226035759] yes=49,no=50,missing=49
					49:leaf=-0.134392515
					50:leaf=-0.121537142
			12:[f103<-0.793874621] yes=25,no=26,missing=25
				25:[f105<-0.190275103] yes=51,no=52,missing=51
					51:leaf=-0.103786625
					52:leaf=-0.043440748
				26:[f218<-0.0784639567] yes=53,no=54,missing=53
					53:leaf=-0.129608825
					54:leaf=-0.107801042
		6:[f212<-0.185103267] yes=13,no=14,missing=13
			13:[f458<-0.285207689] yes=27,no=28,missing=27
				27:[f456<0.29584378] yes=55,no=56,missing=55
					55:leaf=-0.12874876
					56:leaf=0.0296241939
				28:[f71<0.553831339] yes=57,no=58,missing=57
					57:leaf=-0.129437655
					58:leaf=-0.0732153282
			14:[f316<0.0121559044] yes=29,no=30,missing=29
				29:[f52<0.0041277539] yes=59,no=60,missing=59
					59:leaf=-0.0923363939
					60:leaf=-0.0374291874
				30:[f72<0.587760091] yes=61,no=62,missing=61
					61:leaf=-0.121565118
					62:leaf=0.101839736
booster[6]:
0:[f383<0.00373380003] yes=1,no=2,missing=1
	1:[f308<-0.22060357] yes=3,no=4,missing=3
		3:[f47<-0.489452839] yes=7,no=8,missing=7
			7:[f52<0.00411665719] yes=15,no=16,missing=15
				15:[f507<0.000391462178] yes=31,no=32,missing=31
					31:leaf=-0.12429823
					32:leaf=-0.100742273
				16:[f42<-0.521739483] yes=33,no=34,missing=33
					33:leaf=-0.126485139
					34:leaf=-0.046732273
			8:[f50<-1.71900237] yes=17,no=18,missing=17
				17:[f463<2.53054047] yes=35,no=36,missing=35
					35:leaf=-0.082780838
					36:leaf=0.183387429
				18:[f250<0.753836989] yes=37,no=38,missing=37
					37:leaf=-0.133891866
					38:leaf=-0.088991724
		4:[f64<0.21817863] yes=9,no=10,missing=9
			9:[f96<0.575541854] yes=19,no=20,missing=19
				19:[f53<0.00258967071] yes=39,no=40,missing=39
					39:leaf=-0.128721356
					40:leaf=-0.0805379003
				20:[f64<-0.472818375] yes=41,no=42,missing=41
					41:leaf=-0.119530991
					42:leaf=-0.0249300506
			10:[f52<0.00406243606] yes=21,no=22,missing=21
				21:[f88<-0.0126854535] yes=43,no=44,missing=43
					43:leaf=-0.0864312202
					44:leaf=-0.111988738
				22:[f60<0.0602219328] yes=45,no=46,missing=45
					45:leaf=0.0241137408
					46:leaf=-0.0603837781
	2:[f278<0.0436768159] yes=5,no=6,missing=5
		5:[f74<-0.691278279] yes=11,no=12,missing=11
			11:[f396<-0.000370352529] yes=23,no=24,missing=23
				23:[f212<0.47748369] yes=47,no=48,missing=47
					47:leaf=0.161436006
					48:leaf=-0.0960323736
				24:[f216<5.08987617] yes=49,no=50,missing=49
					49:leaf=-0.112327449
					50:leaf=0.0217601005
			12:[f99<-0.0081761796] yes=25,no=26,missing=25
				25:[f52<0.00423731655] yes=51,no=52,missing=51
					51:leaf=-0.0280284472
					52:leaf=0.064116843
				26:[f105<0.03017685] yes=53,no=54,missing=53
					53:leaf=-0.0866797045
					54:leaf=-0.0112346699
		6:[f216<-0.229993582] yes=13,no=14,missing=13
			13:[f47<-0.506055832] yes=27,no=28,missing=27
				27:[f237<0.640569925] yes=55,no=56,missing=55
					55:leaf=-0.0793805495
					56:leaf=0.0884602591
				28:[f50<-1.78072667] yes=57,no=58,missing=57
					57:leaf=0.0574034229
					58:leaf=-0.12686263
			14:[f99<-0.0100196786] yes=29,no=30,missing=29
				29:[f107<-0.0567521751] yes=59,no=60,missing=59
					59:leaf=-0.0181257129
					60:leaf=-0.0881485045
				30:[f249<1.23950279] yes=61,no=62,missing=61
					61:leaf=-0.0960143432
					62:leaf=-0.04881249
booster[7]:
0:[f90<-0.0368477702] yes=1,no=2,missing=1
	1:[f255<-0.0598582216] yes=3,no=4,missing=3
		3:[f103<-0.46242547] yes=7,no=8,missing=7
			7:[f75<0.564294338] yes=15,no=16,missing=15
				15:[f238<0.128180891] yes=31,no=32,missing=31
					31:leaf=-0.124252453
					32:leaf=-0.0494583845
				16:[f99<-0.00922960788] yes=33,no=34,missing=33
					33:leaf=0.0270516779
					34:leaf=-0.0680081472
			8:[f54<1.20804465] yes=17,no=18,missing=17
				17:[f287<0.2468054] yes=35,no=36,missing=35
					35:leaf=-0.0939243287
					36:leaf=-0.129282027
				18:[f314<0.827100754] yes=37,no=38,missing=37
					37:leaf=-0.070907034
					38:leaf=0.0636819378
		4:[f52<0.00406026561] yes=9,no=10,missing=9
			9:[f308<0.261100113] yes=19,no=20,missing=19
				19:[f98<-0.0943814665] yes=39,no=40,missing=39
					39:leaf=-0.0257842094
					40:leaf=-0.0938271657
				20:[f376<0.406167507] yes=41,no=42,missing=41
					41:leaf=0.00248967973
					42:leaf=-0.0466858335
			10:[f33<-0.49823752] yes=21,no=22,missing=21
				21:[f99<-0.00624888577] yes=43,no=44,missing=43
					43:leaf=0.06763836
					44:leaf=-0.124568544
				22:[f82<0.949623644] yes=45,no=46,missing=45
					45:leaf=-0.0715631321
					46:leaf=0.145573452
	2:[f131<0.159537971] yes=5,no=6,missing=5
		5:[f48<-0.484921575] yes=11,no=12,missing=11
			11:[f52<0.00406825449] yes=23,no=24,missing=23
				23:[f71<0.420918584] yes=47,no=48,missing=47
					47:leaf=-0.125301942
					48:leaf=-0.109391712
				24:[f48<-0.523839355] yes=49,no=50,missing=49
					49:leaf=-0.131821677
					50:leaf=-0.0456872992
			12:[f50<-1.75936055] yes=25,no=26,missing=25
				25:[f112<0.000905978028] yes=51,no=52,missing=51
					51:leaf=-0.0720571056
					52:leaf=0.109762348
				26:[f112<0.405860692] yes=53,no=54,missing=53
					53:leaf=-0.128709301
					54:leaf=-0.100204684
		6:[f34<-0.500524044] yes=13,no=14,missing=13
			13:[f205<0.442952573] yes=27,no=28,missing=27
				27:[f224<0.311182976] yes=55,no=56,missing=55
					55:leaf=-0.0634927824
					56:leaf=0.0307353437
				28:[f49<0.582706273] yes=57,no=58,missing=57
					57:leaf=-0.107873499
					58:leaf=-0.057997264
			14:[f278<0.109906882] yes=29,no=30,missing=29
				29:[f448<2.05720758] yes=59,no=60,missing=59
					59:leaf=-0.0873541459
					60:leaf=-0.0140064498
				30:[f59<0.40037331] yes=61,no=62,missing=61
					61:leaf=-0.123070396
					62:leaf=-0.106822729
booster[8]:
0:[f383<0.00373380003] yes=1,no=2,missing=1
	1:[f308<-0.22060357] yes=3,no=4,missing=3
		3:[f67<0.0193320923] yes=7,no=8,missing=7
			7:[f50<-1.71900237] yes=15,no=16,missing=15
				15:[f487<1.97134566] yes=31,no=32,missing=31
					31:leaf=-0.0783068165
					32:leaf=0.124569371
				16:[f493<0.878360271] yes=33,no=34,missing=33
					33:leaf=-0.125151843
					34:leaf=-0.107850373
			8:[f58<0.00147141493] yes=17,no=18,missing=17
				17:[f49<0.582706273] yes=35,no=36,missing=35
					35:leaf=-0.11669071
					36:leaf=-0.0932772979
				18:[f427<0.0194634721] yes=37,no=38,missing=37
					37:leaf=-0.103276528
					38:leaf=-0.0560282059
		4:[f64<0.442670047] yes=9,no=10,missing=9
			9:[f83<-0.64491874] yes=19,no=20,missing=19
				19:[f432<3.05062747] yes=39,no=40,missing=39
					39:leaf=-0.100986958
					40:leaf=-0.02989012
				20:[f50<-1.74796534] yes=41,no=42,missing=41
					41:leaf=0.00674957782
					42:leaf=-0.121670239
			10:[f52<0.00406915881] yes=21,no=22,missing=21
				21:[f49<0.582706273] yes=43,no=44,missing=43
					43:leaf=-0.0965482518
					44:leaf=-0.0596056655
				22:[f67<0.0307352319] yes=45,no=46,missing=45
					45:leaf=0.020035265
					46:leaf=-0.0540978685
	2:[f126<-0.053843189] yes=5,no=6,missing=5
		5:[f425<3.03067112] yes=11,no=12,missing=11
			11:[f50<-1.73087239] yes=23,no=24,missing=23
				23:[f51<-1.09176552] yes=47,no=48,missing=47
					47:leaf=-0.0448878706
					48:leaf=0.217126846
				24:[f103<-0.793874621] yes=49,no=50,missing=49
					49:leaf=-0.0452890098
					50:leaf=-0.11793454
			12:[f76<0.800460458] yes=25,no=26,missing=25
				25:[f254<2.58932018] yes=51,no=52,missing=51
					51:leaf=-0.106240168
					52:leaf=0.0123252282
				26:[f361<0.0309427213] yes=53,no=54,missing=53
					53:leaf=-0.0812129676
					54:leaf=0.0603101738
		6:[f99<-0.0102351531] yes=13,no=14,missing=13
			13:[f103<-0.46242547] yes=27,no=28,missing=27
				27:[f127<-0.108748935] yes=55,no=56,missing=55
					55:leaf=-0.0695543513
					56:leaf=0.0383311398
				28:[f104<-0.041497305] yes=57,no=58,missing=57
					57:leaf=-0.0613941737
					58:leaf=0.0206311624
			14:[f165<-0.0200816039] yes=29,no=30,missing=29
				29:[f58<0.00153757166] yes=59,no=60,missing=59
					59:leaf=-0.0813686699
					60:leaf=-0.0138276536
				30:[f19<-0.68876493] yes=61,no=62,missing=61
					61:leaf=-0.0968567878
					62:leaf=-0.0298593584
booster[9]:
0:[f96<0.0471419208] yes=1,no=2,missing=1
	1:[f59<0.512656331] yes=3,no=4,missing=3
		3:[f305<0.00279561337] yes=7,no=8,missing=7
			7:[f432<2.27465105] yes=15,no=16,missing=15
				15:[f209<0.0976012647] yes=31,no=32,missing=31
					31:leaf=-0.120979093
					32:leaf=-0.0281218179
				16:[f243<1.82904863] yes=33,no=34,missing=33
					33:leaf=-0.0823687911
					34:leaf=0.22490564
			8:[f87<0.0227157902] yes=17,no=18,missing=17
				17:[f8<3.54284859] yes=35,no=36,missing=35
					35:leaf=-0.0995021984
					36:leaf=0.112864472
				18:[f282<-1.53304744] yes=37,no=38,missing=37
					37:leaf=-0.0803915933
					38:leaf=0.253310889
		4:[f308<-0.220649987] yes=9,no=10,missing=9
			9:[f58<0.00147141493] yes=19,no=20,missing=19
				19:[f50<-1.69098902] yes=39,no=40,missing=39
					39:leaf=-0.0331224911
					40:leaf=-0.112953477
				20:[f15<-0.215289503] yes=41,no=42,missing=41
					41:leaf=-0.06230231
					42:leaf=-0.109197751
			10:[f484<0.234793007] yes=21,no=22,missing=21
				21:[f53<0.00258762203] yes=43,no=44,missing=43
					43:leaf=-0.0946386978
					44:leaf=-0.0442749187
				22:[f103<-0.793874621] yes=45,no=46,missing=45
					45:leaf=-0.006232413
					46:leaf=-0.0661907271
	2:[f395<-0.0650342107] yes=5,no=6,missing=5
		5:[f48<-0.477821112] yes=11,no=12,missing=11
			11:[f87<-0.00769678503] yes=23,no=24,missing=23
				23:[f50<-1.46593273] yes=47,no=48,missing=47
					47:leaf=0.115787707
					48:leaf=-0.0398102216
				24:[f149<2.85296726] yes=49,no=50,missing=49
					49:leaf=-0.0952394456
					50:leaf=0.0226981547
			12:[f209<0.00280701974] yes=25,no=26,missing=25
				25:[f428<2.87434435] yes=51,no=52,missing=51
					51:leaf=-0.109400503
					52:leaf=-0.0612054765
				26:[f209<0.00410531834] yes=53,no=54,missing=53
					53:leaf=0.245760247
					54:leaf=-0.0647226945
		6:[f68<0.0400163829] yes=13,no=14,missing=13
			13:[f298<-0.0698722005] yes=27,no=28,missing=27
				27:[f164<0.0217890423] yes=55,no=56,missing=55
					55:leaf=-0.0127683431
					56:leaf=0.0977533385
				28:[f155<35.4508057] yes=57,no=58,missing=57
					57:leaf=-0.0707073063
					58:leaf=0.209139302
			14:[f99<-0.00939719938] yes=29,no=30,missing=29
				29:[f8<-0.618255615] yes=59,no=60,missing=59
					59:leaf=-0.0774657205
					60:leaf=0.0075035952
				30:[f117<0.760492563] yes=61,no=62,missing=61
					61:leaf=-0.0500858389
					62:leaf=0.0540301315
booster[10]:
0:[f308<0.0239051208] yes=1,no=2,missing=1
	1:[f66<0.0178452488] yes=3,no=4,missing=3
		3:[f88<-0.0126854535] yes=7,no=8,missing=7
			7:[f237<-0.0759945661] yes=15,no=16,missing=15
				15:[f131<3.83512115] yes=31,no=32,missing=31
					31:leaf=-0.107771456
					32:leaf=-0.0384711437
				16:[f237<-0.0747867376] yes=33,no=34,missing=33
					33:leaf=0.30037573
					34:leaf=-0.0679206327
			8:[f50<-1.74511647] yes=17,no=18,missing=17
				17:[f38<-0.45296666] yes=35,no=36,missing=35
					35:leaf=0.116754368
					36:leaf=-0.0530640893
				18:[f220<-0.268975019] yes=37,no=38,missing=37
					37:leaf=-0.119298115
					38:leaf=-0.111135326
		4:[f52<0.00409965031] yes=9,no=10,missing=9
			9:[f282<0.291869313] yes=19,no=20,missing=19
				19:[f111<2.77098942] yes=39,no=40,missing=39
					39:leaf=-0.0846050233
					40:leaf=-0.00690267934
				20:[f28<-0.486359] yes=41,no=42,missing=41
					41:leaf=-0.0954209417
					42:leaf=-0.11232841
			10:[f45<-0.392535597] yes=21,no=22,missing=21
				21:[f493<0.147807166] yes=43,no=44,missing=43
					43:leaf=-0.11115253
					44:leaf=-0.0377329104
				22:[f33<-0.497700095] yes=45,no=46,missing=45
					45:leaf=0.0401766486
					46:leaf=-0.0405029319
	2:[f278<0.039779596] yes=5,no=6,missing=5
		5:[f71<0.468487084] yes=11,no=12,missing=11
			11:[f190<-0.238058358] yes=23,no=24,missing=23
				23:[f50<-0.95409584] yes=47,no=48,missing=47
					47:leaf=0.0656315312
					48:leaf=-0.0224970691
				24:[f243<0.331339568] yes=49,no=50,missing=49
					49:leaf=-0.0811038241
					50:leaf=-0.0322226696
			12:[f106<-0.108816162] yes=25,no=26,missing=25
				25:[f289<-0.109439507] yes=51,no=52,missing=51
					51:leaf=-0.0121796289
					52:leaf=0.0487028547
				26:[f140<5.78937149] yes=53,no=54,missing=53
					53:leaf=-0.0376414545
					54:leaf=0.0970475301
		6:[f136<-0.101258025] yes=13,no=14,missing=13
			13:[f283<-0.256734639] yes=27,no=28,missing=27
				27:[f50<-1.71425438] yes=55,no=56,missing=55
					55:leaf=0.0751781985
					56:leaf=-0.100060701
				28:[f207<0.776116908] yes=57,no=58,missing=57
					57:leaf=-0.0631354377
					58:leaf=0.294977874
			14:[f52<0.00410994515] yes=29,no=30,missing=29
				29:[f304<-0.0833509713] yes=59,no=60,missing=59
					59:leaf=-0.0127471108
					60:leaf=-0.0672600791
				30:[f14<-0.557888389] yes=61,no=62,missing=61
					61:leaf=-0.0469864272
					62:leaf=0.101384394
booster[11]:
0:[f96<0.0471419208] yes=1,no=2,missing=1
	1:[f131<0.159537971] yes=3,no=4,missing=3
		3:[f47<-0.491205931] yes=7,no=8,missing=7
			7:[f52<0.0040412955] yes=15,no=16,missing=15
				15:[f74<0.398921132] yes=31,no=32,missing=31
					31:leaf=-0.112396471
					32:leaf=-0.0913316458
				16:[f46<-0.500894666] yes=33,no=34,missing=33
					33:leaf=-0.101621106
					34:leaf=-0.03265699
			8:[f50<-1.72517478] yes=17,no=18,missing=17
				17:[f112<0.000905978028] yes=35,no=36,missing=35
					35:leaf=-0.055107411
					36:leaf=0.103121452
				18:[f111<0.880697131] yes=37,no=38,missing=37
					37:leaf=-0.11518164
					38:leaf=-0.102689467
		4:[f34<-0.500524044] yes=9,no=10,missing=9
			9:[f396<-0.12388818] yes=19,no=20,missing=19
				19:[f99<-0.00982814655] yes=39,no=40,missing=39
					39:leaf=-0.0460910313
					40:leaf=-0.0857634768
				20:[f106<-0.10864985] yes=41,no=42,missing=41
					41:leaf=0.0238886774
					42:leaf=-0.0544550531
			10:[f308<-0.206645861] yes=21,no=22,missing=21
				21:[f460<7.03276205] yes=43,no=44,missing=43
					43:leaf=-0.107856035
					44:leaf=0.17781736
				22:[f64<0.21817863] yes=45,no=46,missing=45
					45:leaf=-0.0989859924
					46:leaf=-0.069370389
	2:[f396<-0.107569769] yes=5,no=6,missing=5
		5:[f37<-0.474612117] yes=11,no=12,missing=11
			11:[f87<-0.00763124041] yes=23,no=24,missing=23
				23:[f35<-0.420973897] yes=47,no=48,missing=47
					47:leaf=-0.0370735191
					48:leaf=0.0813210905
				24:[f49<0.582706273] yes=49,no=50,missing=49
					49:leaf=-0.108116589
					50:leaf=-0.0326633379
			12:[f209<0.143978342] yes=25,no=26,missing=25
				25:[f448<3.77583075] yes=51,no=52,missing=51
					51:leaf=-0.0992024317
					52:leaf=0.174873814
				26:[f84<-0.00434544403] yes=53,no=54,missing=53
					53:leaf=-0.0640188381
					54:leaf=0.119518392
		6:[f68<-0.141281694] yes=13,no=14,missing=13
			13:[f254<1.0761081] yes=27,no=28,missing=27
				27:[f108<-0.190270916] yes=55,no=56,missing=55
					55:leaf=0.0136034638
					56:leaf=-0.078865923
				28:[f410<0.318404853] yes=57,no=58,missing=57
					57:leaf=0.108680584
					58:leaf=-0.035202004
			14:[f99<-0.00870289467] yes=29,no=30,missing=29
				29:[f206<-0.209562883] yes=59,no=60,missing=59
					59:leaf=-0.0441110805
					60:leaf=0.00579249812
				30:[f105<-0.0890999138] yes=61,no=62,missing=61
					61:leaf=-0.0734542832
					62:leaf=-0.021938784
booster[12]:
0:[f308<0.0148143712] yes=1,no=2,missing=1
	1:[f67<0.0190686975] yes=3,no=4,missing=3
		3:[f310<-0.251513839] yes=7,no=8,missing=7
			7:[f52<0.00406061858] yes=15,no=16,missing=15
				15:[f50<-1.71188033] yes=31,no=32,missing=31
					31:leaf=-0.0541964285
					32:leaf=-0.11344748
				16:[f289<-2.1617465] yes=33,no=34,missing=33
					33:leaf=0.0881686136
					34:leaf=-0.0743213072
			8:[f110<1.86400199] yes=17,no=18,missing=17
				17:[f64<0.21817863] yes=35,no=36,missing=35
					35:leaf=-0.106614582
					36:leaf=-0.0864502937
				18:[f397<-0.0742794275] yes=37,no=38,missing=37
					37:leaf=-0.0941318497
					38:leaf=-0.0407045484
		4:[f52<0.00409958325] yes=9,no=10,missing=9
			9:[f49<0.582706273] yes=19,no=20,missing=19
				19:[f99<-0.0100915041] yes=39,no=40,missing=39
					39:leaf=-0.0811785385
					40:leaf=-0.103888035
				20:[f50<-1.15351284] yes=41,no=42,missing=41
					41:leaf=0.0125495
					42:leaf=-0.0758490264
			10:[f47<-0.533114195] yes=21,no=22,missing=21
				21:[f493<0.147807166] yes=43,no=44,missing=43
					43:leaf=-0.112510704
					44:leaf=-0.0204708558
				22:[f506<-0.147600323] yes=45,no=46,missing=45
					45:leaf=-0.0431153215
					46:leaf=0.0251803547
	2:[f165<-0.0205629505] yes=5,no=6,missing=5
		5:[f106<-0.108954534] yes=11,no=12,missing=11
			11:[f116<-0.0312492345] yes=23,no=24,missing=23
				23:[f74<-0.32391417] yes=47,no=48,missing=47
					47:leaf=-0.0782888234
					48:leaf=-0.00715153152
				24:[f71<0.410377294] yes=49,no=50,missing=49
					49:leaf=-0.092776522
					50:leaf=-0.0419618599
			12:[f146<-0.0720187575] yes=25,no=26,missing=25
				25:[f105<9.42621326] yes=51,no=52,missing=51
					51:leaf=-0.0927984938
					52:leaf=0.189307913
				26:[f217<0.334444284] yes=53,no=54,missing=53
					53:leaf=-0.0362858586
					54:leaf=-0.0880733728
		6:[f105<0.679583967] yes=13,no=14,missing=13
			13:[f324<-0.0545912869] yes=27,no=28,missing=27
				27:[f208<-0.295225352] yes=55,no=56,missing=55
					55:leaf=-0.0732004419
					56:leaf=0.0937923044
				28:[f79<-0.182819843] yes=57,no=58,missing=57
					57:leaf=-0.0648244247
					58:leaf=-0.0195478331
			14:[f402<0.0131024476] yes=29,no=30,missing=29
				29:[f214<1.22435534] yes=59,no=60,missing=59
					59:leaf=-0.125565439
					60:leaf=-0.0012390773
				30:[f64<0.84178555] yes=61,no=62,missing=61
					61:leaf=-0.00320433266
					62:leaf=0.137495622
booster[13]:
0:[f96<0.0471419208] yes=1,no=2,missing=1
	1:[f59<0.512656331] yes=3,no=4,missing=3
		3:[f312<0.833770275] yes=7,no=8,missing=7
			7:[f432<2.48736072] yes=15,no=16,missing=15
				15:[f52<0.00416338257] yes=31,no=32,missing=31
					31:leaf=-0.110207677
					32:leaf=-0.0504918508
				16:[f424<1.89710474] yes=33,no=34,missing=33
					33:leaf=0.0380679294
					34:leaf=-0.100697868
			8:[f278<0.0925330818] yes=17,no=18,missing=17
				17:[f8<3.5291276] yes=35,no=36,missing=35
					35:leaf=-0.0537796728
					36:leaf=0.207393751
				18:[f93<-0.00648503145] yes=37,no=38,missing=37
					37:leaf=-0.101893105
					38:leaf=-0.0696586594
		4:[f308<-0.220649987] yes=9,no=10,missing=9
			9:[f58<0.00147307036] yes=19,no=20,missing=19
				19:[f49<0.647768497] yes=39,no=40,missing=39
					39:leaf=-0.102129281
					40:leaf=-0.0803610533
				20:[f427<0.0109434007] yes=41,no=42,missing=41
					41:leaf=-0.0818486735
					42:leaf=-0.0300695207
			10:[f484<0.234793007] yes=21,no=22,missing=21
				21:[f49<0.582706273] yes=43,no=44,missing=43
					43:leaf=-0.0794997513
					44:leaf=-0.0401852578
				22:[f99<-0.00994785503] yes=45,no=46,missing=45
					45:leaf=-0.00176981057
					46:leaf=-0.060423363
	2:[f278<0.0780096948] yes=5,no=6,missing=5
		5:[f68<0.197069824] yes=11,no=12,missing=11
			11:[f46<1.23368573] yes=23,no=24,missing=23
				23:[f478<-0.00202557887] yes=47,no=48,missing=47
					47:leaf=0.0456549637
					48:leaf=-0.0364440531
				24:[f216<5.09983015] yes=49,no=50,missing=49
					49:leaf=-0.112971321
					50:leaf=0.154838115
			12:[f99<-0.00946902297] yes=25,no=26,missing=25
				25:[f45<-0.330749094] yes=51,no=52,missing=51
					51:leaf=-0.00130212039
					52:leaf=0.0634710863
				26:[f136<2.45512104] yes=53,no=54,missing=53
					53:leaf=-0.0294053163
					54:leaf=0.0548249669
		6:[f250<0.637441814] yes=13,no=14,missing=13
			13:[f33<-0.465788931] yes=27,no=28,missing=27
				27:[f50<-1.76125979] yes=55,no=56,missing=55
					55:leaf=0.200522646
					56:leaf=-0.0464181378
				28:[f308<-0.197647944] yes=57,no=58,missing=57
					57:leaf=-0.108828902
					58:leaf=-0.0735182092
			14:[f99<-0.00968449749] yes=29,no=30,missing=29
				29:[f448<1.91684663] yes=59,no=60,missing=59
					59:leaf=0.0720189735
					60:leaf=-0.0260271411
				30:[f45<0.670545459] yes=61,no=62,missing=61
					61:leaf=-0.059501566
					62:leaf=0.0983988792
booster[14]:
0:[f96<0.0471419208] yes=1,no=2,missing=1
	1:[f131<0.159537971] yes=3,no=4,missing=3
		3:[f47<-0.491205931] yes=7,no=8,missing=7
			7:[f58<0.00147080934] yes=15,no=16,missing=15
				15:[f74<0.375741065] yes=31,no=32,missing=31
					31:leaf=-0.106222332
					32:leaf=-0.0815190598
				16:[f458<-0.285525799] yes=33,no=34,missing=33
					33:leaf=-0.0819107518
					34:leaf=-0.0287795123
			8:[f50<-1.72517478] yes=17,no=18,missing=17
				17:[f5<-0.626511693] yes=35,no=36,missing=35
					35:leaf=-0.113438658
					36:leaf=0.0190338437
				18:[f111<0.282824188] yes=37,no=38,missing=37
					37:leaf=-0.108631194
					38:leaf=-0.0967881083
		4:[f64<0.489874661] yes=9,no=10,missing=9
			9:[f385<-0.208697349] yes=19,no=20,missing=19
				19:[f52<0.00403511524] yes=39,no=40,missing=39
					39:leaf=-0.100314073
					40:leaf=-0.0203046706
				20:[f108<-0.19313705] yes=41,no=42,missing=41
					41:leaf=0.0837570354
					42:leaf=-0.0639666468
			10:[f99<-0.0101393871] yes=21,no=22,missing=21
				21:[f98<0.0294317044] yes=43,no=44,missing=43
					43:leaf=-0.0115016205
					44:leaf=-0.0911343023
				22:[f49<0.582706273] yes=45,no=46,missing=45
					45:leaf=-0.0818369463
					46:leaf=-0.0291615333
	2:[f396<-0.107569769] yes=5,no=6,missing=5
		5:[f37<-0.475520372] yes=11,no=12,missing=11
			11:[f99<-0.0109055154] yes=23,no=24,missing=23
				23:[f47<-0.503629684] yes=47,no=48,missing=47
					47:leaf=-0.0451540612
					48:leaf=0.201401949
				24:[f50<-1.55329633] yes=49,no=50,missing=49
					49:leaf=0.0887336656
					50:leaf=-0.0579946339
			12:[f308<-0.197661191] yes=25,no=26,missing=25
				25:[f448<3.77583075] yes=51,no=52,missing=51
					51:leaf=-0.104784846
					52:leaf=0.187664881
				26:[f290<0.280304074] yes=53,no=54,missing=53
					53:leaf=-0.069103688
					54:leaf=0.27368769
		6:[f52<0.0040962752] yes=13,no=14,missing=13
			13:[f99<-0.0101872701] yes=27,no=28,missing=27
				27:[f58<0.00140098436] yes=55,no=56,missing=55
					55:leaf=0.0157530494
					56:leaf=-0.0557508767
				28:[f49<0.647768497] yes=57,no=58,missing=57
					57:leaf=-0.0479510725
					58:leaf=-0.0152819306
			14:[f284<-3.50452304] yes=29,no=30,missing=29
				29:[f49<1.29839063] yes=59,no=60,missing=59
					59:leaf=0.12208575
					60:leaf=-0.014858271
				30:[f317<0.106675267] yes=61,no=62,missing=61
					61:leaf=0.0315404236
					62:leaf=-0.0850226507
booster[15]:
0:[f308<0.0148143712] yes=1,no=2,missing=1
	1:[f66<0.0178452488] yes=3,no=4,missing=3
		3:[f310<-0.251330733] yes=7,no=8,missing=7
			7:[f50<-1.71188033] yes=15,no=16,missing=15
				15:[f188<-0.214694321] yes=31,no=32,missing=31
					31:leaf=0.0285156257
					32:leaf=-0.0956845805
				16:[f432<2.50162053] yes=33,no=34,missing=33
					33:leaf=-0.107440569
					34:leaf=-0.0369052105
			8:[f50<-1.67104733] yes=17,no=18,missing=17
				17:[f54<-0.691451848] yes=35,no=36,missing=35
					35:leaf=-0.0987408087
					36:leaf=0.0743133798
				18:[f88<-0.0126854535] yes=37,no=38,missing=37
					37:leaf=-0.0712602064
					38:leaf=-0.0957972333
		4:[f52<0.00406828616] yes=9,no=10,missing=9
			9:[f83<-0.64491874] yes=19,no=20,missing=19
				19:[f99<-0.0100915041] yes=39,no=40,missing=39
					39:leaf=-0.0122936917
					40:leaf=-0.0679415688
				20:[f12<-0.344052136] yes=41,no=42,missing=41
					41:leaf=-0.0743926316
					42:leaf=-0.0985101089
			10:[f45<-0.392535597] yes=21,no=22,missing=21
				21:[f304<-0.0911961496] yes=43,no=44,missing=43
					43:leaf=-0.113058604
					44:leaf=-0.0466864817
				22:[f52<0.00434014248] yes=45,no=46,missing=45
					45:leaf=-0.020627236
					46:leaf=0.0579534061
	2:[f299<-0.0370322727] yes=5,no=6,missing=5
		5:[f64<-0.16311875] yes=11,no=12,missing=11
			11:[f180<7.99907494] yes=23,no=24,missing=23
				23:[f167<6.97581911] yes=47,no=48,missing=47
					47:leaf=-0.0838080868
					48:leaf=0.0581916831
				24:[f107<1.35448527] yes=49,no=50,missing=49
					49:leaf=0.247071534
					50:leaf=-0.0880487338
			12:[f103<-0.793874621] yes=25,no=26,missing=25
				25:[f71<0.323126495] yes=51,no=52,missing=51
					51:leaf=-0.0302482937
					52:leaf=0.0593988486
				26:[f52<0.00401107129] yes=53,no=54,missing=53
					53:leaf=-0.0535567366
					54:leaf=0.0210675895
		6:[f99<-0.00810435601] yes=13,no=14,missing=13
			13:[f90<-7.72502422] yes=27,no=28,missing=27
				27:[f59<-1.57402897] yes=55,no=56,missing=55
					55:leaf=0.17587395
					56:leaf=-0.0874937996
				28:[f45<1.67058551] yes=57,no=58,missing=57
					57:leaf=0.0034794868
					58:leaf=-0.0995812118
			14:[f165<3.8108778] yes=29,no=30,missing=29
				29:[f107<-0.0531231984] yes=59,no=60,missing=59
					59:leaf=-0.0281575378
					60:leaf=-0.0756866038
				30:[f167<4.11792135] yes=61,no=62,missing=61
					61:leaf=-0.133125275
					62:leaf=0.153955862
booster[16]:
0:[f311<0.940570116] yes=1,no=2,missing=1
	1:[f59<0.883014798] yes=3,no=4,missing=3
		3:[f112<0.365755111] yes=7,no=8,missing=7
			7:[f310<-0.256598234] yes=15,no=16,missing=15
				15:[f52<0.0041846591] yes=31,no=32,missing=31
					31:leaf=-0.105614856
					32:leaf=-0.0326509029
				16:[f71<0.162463427] yes=33,no=34,missing=33
					33:leaf=-0.102020301
					34:leaf=-0.0831479654
			8:[f255<-0.0432866365] yes=17,no=18,missing=17
				17:[f445<3.49318171] yes=35,no=36,missing=35
					35:leaf=-0.0871675685
					36:leaf=0.148344651
				18:[f86<-0.00736539485] yes=37,no=38,missing=37
					37:leaf=-0.0269222464
					38:leaf=0.24078548
		4:[f58<0.00147003867] yes=9,no=10,missing=9
			9:[f49<0.582706273] yes=19,no=20,missing=19
				19:[f99<-0.0101154447] yes=39,no=40,missing=39
					39:leaf=-0.0724330768
					40:leaf=-0.0972998068
				20:[f49<1.03814173] yes=41,no=42,missing=41
					41:leaf=-0.0129378056
					42:leaf=-0.0817680359
			10:[f77<0.818474054] yes=21,no=22,missing=21
				21:[f474<0.0654572546] yes=43,no=44,missing=43
					43:leaf=-0.0729699358
					44:leaf=-0.00160467648
				22:[f46<-0.500895381] yes=45,no=46,missing=45
					45:leaf=-0.0643648878
					46:leaf=0.0260619912
	2:[f308<-0.197608158] yes=5,no=6,missing=5
		5:[f41<-0.481103301] yes=11,no=12,missing=11
			11:[f124<0.184605196] yes=23,no=24,missing=23
				23:[f40<-0.393544912] yes=47,no=48,missing=47
					47:leaf=-0.069935225
					48:leaf=0.109002963
				24:[f124<0.260865241] yes=49,no=50,missing=49
					49:leaf=0.283787102
					50:leaf=0.00712765846
			12:[f206<0.105363339] yes=25,no=26,missing=25
				25:[f271<4.44826889] yes=51,no=52,missing=51
					51:leaf=-0.0990103334
					52:leaf=0.0454793759
				26:[f45<0.943843126] yes=53,no=54,missing=53
					53:leaf=-0.064956449
					54:leaf=0.227867708
		6:[f107<-0.0567925498] yes=13,no=14,missing=13
			13:[f71<0.31355074] yes=27,no=28,missing=27
				27:[f243<0.0694084018] yes=55,no=56,missing=55
					55:leaf=-0.0615149923
					56:leaf=-0.00810944475
				28:[f49<0.582706273] yes=57,no=58,missing=57
					57:leaf=-0.017715564
					58:leaf=0.0306473318
			14:[f105<-0.157651097] yes=29,no=30,missing=29
				29:[f189<-0.233366907] yes=59,no=60,missing=59
					59:leaf=-0.0436925851
					60:leaf=-0.0891532376
				30:[f425<1.70564902] yes=61,no=62,missing=61
					61:leaf=-0.0532068126
					62:leaf=-0.00461415621
booster[17]:
0:[f88<-0.0405607298] yes=1,no=2,missing=1
	1:[f396<-0.130742669] yes=3,no=4,missing=3
		3:[f64<0.122619584] yes=7,no=8,missing=7
			7:[f442<3.42114353] yes=15,no=16,missing=15
				15:[f212<0.701819301] yes=31,no=32,missing=31
					31:leaf=-0.0979182348
					32:leaf=-0.0538320616
				16:leaf=0.224234745
			8:[f131<3.83512115] yes=17,no=18,missing=17
				17:[f12<-0.57689476] yes=33,no=34,missing=33
					33:leaf=-0.0181251597
					34:leaf=-0.068224892
				18:[f129<-0.0298644379] yes=35,no=36,missing=35
					35:leaf=0.176393732
					36:leaf=-0.0257858038
		4:[f71<0.485144019] yes=9,no=10,missing=9
			9:[f316<-0.049740836] yes=19,no=20,missing=19
				19:[f217<-0.0647961348] yes=37,no=38,missing=37
					37:leaf=-0.0420654975
					38:leaf=0.028151175
				20:[f162<-0.0373921394] yes=39,no=40,missing=39
					39:leaf=-0.0713266283
					40:leaf=-0.0281173438
			10:[f99<-0.00937325694] yes=21,no=22,missing=21
				21:[f40<-0.402423203] yes=41,no=42,missing=41
					41:leaf=-0.00801629014
					42:leaf=0.0563798845
				22:[f49<0.582706273] yes=43,no=44,missing=43
					43:leaf=-0.0374518596
					44:leaf=0.0157007556
	2:[f47<-0.48724556] yes=5,no=6,missing=5
		5:[f311<-0.0264594108] yes=11,no=12,missing=11
			11:[f58<0.00147080934] yes=23,no=24,missing=23
				23:[f71<0.239133745] yes=45,no=46,missing=45
					45:leaf=-0.103755593
					46:leaf=-0.0753183439
				24:[f81<0.92566061] yes=47,no=48,missing=47
					47:leaf=-0.0624479912
					48:leaf=-0.00482303835
			12:[f106<-0.108977184] yes=25,no=26,missing=25
				25:[f481<-0.276063085] yes=49,no=50,missing=49
					49:leaf=-0.0445004776
					50:leaf=0.00704791397
				26:[f322<-0.0523440354] yes=51,no=52,missing=51
					51:leaf=-0.0720668361
					52:leaf=-0.0142547861
		6:[f131<0.159537971] yes=13,no=14,missing=13
			13:[f50<-1.75936055] yes=27,no=28,missing=27
				27:[f112<0.000905978028] yes=53,no=54,missing=53
					53:leaf=-0.0246614795
					54:leaf=0.177324474
				28:[f253<1.06696677] yes=55,no=56,missing=55
					55:leaf=-0.101719774
					56:leaf=-0.0184886847
			14:[f308<-0.216625124] yes=29,no=30,missing=29
				29:[f41<-0.462113261] yes=57,no=58,missing=57
					57:leaf=-0.040374577
					58:leaf=-0.0963216946
				30:[f99<-0.00961267203] yes=59,no=60,missing=59
					59:leaf=-0.037583258
					60:leaf=-0.0757120252
booster[18]:
0:[f308<-0.22060357] yes=1,no=2,missing=1
	1:[f67<0.0193320923] yes=3,no=4,missing=3
		3:[f493<0.878360271] yes=7,no=8,missing=7
			7:[f54<0.191187158] yes=15,no=16,missing=15
				15:[f429<2.28898954] yes=31,no=32,missing=31
					31:leaf=-0.104700498
					32:leaf=0.0799153745
				16:[f50<-1.48872328] yes=33,no=34,missing=33
					33:leaf=-0.0231811311
					34:leaf=-0.0946399719
			8:[f298<0.202047646] yes=17,no=18,missing=17
				17:[f50<-1.67342138] yes=35,no=36,missing=35
					35:leaf=0.0814669877
					36:leaf=-0.0797361434
				18:[f458<-0.17269814] yes=37,no=38,missing=37
					37:leaf=0.506662548
					38:leaf=0.0089032203
		4:[f49<0.647768497] yes=9,no=10,missing=9
			9:[f99<-0.0104027428] yes=19,no=20,missing=19
				19:[f58<0.00147300819] yes=39,no=40,missing=39
					39:leaf=-0.0673872381
					40:leaf=-0.00478553353
				20:[f492<-0.227473199] yes=41,no=42,missing=41
					41:leaf=-0.101170078
					42:leaf=-0.0782345533
			10:[f50<-1.15446246] yes=21,no=22,missing=21
				21:[f195<-0.296557009] yes=43,no=44,missing=43
					43:leaf=0.397105128
					44:leaf=0.0333965234
				22:[f507<0.0512242988] yes=45,no=46,missing=45
					45:leaf=-0.0727082267
					46:leaf=0.00270003499
	2:[f83<-0.64491874] yes=5,no=6,missing=5
		5:[f278<0.0780096948] yes=11,no=12,missing=11
			11:[f64<-0.222866252] yes=23,no=24,missing=23
				23:[f190<-0.247780755] yes=47,no=48,missing=47
					47:leaf=0.0385698564
					48:leaf=-0.0547970124
				24:[f7<1.26454091] yes=49,no=50,missing=49
					49:leaf=0.00287386123
					50:leaf=-0.048056975
			12:[f99<-0.00937325694] yes=25,no=26,missing=25
				25:[f71<0.363683701] yes=51,no=52,missing=51
					51:leaf=-0.05042338
					52:leaf=-0.00426693214
				26:[f49<0.582706273] yes=53,no=54,missing=53
					53:leaf=-0.0742923841
					54:leaf=-0.0275712796
		6:[f48<-0.482585639] yes=13,no=14,missing=13
			13:[f106<-0.0346799046] yes=27,no=28,missing=27
				27:[f74<0.595683813] yes=55,no=56,missing=55
					55:leaf=-0.0617081411
					56:leaf=-0.01220652
				28:[f226<11.0018311] yes=57,no=58,missing=57
					57:leaf=-0.0854912624
					58:leaf=0.214118034
			14:[f132<-0.126869589] yes=29,no=30,missing=29
				29:[f415<15.4869251] yes=59,no=60,missing=59
					59:leaf=-0.0968753248
					60:leaf=0.0535045266
				30:[f99<-0.00966055505] yes=61,no=62,missing=61
					61:leaf=-0.0442189239
					62:leaf=-0.0846278295
booster[19]:
0:[f308<-0.22060357] yes=1,no=2,missing=1
	1:[f67<0.0193320923] yes=3,no=4,missing=3
		3:[f493<0.878360271] yes=7,no=8,missing=7
			7:[f54<0.191187158] yes=15,no=16,missing=15
				15:[f430<2.04375219] yes=31,no=32,missing=31
					31:leaf=-0.103459097
					32:leaf=-0.0385584347
				16:[f50<-1.48872328] yes=33,no=34,missing=33
					33:leaf=-0.0212867726
					34:leaf=-0.0924720392
			8:[f298<0.202047646] yes=17,no=18,missing=17
				17:[f48<-0.358079106] yes=35,no=36,missing=35
					35:leaf=-0.0493099354
					36:leaf=-0.0986994132
				18:[f444<2.02362633] yes=37,no=38,missing=37
					37:leaf=0.184738502
					38:leaf=-0.052235987
		4:[f457<-0.263396025] yes=9,no=10,missing=9
			9:[f12<-0.431227982] yes=19,no=20,missing=19
				19:[f85<-0.000613795302] yes=39,no=40,missing=39
					39:leaf=-0.0692716837
					40:leaf=0.211163521
				20:[f145<0.0203226097] yes=41,no=42,missing=41
					41:leaf=-0.0987327769
					42:leaf=0.0412594937
			10:[f49<0.582706273] yes=21,no=22,missing=21
				21:[f98<-0.025350295] yes=43,no=44,missing=43
					43:leaf=-0.0490709096
					44:leaf=-0.0873089507
				22:[f49<1.03814173] yes=45,no=46,missing=45
					45:leaf=0.0356083475
					46:leaf=-0.0459529571
	2:[f151<0.122617617] yes=5,no=6,missing=5
		5:[f64<0.21817863] yes=11,no=12,missing=11
			11:[f96<0.2919541] yes=23,no=24,missing=23
				23:[f53<0.00258884742] yes=47,no=48,missing=47
					47:leaf=-0.090727441
					48:leaf=-0.00345695368
				24:[f94<-0.0170331821] yes=49,no=50,missing=49
					49:leaf=-0.0890386105
					50:leaf=0.0130951582
			12:[f98<-0.000621877552] yes=25,no=26,missing=25
				25:[f71<0.363099337] yes=51,no=52,missing=51
					51:leaf=-0.0710710064
					52:leaf=-0.0184228923
				26:[f84<-0.00464689918] yes=53,no=54,missing=53
					53:leaf=-0.0816909298
					54:leaf=-0.0374018252
		6:[f99<-0.00937325694] yes=13,no=14,missing=13
			13:[f127<-0.023810409] yes=27,no=28,missing=27
				27:[f13<0.347164005] yes=55,no=56,missing=55
					55:leaf=0.00962141063
					56:leaf=0.0960552171
				28:[f65<0.0104123913] yes=57,no=58,missing=57
					57:leaf=-0.0610944629
					58:leaf=-0.00414858339
			14:[f105<-0.0865804181] yes=29,no=30,missing=29
				29:[f50<-1.6178695] yes=59,no=60,missing=59
					59:leaf=0.112217091
					60:leaf=-0.0569329076
				30:[f138<10.5910692] yes=61,no=62,missing=61
					61:leaf=-0.0137252677
					62:leaf=0.129974172
booster[20]:
0:[f308<-0.22060357] yes=1,no=2,missing=1
	1:[f67<0.0193320923] yes=3,no=4,missing=3
		3:[f493<0.878360271] yes=7,no=8,missing=7
			7:[f54<0.191187158] yes=15,no=16,missing=15
				15:[f50<-1.16775692] yes=31,no=32,missing=31
					31:leaf=-0.0836021006
					32:leaf=-0.10278561
				16:[f50<-1.48872328] yes=33,no=34,missing=33
					33:leaf=-0.0195213351
					34:leaf=-0.0903103575
			8:[f244<1.33685124] yes=17,no=18,missing=17
				17:[f489<-0.140075922] yes=35,no=36,missing=35
					35:leaf=0.174998954
					36:leaf=-0.0750655532
				18:[f286<-2.23755407] yes=37,no=38,missing=37
					37:leaf=-0.0909499601
					38:leaf=0.125713274
		4:[f49<0.647768497] yes=9,no=10,missing=9
			9:[f99<-0.0104027428] yes=19,no=20,missing=19
				19:[f84<-0.00449617207] yes=39,no=40,missing=39
					39:leaf=-0.0586682037
					40:leaf=0.0267792773
				20:[f148<0.00162962533] yes=41,no=42,missing=41
					41:leaf=-0.0888900682
					42:leaf=-0.013914763
			10:[f50<-1.15446246] yes=21,no=22,missing=21
				21:[f487<-0.40419659] yes=43,no=44,missing=43
					43:leaf=-0.0639449582
					44:leaf=0.0880568698
				22:[f510<0.0531405434] yes=45,no=46,missing=45
					45:leaf=-0.0649102554
					46:leaf=0.00715242699
	2:[f83<-0.64491874] yes=5,no=6,missing=5
		5:[f64<-0.165722221] yes=11,no=12,missing=11
			11:[f278<-1.93594623] yes=23,no=24,missing=23
				23:[f334<0.0196816996] yes=47,no=48,missing=47
					47:leaf=0.0670913383
					48:leaf=-0.0364100784
				24:[f136<-0.100026041] yes=49,no=50,missing=49
					49:leaf=-0.0815797672
					50:leaf=-0.0459107868
			12:[f99<-0.00937325694] yes=25,no=26,missing=25
				25:[f68<0.0131721497] yes=51,no=52,missing=51
					51:leaf=-0.036595013
					52:leaf=0.0151723688
				26:[f49<0.582706273] yes=53,no=54,missing=53
					53:leaf=-0.0463131815
					54:leaf=0.00471030409
		6:[f48<-0.482585639] yes=13,no=14,missing=13
			13:[f494<-0.365597725] yes=27,no=28,missing=27
				27:[f53<0.0028668486] yes=55,no=56,missing=55
					55:leaf=-0.059599366
					56:leaf=0.0476683602
				28:[f99<-0.0108815748] yes=57,no=58,missing=57
					57:leaf=0.0449986048
					58:leaf=-0.0227909982
			14:[f132<-0.126869589] yes=29,no=30,missing=29
				29:[f87<0.0577820167] yes=59,no=60,missing=59
					59:leaf=-0.0925455093
					60:leaf=0.226259232
				30:[f99<-0.00966055505] yes=61,no=62,missing=61
					61:leaf=-0.0378298722
					62:leaf=-0.0793416947
booster[21]:
0:[f308<-0.22060357] yes=1,no=2,missing=1
	1:[f47<-0.489452839] yes=3,no=4,missing=3
		3:[f71<0.513452649] yes=7,no=8,missing=7
			7:[f430<1.02223563] yes=15,no=16,missing=15
				15:[f74<0.551929355] yes=31,no=32,missing=31
					31:leaf=-0.0974026248
					32:leaf=-0.0744608343
				16:[f486<-0.211329609] yes=33,no=34,missing=33
					33:leaf=0.182564124
					34:leaf=-0.0584111884
			8:[f58<0.00148511224] yes=17,no=18,missing=17
				17:[f49<0.582706273] yes=35,no=36,missing=35
					35:leaf=-0.0666247979
					36:leaf=-0.0242087282
				18:[f458<-0.286817461] yes=37,no=38,missing=37
					37:leaf=-0.0428446345
					38:leaf=0.0230023842
		4:[f50<-1.71900237] yes=9,no=10,missing=9
			9:[f103<-0.13097629] yes=19,no=20,missing=19
				19:[f5<-0.626511693] yes=39,no=40,missing=39
					39:leaf=-0.0902063772
					40:leaf=0.129055187
				20:[f190<-0.233024627] yes=41,no=42,missing=41
					41:leaf=0.0825869367
					42:leaf=-0.0864869207
			10:[f59<0.0844969153] yes=21,no=22,missing=21
				21:[f255<0.0136761293] yes=43,no=44,missing=43
					43:leaf=-0.100962095
					44:leaf=0.0323684774
				22:[f448<0.644923985] yes=45,no=46,missing=45
					45:leaf=-0.0912725329
					46:leaf=-0.0674169585
	2:[f83<-0.64491874] yes=5,no=6,missing=5
		5:[f278<0.0780096948] yes=11,no=12,missing=11
			11:[f98<-0.0899334922] yes=23,no=24,missing=23
				23:[f286<-0.0346821845] yes=47,no=48,missing=47
					47:leaf=-0.00152014953
					48:leaf=0.0507380255
				24:[f319<-0.00676783919] yes=49,no=50,missing=49
					49:leaf=-0.000671694579
					50:leaf=-0.0428880192
			12:[f99<-0.00937325694] yes=25,no=26,missing=25
				25:[f207<1.36584282] yes=51,no=52,missing=51
					51:leaf=-0.00640577963
					52:leaf=-0.0587906614
				26:[f49<0.582706273] yes=53,no=54,missing=53
					53:leaf=-0.0656221136
					54:leaf=-0.0203229561
		6:[f48<-0.482585639] yes=13,no=14,missing=13
			13:[f99<-0.0110970493] yes=27,no=28,missing=27
				27:[f298<0.130744711] yes=55,no=56,missing=55
					55:leaf=-0.08339151
					56:leaf=0.186624214
				28:[f74<0.595683813] yes=57,no=58,missing=57
					57:leaf=-0.0557045452
					58:leaf=-0.00675283
			14:[f132<-0.126869589] yes=29,no=30,missing=29
				29:[f415<15.623826] yes=59,no=60,missing=59
					59:leaf=-0.0909005031
					60:leaf=0.073843196
				30:[f403<-0.141839698] yes=61,no=62,missing=61
					61:leaf=-0.0669181868
					62:leaf=-0.010402061
booster[22]:
0:[f308<-0.22060357] yes=1,no=2,missing=1
	1:[f67<0.0190853775] yes=3,no=4,missing=3
		3:[f493<0.878360271] yes=7,no=8,missing=7
			7:[f54<0.191187158] yes=15,no=16,missing=15
				15:[f430<2.04375219] yes=31,no=32,missing=31
					31:leaf=-0.0996821448
					32:leaf=-0.0215111896
				16:[f50<-1.46118474] yes=33,no=34,missing=33
					33:leaf=-0.0168044325
					34:leaf=-0.0861649439
			8:[f298<0.202047646] yes=17,no=18,missing=17
				17:[f48<-0.358079106] yes=35,no=36,missing=35
					35:leaf=-0.0391802527
					36:leaf=-0.0936131775
				18:[f96<-0.106974728] yes=37,no=38,missing=37
					37:leaf=0.183995306
					38:leaf=-0.0384797305
		4:[f28<-0.486359] yes=9,no=10,missing=9
			9:[f85<-0.000613795302] yes=19,no=20,missing=19
				19:[f472<-0.127908468] yes=39,no=40,missing=39
					39:leaf=-0.0539064296
					40:leaf=-0.00570165692
				20:[f36<-0.491367638] yes=41,no=42,missing=41
					41:leaf=-0.0282249153
					42:leaf=0.26021871
			10:[f446<1.70712769] yes=21,no=22,missing=21
				21:[f118<3.42632008] yes=43,no=44,missing=43
					43:leaf=-0.0842588171
					44:leaf=0.195010886
				22:[f289<-1.65791106] yes=45,no=46,missing=45
					45:leaf=0.352932155
					46:leaf=-0.0299286637
	2:[f151<0.122617617] yes=5,no=6,missing=5
		5:[f64<0.21817863] yes=11,no=12,missing=11
			11:[f96<0.2919541] yes=23,no=24,missing=23
				23:[f53<0.00258884742] yes=47,no=48,missing=47
					47:leaf=-0.0843675435
					48:leaf=0.00581052247
				24:[f94<-0.0170331821] yes=49,no=50,missing=49
					49:leaf=-0.0820738375
					50:leaf=0.0167607684
			12:[f64<0.219864964] yes=25,no=26,missing=25
				25:[f68<0.298842311] yes=51,no=52,missing=51
					51:leaf=0.0943848938
					52:leaf=0.585724771
				26:[f14<0.929769516] yes=53,no=54,missing=53
					53:leaf=-0.0305227172
					54:leaf=-0.0762939602
		6:[f103<-0.46242547] yes=13,no=14,missing=13
			13:[f99<-0.0091098994] yes=27,no=28,missing=27
				27:[f346<0.15752241] yes=55,no=56,missing=55
					55:leaf=0.0330743752
					56:leaf=-0.0654305592
				28:[f305<5.1960659] yes=57,no=58,missing=57
					57:leaf=-0.0408171378
					58:leaf=0.093164362
			14:[f105<-0.1717484] yes=29,no=30,missing=29
				29:[f236<0.432433426] yes=59,no=60,missing=59
					59:leaf=-0.0708707497
					60:leaf=-0.0305502154
				30:[f13<-0.493830144] yes=61,no=62,missing=61
					61:leaf=-0.0597947612
					62:leaf=-0.00261563109
booster[23]:
0:[f308<-0.22060357] yes=1,no=2,missing=1
	1:[f67<0.0190853775] yes=3,no=4,missing=3
		3:[f493<0.878360271] yes=7,no=8,missing=7
			7:[f54<0.191187158] yes=15,no=16,missing=15
				15:[f50<-1.16775692] yes=31,no=32,missing=31
					31:leaf=-0.0750565529
					32:leaf=-0.0992961228
				16:[f52<0.00406061858] yes=33,no=34,missing=33
					33:leaf=-0.0837892964
					34:leaf=0.00250460696
			8:[f244<1.33685124] yes=17,no=18,missing=17
				17:[f450<0.361113608] yes=35,no=36,missing=35
					35:leaf=0.0660936907
					36:leaf=-0.0721303672
				18:[f286<-2.23755407] yes=37,no=38,missing=37
					37:leaf=-0.0843861029
					38:leaf=0.117927037
		4:[f493<-0.310299695] yes=9,no=10,missing=9
			9:[f12<-0.431370944] yes=19,no=20,missing=19
				19:[f16<-0.337726474] yes=39,no=40,missing=39
					39:leaf=-0.061285764
					40:leaf=0.360412449
				20:[f116<0.0558335856] yes=41,no=42,missing=41
					41:leaf=-0.0927621424
					42:leaf=0.161703005
			10:[f49<0.582706273] yes=21,no=22,missing=21
				21:[f99<-0.0104027428] yes=43,no=44,missing=43
					43:leaf=-0.0278810617
					44:leaf=-0.07078477
				22:[f50<-1.1573112] yes=45,no=46,missing=45
					45:leaf=0.0739327595
					46:leaf=-0.0198026411
	2:[f83<-0.64491874] yes=5,no=6,missing=5
		5:[f255<-0.0595287681] yes=11,no=12,missing=11
			11:[f190<-0.234222174] yes=23,no=24,missing=23
				23:[f13<-0.549509883] yes=47,no=48,missing=47
					47:leaf=-0.0236250442
					48:leaf=0.0332690738
				24:[f71<0.327571094] yes=49,no=50,missing=49
					49:leaf=-0.0671155229
					50:leaf=-0.0238689743
			12:[f49<1.10320401] yes=25,no=26,missing=25
				25:[f49<0.647768497] yes=51,no=52,missing=51
					51:leaf=-0.00691605313
					52:leaf=0.0626356304
				26:[f128<1.3142134] yes=53,no=54,missing=53
					53:leaf=-0.0495342389
					54:leaf=0.049219463
		6:[f48<-0.482585639] yes=13,no=14,missing=13
			13:[f106<-0.0346799046] yes=27,no=28,missing=27
				27:[f71<0.331142604] yes=55,no=56,missing=55
					55:leaf=-0.0556011274
					56:leaf=-0.00518978573
				28:[f226<11.0018311] yes=57,no=58,missing=57
					57:leaf=-0.073096551
					58:leaf=0.181175694
			14:[f132<-0.126869589] yes=29,no=30,missing=29
				29:[f92<0.651026368] yes=59,no=60,missing=59
					59:leaf=-0.0868177116
					60:leaf=0.152918488
				30:[f99<-0.00966055505] yes=61,no=62,missing=61
					61:leaf=-0.0274517536
					62:leaf=-0.0719283819
booster[24]:
0:[f308<-0.220683143] yes=1,no=2,missing=1
	1:[f47<-0.467922211] yes=3,no=4,missing=3
		3:[f71<0.51351124] yes=7,no=8,missing=7
			7:[f50<-1.46783197] yes=15,no=16,missing=15
				15:[f508<-0.310761869] yes=31,no=32,missing=31
					31:leaf=-0.0926102921
					32:leaf=0.165412501
				16:[f71<0.206290141] yes=33,no=34,missing=33
					33:leaf=-0.0941060707
					34:leaf=-0.0667849928
			8:[f49<0.582706273] yes=17,no=18,missing=17
				17:[f457<-0.292808652] yes=35,no=36,missing=35
					35:leaf=-0.0803320482
					36:leaf=-0.035540916
				18:[f49<1.03814173] yes=37,no=38,missing=37
					37:leaf=0.0331123881
					38:leaf=-0.0410961024
		4:[f59<0.330223918] yes=9,no=10,missing=9
			9:[f505<0.608128786] yes=19,no=20,missing=19
				19:[f50<-1.16775692] yes=39,no=40,missing=39
					39:leaf=-0.0725197122
					40:leaf=-0.0990548059
				20:[f472<0.436082244] yes=41,no=42,missing=41
					41:leaf=0.137531623
					42:leaf=-0.0659763142
			10:[f59<0.330441236] yes=21,no=22,missing=21
				21:leaf=0.336724907
				22:[f445<-0.458118707] yes=43,no=44,missing=43
					43:leaf=-0.0938264355
					44:leaf=-0.0711202323
	2:[f83<-0.64491874] yes=5,no=6,missing=5
		5:[f74<-0.525515676] yes=11,no=12,missing=11
			11:[f403<3.5401907] yes=23,no=24,missing=23
				23:[f91<-0.0190902799] yes=45,no=46,missing=45
					45:leaf=0.15232335
					46:leaf=-0.0737511069
				24:[f129<-0.0715768039] yes=47,no=48,missing=47
					47:leaf=-0.063133359
					48:leaf=0.0712105855
			12:[f49<0.582706273] yes=25,no=26,missing=25
				25:[f99<-0.0104985107] yes=49,no=50,missing=49
					49:leaf=0.0159028005
					50:leaf=-0.0290991012
				26:[f49<1.03814173] yes=51,no=52,missing=51
					51:leaf=0.0577192381
					52:leaf=-0.0406105928
		6:[f48<-0.484622121] yes=13,no=14,missing=13
			13:[f434<0.170413792] yes=27,no=28,missing=27
				27:[f53<0.00276083942] yes=53,no=54,missing=53
					53:leaf=-0.0456049107
					54:leaf=0.0300728735
				28:[f127<-0.0906691179] yes=55,no=56,missing=55
					55:leaf=0.0255348366
					56:leaf=-0.0499115437
			14:[f132<-0.126869589] yes=29,no=30,missing=29
				29:[f391<9.85965061] yes=57,no=58,missing=57
					57:leaf=-0.0857025161
					58:leaf=0.0295107961
				30:[f34<-0.360457003] yes=59,no=60,missing=59
					59:leaf=-0.0271466468
					60:leaf=-0.0734668374
booster[25]:
0:[f306<-0.24295105] yes=1,no=2,missing=1
	1:[f66<0.0134117007] yes=3,no=4,missing=3
		3:[f463<0.642947078] yes=7,no=8,missing=7
			7:[f84<0.00545183849] yes=15,no=16,missing=15
				15:[f50<-1.2133379] yes=31,no=32,missing=31
					31:leaf=-0.0618584938
					32:leaf=-0.0945987627
				16:[f64<0.232191682] yes=33,no=34,missing=33
					33:leaf=-0.0879826322
					34:leaf=0.499390095
			8:[f127<0.900355816] yes=17,no=18,missing=17
				17:[f154<0.00531420391] yes=35,no=36,missing=35
					35:leaf=-0.066568844
					36:leaf=0.093608968
				18:[f428<0.559024334] yes=37,no=38,missing=37
					37:leaf=0.321431994
					38:leaf=-0.0157310311
		4:[f28<-0.485852689] yes=9,no=10,missing=9
			9:[f304<0.0198238362] yes=19,no=20,missing=19
				19:[f52<0.00428467477] yes=39,no=40,missing=39
					39:leaf=-0.046242632
					40:leaf=0.0607067458
				20:[f13<-0.468633026] yes=41,no=42,missing=41
					41:leaf=0.432994127
					42:leaf=0.0847620219
			10:[f118<3.42632008] yes=21,no=22,missing=21
				21:[f446<1.4137907] yes=43,no=44,missing=43
					43:leaf=-0.0810243413
					44:leaf=-0.0364498235
				22:[f106<-0.0848054364] yes=45,no=46,missing=45
					45:leaf=0.420128644
					46:leaf=-0.056531366
	2:[f151<0.122617617] yes=5,no=6,missing=5
		5:[f64<0.21817863] yes=11,no=12,missing=11
			11:[f96<0.298854828] yes=23,no=24,missing=23
				23:[f209<1.27154255] yes=47,no=48,missing=47
					47:leaf=-0.0772349387
					48:leaf=0.0854531676
				24:[f94<-0.01703275] yes=49,no=50,missing=49
					49:leaf=-0.0740975291
					50:leaf=0.0171207301
			12:[f7<0.698577583] yes=25,no=26,missing=25
				25:[f71<0.36314261] yes=51,no=52,missing=51
					51:leaf=-0.0551492088
					52:leaf=-0.0114841191
				26:[f37<1.98705316] yes=53,no=54,missing=53
					53:leaf=-0.0773376748
					54:leaf=0.0537376776
		6:[f99<-0.00815223902] yes=13,no=14,missing=13
			13:[f69<-0.184811801] yes=27,no=28,missing=27
				27:[f154<4.78250313] yes=55,no=56,missing=55
					55:leaf=-0.0472984426
					56:leaf=0.186304614
				28:[f49<0.647768497] yes=57,no=58,missing=57
					57:leaf=-0.00620974507
					58:leaf=0.0369246602
			14:[f414<0.0759714097] yes=29,no=30,missing=29
				29:[f309<3.15871382] yes=59,no=60,missing=59
					59:leaf=-0.0610681362
					60:leaf=0.0966726169
				30:[f107<-0.0566081442] yes=61,no=62,missing=61
					61:leaf=0.0321161449
					62:leaf=-0.0316337794
booster[26]:
0:[f306<-0.24295105] yes=1,no=2,missing=1
	1:[f66<0.0133651709] yes=3,no=4,missing=3
		3:[f310<-0.235288858] yes=7,no=8,missing=7
			7:[f432<2.50162053] yes=15,no=16,missing=15
				15:[f84<0.00545183849] yes=31,no=32,missing=31
					31:leaf=-0.0928200558
					32:leaf=0.0854598656
				16:[f78<-0.106196254] yes=33,no=34,missing=33
					33:leaf=0.20145829
					34:leaf=-0.0953933597
			8:[f307<-0.207754791] yes=17,no=18,missing=17
				17:leaf=0.387697846
				18:[f50<-1.16063488] yes=35,no=36,missing=35
					35:leaf=0.0638416633
					36:leaf=-0.0673806146
		4:[f28<-0.485852689] yes=9,no=10,missing=9
			9:[f298<0.0333086476] yes=19,no=20,missing=19
				19:[f49<0.647768497] yes=37,no=38,missing=37
					37:leaf=-0.0509690531
					38:leaf=-0.00199091691
				20:[f99<-0.0103428895] yes=39,no=40,missing=39
					39:leaf=0.344828546
					40:leaf=0.0603664182
			10:[f118<3.42632008] yes=21,no=22,missing=21
				21:[f446<1.4137907] yes=41,no=42,missing=41
					41:leaf=-0.0786752701
					42:leaf=-0.0339649506
				22:[f106<-0.0848054364] yes=43,no=44,missing=43
					43:leaf=0.336207002
					44:leaf=-0.0549910627
	2:[f83<-0.64491874] yes=5,no=6,missing=5
		5:[f278<0.109906882] yes=11,no=12,missing=11
			11:[f90<-10.0792789] yes=23,no=24,missing=23
				23:[f362<0.011874767] yes=45,no=46,missing=45
					45:leaf=-0.0971844718
					46:leaf=0.0371750966
				24:[f98<0.182911724] yes=47,no=48,missing=47
					47:leaf=0.00724006305
					48:leaf=-0.0462524034
			12:[f99<-0.00925355032] yes=25,no=26,missing=25
				25:[f68<-0.146899372] yes=49,no=50,missing=49
					49:leaf=-0.0510100499
					50:leaf=-0.000813919061
				26:[f308<0.0184148643] yes=51,no=52,missing=51
					51:leaf=-0.0635426193
					52:leaf=-0.0224074759
		6:[f47<-0.458501816] yes=13,no=14,missing=13
			13:[f49<0.582706273] yes=27,no=28,missing=27
				27:[f419<0.568331063] yes=53,no=54,missing=53
					53:leaf=-0.051436495
					54:leaf=0.000890288618
				28:[f49<1.03814173] yes=55,no=56,missing=55
					55:leaf=0.0609619804
					56:leaf=-0.0231737476
			14:[f280<-1.0331459] yes=29,no=30,missing=29
				29:[f91<-0.0190778673] yes=57,no=58,missing=57
					57:leaf=-0.0613392256
					58:leaf=0.143805027
				30:[f50<-1.72232604] yes=59,no=60,missing=59
					59:leaf=0.078691341
					60:leaf=-0.0762386248
booster[27]:
0:[f283<0.351812065] yes=1,no=2,missing=1
	1:[f311<0.940570116] yes=3,no=4,missing=3
		3:[f64<-0.721306205] yes=7,no=8,missing=7
			7:[f34<-0.519533277] yes=15,no=16,missing=15
				15:[f45<-0.333614707] yes=31,no=32,missing=31
					31:leaf=-0.0291134175
					32:leaf=0.243240952
				16:[f53<0.00258798432] yes=33,no=34,missing=33
					33:leaf=-0.091395095
					34:leaf=0.0533966608
			8:[f34<-0.430733234] yes=17,no=18,missing=17
				17:[f49<0.582706273] yes=35,no=36,missing=35
					35:leaf=-0.0310826302
					36:leaf=0.00902448222
				18:[f114<0.548400581] yes=37,no=38,missing=37
					37:leaf=-0.0658481717
					38:leaf=0.00755292038
		4:[f107<-0.0560296103] yes=9,no=10,missing=9
			9:[f71<0.409341991] yes=19,no=20,missing=19
				19:[f202<-0.288744867] yes=39,no=40,missing=39
					39:leaf=0.0108574368
					40:leaf=-0.0318894312
				20:[f430<0.862228394] yes=41,no=42,missing=41
					41:leaf=0.0319130532
					42:leaf=-0.00663412828
			10:[f105<-0.158060774] yes=21,no=22,missing=21
				21:[f306<10.7357445] yes=43,no=44,missing=43
					43:leaf=-0.0624520145
					44:leaf=0.0882423446
				22:[f419<1.65350139] yes=45,no=46,missing=45
					45:leaf=-0.0369675048
					46:leaf=0.0168642458
	2:[f66<0.0138066299] yes=5,no=6,missing=5
		5:[f84<0.00545183849] yes=11,no=12,missing=11
			11:[f74<0.35572958] yes=23,no=24,missing=23
				23:[f64<0.895772338] yes=47,no=48,missing=47
					47:leaf=-0.0964465588
					48:leaf=0.117299728
				24:[f49<0.647768497] yes=49,no=50,missing=49
					49:leaf=-0.0875186175
					50:leaf=-0.0550944172
			12:[f448<0.852751255] yes=25,no=26,missing=25
				25:leaf=-0.0886331201
				26:[f98<0.233944654] yes=51,no=52,missing=51
					51:leaf=0.515629768
					52:leaf=-0.055804532
		6:[f101<-0.00483526336] yes=13,no=14,missing=13
			13:[f47<-0.513483882] yes=27,no=28,missing=27
				27:[f58<0.00148488011] yes=53,no=54,missing=53
					53:leaf=-0.0139655983
					54:leaf=0.122293763
				28:[f99<-0.0102590937] yes=55,no=56,missing=55
					55:leaf=-0.00933256093
					56:leaf=-0.0629313365
			14:[f445<1.11062837] yes=29,no=30,missing=29
				29:[f58<0.00147100876] yes=57,no=58,missing=57
					57:leaf=-0.077585876
					58:leaf=-0.0411385261
				30:[f89<-0.0160348546] yes=59,no=60,missing=59
					59:leaf=0.265037417
					60:leaf=-0.0315010771
booster[28]:
0:[f283<0.351812065] yes=1,no=2,missing=1
	1:[f69<-0.184541509] yes=3,no=4,missing=3
		3:[f96<0.144409567] yes=7,no=8,missing=7
			7:[f53<0.00260773348] yes=15,no=16,missing=15
				15:[f232<16.7388954] yes=31,no=32,missing=31
					31:leaf=-0.0864502788
					32:leaf=0.201532647
				16:[f14<-0.613819718] yes=33,no=34,missing=33
					33:leaf=-0.062593393
					34:leaf=0.0927550867
			8:[f33<-0.39634642] yes=17,no=18,missing=17
				17:[f63<-0.000200032504] yes=35,no=36,missing=35
					35:leaf=-0.0819343477
					36:leaf=0.0646827146
				18:[f96<0.151638925] yes=37,no=38,missing=37
					37:leaf=0.308807403
					38:leaf=-0.0108310534
		4:[f49<0.582706273] yes=9,no=10,missing=9
			9:[f308<0.0148143712] yes=19,no=20,missing=19
				19:[f106<-0.108682945] yes=39,no=40,missing=39
					39:leaf=-0.0241186973
					40:leaf=-0.0622052364
				20:[f99<-0.0105463937] yes=41,no=42,missing=41
					41:leaf=0.025807023
					42:leaf=-0.0177222528
			10:[f49<1.03814173] yes=21,no=22,missing=21
				21:[f2<1.19410038] yes=43,no=44,missing=43
					43:leaf=0.0616051257
					44:leaf=-0.0821136981
				22:[f364<-0.303470284] yes=45,no=46,missing=45
					45:leaf=0.0512385927
					46:leaf=-0.0446610413
	2:[f67<0.0125112971] yes=5,no=6,missing=5
		5:[f74<0.370346904] yes=11,no=12,missing=11
			11:[f64<0.765948176] yes=23,no=24,missing=23
				23:[f430<2.0859251] yes=47,no=48,missing=47
					47:leaf=-0.0962488055
					48:leaf=-0.0194227304
				24:[f70<-0.00843641628] yes=49,no=50,missing=49
					49:leaf=0.28792116
					50:leaf=-0.0579438694
			12:[f52<0.00412868802] yes=25,no=26,missing=25
				25:[f49<0.517644048] yes=51,no=52,missing=51
					51:leaf=-0.0867753625
					52:leaf=-0.053609468
				26:[f470<-0.268487394] yes=53,no=54,missing=53
					53:leaf=0.19011125
					54:leaf=-0.0810007453
		6:[f101<-0.00483526336] yes=13,no=14,missing=13
			13:[f99<-0.0102590937] yes=27,no=28,missing=27
				27:[f109<-0.180954516] yes=55,no=56,missing=55
					55:leaf=-0.0356987491
					56:leaf=0.0500160716
				28:[f66<0.0305726677] yes=57,no=58,missing=57
					57:leaf=-0.0626408607
					58:leaf=0.0667781904
			14:[f49<0.647768497] yes=29,no=30,missing=29
				29:[f129<-0.0704656094] yes=59,no=60,missing=59
					59:leaf=-0.0779773444
					60:leaf=-0.0332083851
				30:[f460<0.0587491393] yes=61,no=62,missing=61
					61:leaf=-0.0466304086
					62:leaf=0.0779539645
booster[29]:
0:[f306<-0.24295105] yes=1,no=2,missing=1
	1:[f66<0.0133651709] yes=3,no=4,missing=3
		3:[f64<0.0586680546] yes=7,no=8,missing=7
			7:[f52<0.00418555457] yes=15,no=16,missing=15
				15:[f50<-1.71805274] yes=31,no=32,missing=31
					31:leaf=0.041878961
					32:leaf=-0.0926676765
				16:[f203<0.253943622] yes=33,no=34,missing=33
					33:leaf=0.214860246
					34:leaf=-0.0856265053
			8:[f84<0.00545183849] yes=17,no=18,missing=17
				17:[f220<-0.1679447] yes=35,no=36,missing=35
					35:leaf=-0.0756204203
					36:leaf=0.0203299001
				18:[f60<0.00967144873] yes=37,no=38,missing=37
					37:leaf=0.427210301
					38:leaf=-0.0646403506
		4:[f28<-0.485852689] yes=9,no=10,missing=9
			9:[f109<-0.168901145] yes=19,no=20,missing=19
				19:[f364<-0.293760896] yes=39,no=40,missing=39
					39:leaf=-0.0188071076
					40:leaf=-0.0738654584
				20:[f49<0.647768497] yes=41,no=42,missing=41
					41:leaf=-0.0257471893
					42:leaf=0.0512048863
			10:[f431<0.0767857507] yes=21,no=22,missing=21
				21:[f110<0.819706142] yes=43,no=44,missing=43
					43:leaf=-0.0786093548
					44:leaf=0.118345179
				22:[f49<0.647768497] yes=45,no=46,missing=45
					45:leaf=-0.0583512373
					46:leaf=0.010212387
	2:[f83<-0.64491874] yes=5,no=6,missing=5
		5:[f64<-0.165722221] yes=11,no=12,missing=11
			11:[f397<-0.136886805] yes=23,no=24,missing=23
				23:[f92<1.55890691] yes=47,no=48,missing=47
					47:leaf=-0.0677772388
					48:leaf=0.264173687
				24:[f51<-0.251988024] yes=49,no=50,missing=49
					49:leaf=0.00956750195
					50:leaf=-0.0400223546
			12:[f99<-0.0102590937] yes=25,no=26,missing=25
				25:[f107<-0.056872867] yes=51,no=52,missing=51
					51:leaf=0.0342455208
					52:leaf=-0.0490949415
				26:[f49<0.582706273] yes=53,no=54,missing=53
					53:leaf=-0.022856852
					54:leaf=0.0129710613
		6:[f47<-0.458501816] yes=13,no=14,missing=13
			13:[f106<-0.0986385047] yes=27,no=28,missing=27
				27:[f133<-0.285552889] yes=55,no=56,missing=55
					55:leaf=-0.0321788825
					56:leaf=0.0100332843
				28:[f361<0.0690152049] yes=57,no=58,missing=57
					57:leaf=-0.057400275
					58:leaf=0.0450731441
			14:[f481<0.166089535] yes=29,no=30,missing=29
				29:[f52<0.00403827336] yes=59,no=60,missing=59
					59:leaf=-0.0729195848
					60:leaf=0.106752075
				30:[f250<-0.0420968905] yes=61,no=62,missing=61
					61:leaf=-0.043190971
					62:leaf=0.0786185116
booster[30]:
0:[f283<0.351812065] yes=1,no=2,missing=1
	1:[f69<-0.184541509] yes=3,no=4,missing=3
		3:[f96<0.144409567] yes=7,no=8,missing=7
			7:[f53<0.00256951619] yes=15,no=16,missing=15
				15:[f232<16.7388954] yes=31,no=32,missing=31
					31:leaf=-0.0833181143
					32:leaf=0.17669417
				16:[f14<-0.613819718] yes=33,no=34,missing=33
					33:leaf=-0.0639071241
					34:leaf=0.0722502097
			8:[f33<-0.39634642] yes=17,no=18,missing=17
				17:[f291<-0.116593398] yes=35,no=36,missing=35
					35:leaf=-0.0934593529
					36:leaf=-0.0205641072
				18:[f65<0.0117878411] yes=37,no=38,missing=37
					37:leaf=-0.0167145077
					38:leaf=0.087675035
		4:[f49<0.647768497] yes=9,no=10,missing=9
			9:[f52<0.00411636196] yes=19,no=20,missing=19
				19:[f255<0.15972352] yes=39,no=40,missing=39
					39:leaf=-0.0344143771
					40:leaf=0.00432331441
				20:[f53<0.00766133238] yes=41,no=42,missing=41
					41:leaf=0.0462760925
					42:leaf=-0.117004476
			10:[f49<1.03814173] yes=21,no=22,missing=21
				21:[f18<0.281745017] yes=43,no=44,missing=43
					43:leaf=0.0734170973
					44:leaf=-0.0252108164
				22:[f196<-0.295732409] yes=45,no=46,missing=45
					45:leaf=0.0129712587
					46:leaf=-0.044739157
	2:[f67<0.0125112971] yes=5,no=6,missing=5
		5:[f74<0.370346904] yes=11,no=12,missing=11
			11:[f64<0.765948176] yes=23,no=24,missing=23
				23:[f430<2.0859251] yes=47,no=48,missing=47
					47:leaf=-0.0942605883
					48:leaf=-0.0114118671
				24:[f70<-0.0794815347] yes=49,no=50,missing=49
					49:leaf=0.296310216
					50:leaf=-0.054747235
			12:[f49<0.517644048] yes=25,no=26,missing=25
				25:[f84<0.00605474832] yes=51,no=52,missing=51
					51:leaf=-0.0834099576
					52:leaf=0.158091977
				26:[f46<-0.170728743] yes=53,no=54,missing=53
					53:leaf=-0.00353320199
					54:leaf=-0.0782580003
		6:[f101<-0.00483526336] yes=13,no=14,missing=13
			13:[f99<-0.0102590937] yes=27,no=28,missing=27
				27:[f109<-0.181239396] yes=55,no=56,missing=55
					55:leaf=-0.0341503955
					56:leaf=0.0450845025
				28:[f105<-0.171034366] yes=57,no=58,missing=57
					57:leaf=-0.074088417
					58:leaf=-0.0118948678
			14:[f49<0.647768497] yes=29,no=30,missing=29
				29:[f129<-0.0704656094] yes=59,no=60,missing=59
					59:leaf=-0.0735456496
					60:leaf=-0.0270055216
				30:[f430<1.2205677] yes=61,no=62,missing=61
					61:leaf=-0.0400465056
					62:leaf=0.0835267827
booster[31]:
0:[f302<-0.0732579678] yes=1,no=2,missing=1
	1:[f66<0.0190914944] yes=3,no=4,missing=3
		3:[f50<-1.48872328] yes=7,no=8,missing=7
			7:[f49<0.647768497] yes=15,no=16,missing=15
				15:[f35<-0.430883497] yes=31,no=32,missing=31
					31:leaf=0.0956397057
					32:leaf=-0.0878695771
				16:[f93<-0.00649756333] yes=33,no=34,missing=33
					33:leaf=-0.0735793859
					34:leaf=0.158049807
			8:[f71<0.172397166] yes=17,no=18,missing=17
				17:[f249<1.85715413] yes=35,no=36,missing=35
					35:leaf=-0.0916237757
					36:leaf=0.0770787746
				18:[f89<-0.00801634975] yes=37,no=38,missing=37
					37:leaf=-0.0867726505
					38:leaf=-0.0597091429
		4:[f427<0.0185920261] yes=9,no=10,missing=9
			9:[f14<-0.30999589] yes=19,no=20,missing=19
				19:[f304<-0.0593152717] yes=39,no=40,missing=39
					39:leaf=-0.0402191207
					40:leaf=0.160885334
				20:[f446<1.88764262] yes=41,no=42,missing=41
					41:leaf=-0.0801994279
					42:leaf=0.0736598447
			10:[f30<0.259726346] yes=21,no=22,missing=21
				21:[f193<0.172389269] yes=43,no=44,missing=43
					43:leaf=-0.0114326058
					44:leaf=0.0965798348
				22:[f458<-0.416267693] yes=45,no=46,missing=45
					45:leaf=0.0966708288
					46:leaf=-0.0846417397
	2:[f64<-0.158337325] yes=5,no=6,missing=5
		5:[f385<0.00477869809] yes=11,no=12,missing=11
			11:[f101<-0.00483526336] yes=23,no=24,missing=23
				23:[f1<1.60684514] yes=47,no=48,missing=47
					47:leaf=-0.024183562
					48:leaf=0.211629078
				24:[f53<0.00256939349] yes=49,no=50,missing=49
					49:leaf=-0.0785887986
					50:leaf=0.0306894425
			12:[f214<-0.158563912] yes=25,no=26,missing=25
				25:[f278<-2.35147619] yes=51,no=52,missing=51
					51:leaf=0.0107207289
					52:leaf=-0.0865188241
				26:[f144<0.0447013676] yes=53,no=54,missing=53
					53:leaf=0.0222224649
					54:leaf=-0.0305846613
		6:[f99<-0.00820012204] yes=13,no=14,missing=13
			13:[f68<-0.15449959] yes=27,no=28,missing=27
				27:[f279<-0.0320199281] yes=55,no=56,missing=55
					55:leaf=0.0168203767
					56:leaf=-0.0490275994
				28:[f49<-1.10891128] yes=57,no=58,missing=57
					57:leaf=-0.0437997691
					58:leaf=0.00907426234
			14:[f278<-0.332084924] yes=29,no=30,missing=29
				29:[f292<-0.107422128] yes=59,no=60,missing=59
					59:leaf=-0.00327018904
					60:leaf=0.13246946
				30:[f249<1.10545588] yes=61,no=62,missing=61
					61:leaf=-0.0480190143
					62:leaf=0.0169434473
booster[32]:
0:[f220<-0.26863116] yes=1,no=2,missing=1
	1:[f43<-0.480055302] yes=3,no=4,missing=3
		3:[f71<0.513452649] yes=7,no=8,missing=7
			7:[f50<-1.46735716] yes=15,no=16,missing=15
				15:[f461<-0.22381717] yes=31,no=32,missing=31
					31:leaf=-0.0505114608
					32:leaf=0.245881274
				16:[f74<0.393133074] yes=33,no=34,missing=33
					33:leaf=-0.0869029015
					34:leaf=-0.0502708443
			8:[f49<0.647768497] yes=17,no=18,missing=17
				17:[f101<-0.00483526336] yes=35,no=36,missing=35
					35:leaf=0.00233896333
					36:leaf=-0.0533976927
				18:[f109<-0.164045572] yes=37,no=38,missing=37
					37:leaf=-0.0237024575
					38:leaf=0.0662052706
		4:[f244<1.20682645] yes=9,no=10,missing=9
			9:[f64<0.0930911154] yes=19,no=20,missing=19
				19:[f279<-21.9312172] yes=39,no=40,missing=39
					39:leaf=0.0979504585
					40:leaf=-0.0903622508
				20:[f472<-0.33593303] yes=41,no=42,missing=41
					41:leaf=-0.0836677551
					42:leaf=-0.0538010485
			10:[f94<-0.0170285068] yes=21,no=22,missing=21
				21:[f110<3.44536448] yes=43,no=44,missing=43
					43:leaf=-0.106232993
					44:leaf=0.0582787581
				22:[f67<-0.0302779377] yes=45,no=46,missing=45
					45:leaf=-0.0441165566
					46:leaf=0.167581677
	2:[f151<0.122617617] yes=5,no=6,missing=5
		5:[f59<0.0320192575] yes=11,no=12,missing=11
			11:[f110<1.95351315] yes=23,no=24,missing=23
				23:[f460<6.50776768] yes=47,no=48,missing=47
					47:leaf=-0.0691245124
					48:leaf=0.13208051
				24:[f63<-0.00477710878] yes=49,no=50,missing=49
					49:leaf=0.0345267318
					50:leaf=-0.0649753511
			12:[f99<-0.0102590937] yes=25,no=26,missing=25
				25:[f107<-0.0560312942] yes=51,no=52,missing=51
					51:leaf=0.0228358787
					52:leaf=-0.0605932958
				26:[f59<0.0338646956] yes=53,no=54,missing=53
					53:leaf=0.451364577
					54:leaf=-0.0338532366
		6:[f103<-0.46242547] yes=13,no=14,missing=13
			13:[f364<-0.155126661] yes=27,no=28,missing=27
				27:[f188<-0.158013955] yes=55,no=56,missing=55
					55:leaf=0.0222600158
					56:leaf=0.139897957
				28:[f307<-0.155762047] yes=57,no=58,missing=57
					57:leaf=0.122087114
					58:leaf=-0.0688823685
			14:[f105<-0.1717484] yes=29,no=30,missing=29
				29:[f230<0.360126197] yes=59,no=60,missing=59
					59:leaf=-0.060949862
					60:leaf=-0.0171421301
				30:[f514<1.01756954] yes=61,no=62,missing=61
					61:leaf=0.0150599033
					62:leaf=-0.0214150921
booster[33]:
0:[f220<-0.26863116] yes=1,no=2,missing=1
	1:[f43<-0.480055302] yes=3,no=4,missing=3
		3:[f71<0.513452649] yes=7,no=8,missing=7
			7:[f50<-1.46735716] yes=15,no=16,missing=15
				15:[f69<0.294282436] yes=31,no=32,missing=31
					31:leaf=0.194153726
					32:leaf=-0.0740150735
				16:[f74<0.393133074] yes=33,no=34,missing=33
					33:leaf=-0.0850986391
					34:leaf=-0.0474092886
			8:[f52<0.00428467477] yes=17,no=18,missing=17
				17:[f49<0.582706273] yes=35,no=36,missing=35
					35:leaf=-0.0328789204
					36:leaf=0.0138369491
				18:[f41<-0.495491624] yes=37,no=38,missing=37
					37:leaf=0.0203520264
					38:leaf=0.238314942
		4:[f244<1.20682645] yes=9,no=10,missing=9
			9:[f64<0.0930911154] yes=19,no=20,missing=19
				19:[f279<-21.9312172] yes=39,no=40,missing=39
					39:leaf=0.0846948102
					40:leaf=-0.088993676
				20:[f472<-0.33593303] yes=41,no=42,missing=41
					41:leaf=-0.0818002373
					42:leaf=-0.0509867184
			10:[f94<-0.0170285068] yes=21,no=22,missing=21
				21:[f97<3.02354956] yes=43,no=44,missing=43
					43:leaf=-0.103701212
					44:leaf=0.0524089038
				22:[f46<-0.331924915] yes=45,no=46,missing=45
					45:leaf=0.150382504
					46:leaf=-0.0317033306
	2:[f71<0.182433352] yes=5,no=6,missing=5
		5:[f311<1.90759969] yes=11,no=12,missing=11
			11:[f427<3.93536472] yes=23,no=24,missing=23
				23:[f112<0.49265635] yes=47,no=48,missing=47
					47:leaf=-0.0697594211
					48:leaf=-0.0190218128
				24:[f4<-0.0839557573] yes=49,no=50,missing=49
					49:leaf=0.0459972434
					50:leaf=0.408151835
			12:[f213<0.986528158] yes=25,no=26,missing=25
				25:[f3<3.10587168] yes=51,no=52,missing=51
					51:leaf=-0.0244148858
					52:leaf=0.354950756
				26:[f88<-0.951950133] yes=53,no=54,missing=53
					53:leaf=0.085184209
					54:leaf=0.00527984463
		6:[f106<-0.102889739] yes=13,no=14,missing=13
			13:[f1<0.406499714] yes=27,no=28,missing=27
				27:[f53<-7.94864463e-05] yes=55,no=56,missing=55
					55:leaf=0.0361292623
					56:leaf=-8.15803469e-06
				28:[f214<-0.263634592] yes=57,no=58,missing=57
					57:leaf=0.285665452
					58:leaf=-0.0357898884
			14:[f395<0.0144151784] yes=29,no=30,missing=29
				29:[f88<-1.04308915] yes=59,no=60,missing=59
					59:leaf=0.0888903961
					60:leaf=-0.0429191329
				30:[f354<2.07030821] yes=61,no=62,missing=61
					61:leaf=-0.00768746762
					62:leaf=0.0626600906
booster[34]:
0:[f283<0.351812065] yes=1,no=2,missing=1
	1:[f64<-1.08871949] yes=3,no=4,missing=3
		3:[f309<2.56749105] yes=7,no=8,missing=7
			7:[f34<-0.5195328] yes=15,no=16,missing=15
				15:[f109<-0.180296838] yes=31,no=32,missing=31
					31:leaf=0.110990338
					32:leaf=-0.0350325778
				16:[f391<9.42966652] yes=33,no=34,missing=33
					33:leaf=-0.0833044499
					34:leaf=0.264995337
			8:[f33<3.06962061] yes=17,no=18,missing=17
				17:[f289<-0.0394678712] yes=35,no=36,missing=35
					35:leaf=-0.0232801437
					36:leaf=0.146998033
				18:leaf=0.251778185
		4:[f49<-1.10891128] yes=9,no=10,missing=9
			9:[f52<0.00322001241] yes=19,no=20,missing=19
				19:[f126<1.77714133] yes=37,no=38,missing=37
					37:leaf=-0.0745733976
					38:leaf=0.157985911
				20:[f376<-0.240528181] yes=39,no=40,missing=39
					39:leaf=0.168550596
					40:leaf=-0.0363929868
			10:[f71<0.492647648] yes=21,no=22,missing=21
				21:[f243<0.371925294] yes=41,no=42,missing=41
					41:leaf=-0.029024763
					42:leaf=0.00914983544
				22:[f0<-0.628553391] yes=43,no=44,missing=43
					43:leaf=0.0472002551
					44:leaf=0.0003275052
	2:[f67<0.0107037686] yes=5,no=6,missing=5
		5:[f74<0.428270876] yes=11,no=12,missing=11
			11:[f430<2.0859251] yes=23,no=24,missing=23
				23:[f50<-1.16680729] yes=45,no=46,missing=45
					45:leaf=-0.0543285795
					46:leaf=-0.0917041227
				24:[f490<1.2472198] yes=47,no=48,missing=47
					47:leaf=0.281334788
					48:leaf=-0.0941274986
			12:[f49<0.517644048] yes=25,no=26,missing=25
				25:[f84<0.00605474832] yes=49,no=50,missing=49
					49:leaf=-0.0758152232
					50:leaf=0.169574216
				26:[f48<-0.175173894] yes=51,no=52,missing=51
					51:leaf=0.0179192089
					52:leaf=-0.067814365
		6:[f94<-0.0085095074] yes=13,no=14,missing=13
			13:[f445<1.04941964] yes=27,no=28,missing=27
				27:[f99<-0.00925355032] yes=53,no=54,missing=53
					53:leaf=-0.0465504825
					54:leaf=-0.0810606554
				28:[f463<-0.153857976] yes=55,no=56,missing=55
					55:leaf=0.131019071
					56:leaf=-0.0299944635
			14:[f52<0.00412202068] yes=29,no=30,missing=29
				29:[f50<-1.66155124] yes=57,no=58,missing=57
					57:leaf=0.119381778
					58:leaf=-0.0271867849
				30:[f69<0.751805663] yes=59,no=60,missing=59
					59:leaf=0.0137155158
					60:leaf=0.128448501
booster[35]:
0:[f302<-0.0732579678] yes=1,no=2,missing=1
	1:[f47<-0.467922211] yes=3,no=4,missing=3
		3:[f71<0.51351124] yes=7,no=8,missing=7
			7:[f508<-0.297431588] yes=15,no=16,missing=15
				15:[f88<-0.116509847] yes=31,no=32,missing=31
					31:leaf=0.106155932
					32:leaf=-0.0827254802
				16:[f508<-0.290912569] yes=33,no=34,missing=33
					33:leaf=0.180229217
					34:leaf=-0.0420565419
			8:[f101<-0.00483526336] yes=17,no=18,missing=17
				17:[f105<-0.183833212] yes=35,no=36,missing=35
					35:leaf=-0.0131805614
					36:leaf=0.048418615
				18:[f49<0.582706273] yes=37,no=38,missing=37
					37:leaf=-0.0551482849
					38:leaf=0.00409009261
		4:[f472<-0.30511117] yes=9,no=10,missing=9
			9:[f74<0.74820286] yes=19,no=20,missing=19
				19:[f50<-1.30449998] yes=39,no=40,missing=39
					39:leaf=-0.031776078
					40:leaf=-0.0904944763
				20:[f33<-0.486927986] yes=41,no=42,missing=41
					41:leaf=0.0296182185
					42:leaf=-0.0685228929
			10:[f69<-0.0199738778] yes=21,no=22,missing=21
				21:[f292<-7.25448084] yes=43,no=44,missing=43
					43:leaf=0.143474385
					44:leaf=-0.0885151699
				22:[f69<-0.0113971112] yes=45,no=46,missing=45
					45:leaf=0.354851782
					46:leaf=-0.0461198092
	2:[f83<-0.64491874] yes=5,no=6,missing=5
		5:[f98<-0.112641789] yes=11,no=12,missing=11
			11:[f87<-0.006975797] yes=23,no=24,missing=23
				23:[f282<-0.136651486] yes=47,no=48,missing=47
					47:leaf=0.0117926365
					48:leaf=0.0567228273
				24:[f195<-0.230968088] yes=49,no=50,missing=49
					49:leaf=-0.0503786616
					50:leaf=0.0647024959
			12:[f24<-0.629795432] yes=25,no=26,missing=25
				25:[f56<0.0129621876] yes=51,no=52,missing=51
					51:leaf=-0.0657060072
					52:leaf=0.0896862298
				26:[f255<-0.0632845461] yes=53,no=54,missing=53
					53:leaf=-0.0182696935
					54:leaf=0.0100470949
		6:[f34<-0.3605555] yes=13,no=14,missing=13
			13:[f421<0.218950436] yes=27,no=28,missing=27
				27:[f53<0.00275104679] yes=55,no=56,missing=55
					55:leaf=-0.0339994691
					56:leaf=0.0481626503
				28:[f99<-0.00954084843] yes=57,no=58,missing=57
					57:leaf=0.0331015401
					58:leaf=-0.0337191969
			14:[f301<0.985440791] yes=29,no=30,missing=29
				29:[f446<1.54917693] yes=59,no=60,missing=59
					59:leaf=-0.0748377442
					60:leaf=0.0261990875
				30:[f70<0.489649713] yes=61,no=62,missing=61
					61:leaf=0.283096075
					62:leaf=-0.0567302965
booster[36]:
0:[f220<-0.26863116] yes=1,no=2,missing=1
	1:[f43<-0.480055302] yes=3,no=4,missing=3
		3:[f52<-8.17302644e-05] yes=7,no=8,missing=7
			7:[f442<0.942324758] yes=15,no=16,missing=15
				15:[f42<-0.49632585] yes=31,no=32,missing=31
					31:leaf=-0.0595893674
					32:leaf=-0.100288823
				16:[f73<-0.679784894] yes=33,no=34,missing=33
					33:leaf=0.164084002
					34:leaf=-0.0612440296
			8:[f40<-0.386951983] yes=17,no=18,missing=17
				17:[f52<0.00403312547] yes=35,no=36,missing=35
					35:leaf=-0.0277396645
					36:leaf=0.023844121
				18:[f78<0.310057402] yes=37,no=38,missing=37
					37:leaf=0.380805343
					38:leaf=0.0483699217
		4:[f472<-0.322227627] yes=9,no=10,missing=9
			9:[f50<-1.2437253] yes=19,no=20,missing=19
				19:[f49<0.647768497] yes=39,no=40,missing=39
					39:leaf=-0.0766286552
					40:leaf=0.0283839237
				20:[f52<0.0040703034] yes=41,no=42,missing=41
					41:leaf=-0.0858006552
					42:leaf=0.0675554499
			10:[f50<-1.24182606] yes=21,no=22,missing=21
				21:[f49<0.647768497] yes=43,no=44,missing=43
					43:leaf=-0.0702231973
					44:leaf=0.156996012
				22:[f105<6.23475599] yes=45,no=46,missing=45
					45:leaf=-0.0607660785
					46:leaf=0.15062432
	2:[f71<0.182433352] yes=5,no=6,missing=5
		5:[f312<0.833770275] yes=11,no=12,missing=11
			11:[f90<-0.531467319] yes=23,no=24,missing=23
				23:[f104<-0.061750263] yes=47,no=48,missing=47
					47:leaf=0.0266722776
					48:leaf=-0.101085976
				24:[f112<0.363360763] yes=49,no=50,missing=49
					49:leaf=-0.0732404068
					50:leaf=-0.0133242635
			12:[f105<-0.19059971] yes=25,no=26,missing=25
				25:[f362<-0.28327021] yes=51,no=52,missing=51
					51:leaf=0.0711690933
					52:leaf=-0.0760028586
				26:[f124<-0.0865428448] yes=53,no=54,missing=53
					53:leaf=0.0338091999
					54:leaf=-0.0167916697
		6:[f49<0.647768497] yes=13,no=14,missing=13
			13:[f99<-0.0101872701] yes=27,no=28,missing=27
				27:[f84<-0.00479762629] yes=55,no=56,missing=55
					55:leaf=-0.0152570968
					56:leaf=0.0417699628
				28:[f52<0.00405353913] yes=57,no=58,missing=57
					57:leaf=-0.0310999136
					58:leaf=0.0405678861
			14:[f49<1.03814173] yes=29,no=30,missing=29
				29:[f2<1.20592594] yes=59,no=60,missing=59
					59:leaf=0.0704681724
					60:leaf=-0.0762545839
				30:[f53<0.00312185963] yes=61,no=62,missing=61
					61:leaf=-0.0284547862
					62:leaf=0.0838679895
booster[37]:
0:[f302<-0.0732579678] yes=1,no=2,missing=1
	1:[f48<-0.395923138] yes=3,no=4,missing=3
		3:[f71<0.238535464] yes=7,no=8,missing=7
			7:[f50<-1.46688235] yes=15,no=16,missing=15
				15:[f53<0.00183734973] yes=31,no=32,missing=31
					31:leaf=-0.0236004014
					32:leaf=0.240652233
				16:[f445<0.306232721] yes=33,no=34,missing=33
					33:leaf=-0.0832276046
					34:leaf=-0.0452703647
			8:[f505<-0.234549984] yes=17,no=18,missing=17
				17:[f49<0.647768497] yes=35,no=36,missing=35
					35:leaf=-0.0634624958
					36:leaf=-0.00702031655
				18:[f84<-0.00479762629] yes=37,no=38,missing=37
					37:leaf=-0.0206413046
					38:leaf=0.0329639204
		4:[f50<-1.29785275] yes=9,no=10,missing=9
			9:[f49<0.647768497] yes=19,no=20,missing=19
				19:[f51<-1.07787848] yes=39,no=40,missing=39
					39:leaf=-0.0810529813
					40:leaf=0.0658353865
				20:[f65<-0.00450826157] yes=41,no=42,missing=41
					41:leaf=0.168126866
					42:leaf=-0.0275952797
			10:[f256<3.75542498] yes=21,no=22,missing=21
				21:[f235<12.2783508] yes=43,no=44,missing=43
					43:leaf=-0.0770315006
					44:leaf=0.174140632
				22:[f391<1.18564367] yes=45,no=46,missing=45
					45:leaf=0.313877136
					46:leaf=-0.0670268312
	2:[f69<-0.376485139] yes=5,no=6,missing=5
		5:[f403<2.79229927] yes=11,no=12,missing=11
			11:[f53<0.002608296] yes=23,no=24,missing=23
				23:[f212<0.28407228] yes=47,no=48,missing=47
					47:leaf=-0.0740684643
					48:leaf=-0.0359249376
				24:[f109<-0.162239477] yes=49,no=50,missing=49
					49:leaf=0.156868264
					50:leaf=-0.0344465896
			12:[f198<-0.10663788] yes=25,no=26,missing=25
				25:[f78<-2.33695316] yes=51,no=52,missing=51
					51:leaf=0.0714436769
					52:leaf=-0.0417590551
				26:[f440<2.07263637] yes=53,no=54,missing=53
					53:leaf=-0.0903575346
					54:leaf=0.235726506
		6:[f49<0.582706273] yes=13,no=14,missing=13
			13:[f99<-0.00937325694] yes=27,no=28,missing=27
				27:[f109<-0.114940152] yes=55,no=56,missing=55
					55:leaf=0.00761456555
					56:leaf=-0.024726253
				28:[f355<2.15382099] yes=57,no=58,missing=57
					57:leaf=-0.0361278318
					58:leaf=0.0448970161
			14:[f49<1.03814173] yes=29,no=30,missing=29
				29:[f2<1.19410038] yes=59,no=60,missing=59
					59:leaf=0.049839858
					60:leaf=-0.0650065765
				30:[f364<-0.303453326] yes=61,no=62,missing=61
					61:leaf=0.0875995532
					62:leaf=-0.0296342559
booster[38]:
0:[f219<-0.233693391] yes=1,no=2,missing=1
	1:[f42<-0.481838465] yes=3,no=4,missing=3
		3:[f74<0.705632925] yes=7,no=8,missing=7
			7:[f508<0.16352585] yes=15,no=16,missing=15
				15:[f63<-0.000859828084] yes=31,no=32,missing=31
					31:leaf=-0.0648794398
					32:leaf=0.0114370435
				16:[f316<-0.0640570819] yes=33,no=34,missing=33
					33:leaf=0.0596059933
					34:leaf=-0.0636959001
			8:[f59<1.20524621] yes=17,no=18,missing=17
				17:[f75<0.636951089] yes=35,no=36,missing=35
					35:leaf=0.199907929
					36:leaf=0.0268153641
				18:[f49<0.647768497] yes=37,no=38,missing=37
					37:leaf=-0.0315705352
					38:leaf=0.0233767089
		4:[f472<-0.322227627] yes=9,no=10,missing=9
			9:[f58<0.00148011092] yes=19,no=20,missing=19
				19:[f50<-1.22663236] yes=39,no=40,missing=39
					39:leaf=-0.0367627628
					40:leaf=-0.0832879841
				20:[f64<1.03089201] yes=41,no=42,missing=41
					41:leaf=-0.0522328131
					42:leaf=0.418668002
			10:[f74<-0.608021319] yes=21,no=22,missing=21
				21:[f98<-0.147226408] yes=43,no=44,missing=43
					43:leaf=0.121852875
					44:leaf=-0.0854795724
				22:[f49<0.647768497] yes=45,no=46,missing=45
					45:leaf=-0.0482798554
					46:leaf=0.00536419731
	2:[f83<-0.64491874] yes=5,no=6,missing=5
		5:[f142<-0.0889772326] yes=11,no=12,missing=11
			11:[f127<-0.0996032804] yes=23,no=24,missing=23
				23:[f33<-0.261499405] yes=47,no=48,missing=47
					47:leaf=0.0221089497
					48:leaf=-0.0560213029
				24:[f87<0.00206932239] yes=49,no=50,missing=49
					49:leaf=-0.0361210667
					50:leaf=0.0841738582
			12:[f217<0.335161358] yes=25,no=26,missing=25
				25:[f488<-0.0542859994] yes=51,no=52,missing=51
					51:leaf=0.0746079609
					52:leaf=0.0149594238
				26:[f109<0.0735518038] yes=53,no=54,missing=53
					53:leaf=-0.0272680651
					54:leaf=0.0317489319
		6:[f34<-0.360514998] yes=13,no=14,missing=13
			13:[f106<-0.0981893465] yes=27,no=28,missing=27
				27:[f105<-0.1902394] yes=55,no=56,missing=55
					55:leaf=-0.0278640967
					56:leaf=0.0138622439
				28:[f34<-0.367863953] yes=57,no=58,missing=57
					57:leaf=-0.0457194671
					58:leaf=0.184941277
			14:[f508<0.0304568522] yes=29,no=30,missing=29
				29:[f187<5.40966654] yes=59,no=60,missing=59
					59:leaf=-0.0770834908
					60:leaf=0.200537995
				30:[f456<-0.345229536] yes=61,no=62,missing=61
					61:leaf=0.439541727
					62:leaf=-0.0270514786
booster[39]:
0:[f283<0.351812065] yes=1,no=2,missing=1
	1:[f64<-1.11367416] yes=3,no=4,missing=3
		3:[f15<-0.724593222] yes=7,no=8,missing=7
			7:[f14<-0.723469436] yes=15,no=16,missing=15
				15:[f129<0.738825202] yes=31,no=32,missing=31
					31:leaf=-0.0621176921
					32:leaf=0.231181175
				16:[f1<-0.696728826] yes=33,no=34,missing=33
					33:leaf=0.0866079554
					34:leaf=0.447762251
			8:[f33<-0.481978208] yes=17,no=18,missing=17
				17:[f412<10.7379398] yes=35,no=36,missing=35
					35:leaf=-0.0126483515
					36:leaf=0.24358581
				18:[f331<3.78508401] yes=37,no=38,missing=37
					37:leaf=-0.0836490318
					38:leaf=0.00420753798
		4:[f68<-0.147414774] yes=9,no=10,missing=9
			9:[f63<-0.0057715876] yes=19,no=20,missing=19
				19:[f101<-0.00483526336] yes=39,no=40,missing=39
					39:leaf=0.0434453264
					40:leaf=-0.0290066879
				20:[f108<-0.19254598] yes=41,no=42,missing=41
					41:leaf=0.0329319052
					42:leaf=-0.0469966941
			10:[f49<-1.10891128] yes=21,no=22,missing=21
				21:[f52<0.00296012615] yes=43,no=44,missing=43
					43:leaf=-0.0688671023
					44:leaf=-0.0202351343
				22:[f99<-0.00937325694] yes=45,no=46,missing=45
					45:leaf=0.0145410839
					46:leaf=-0.00991657749
	2:[f61<0.00256732595] yes=5,no=6,missing=5
		5:[f84<0.00537647493] yes=11,no=12,missing=11
			11:[f50<-1.16775692] yes=23,no=24,missing=23
				23:[f49<0.647768497] yes=47,no=48,missing=47
					47:leaf=-0.0821544677
					48:leaf=0.0987625048
				24:[f431<2.39823771] yes=49,no=50,missing=49
					49:leaf=-0.0839552134
					50:leaf=0.0641074032
			12:[f65<-0.00285857031] yes=25,no=26,missing=25
				25:leaf=-0.0736946985
				26:[f475<-0.00277760765] yes=51,no=52,missing=51
					51:leaf=0.0442762524
					52:leaf=0.380950361
		6:[f101<-0.00483526336] yes=13,no=14,missing=13
			13:[f99<-0.00951690599] yes=27,no=28,missing=27
				27:[f130<-0.0804706216] yes=53,no=54,missing=53
					53:leaf=0.015171296
					54:leaf=0.300659865
				28:[f105<-0.172295973] yes=55,no=56,missing=55
					55:leaf=-0.0892871395
					56:leaf=0.00254137022
			14:[f28<0.0237649847] yes=29,no=30,missing=29
				29:[f89<-0.0160340928] yes=57,no=58,missing=57
					57:leaf=0.213961199
					58:leaf=-0.0373611487
				30:[f128<0.106767826] yes=59,no=60,missing=59
					59:leaf=-0.0744406134
					60:leaf=0.278958619
booster[40]:
0:[f126<-0.0537999347] yes=1,no=2,missing=1
	1:[f42<-0.481838465] yes=3,no=4,missing=3
		3:[f79<0.775021672] yes=7,no=8,missing=7
			7:[f50<-1.46688235] yes=15,no=16,missing=15
				15:[f79<0.605045676] yes=31,no=32,missing=31
					31:leaf=0.220822319
					32:leaf=-0.00168043806
				16:[f445<0.583695054] yes=33,no=34,missing=33
					33:leaf=-0.0581252687
					34:leaf=-0.0126195913
			8:[f49<0.647768497] yes=17,no=18,missing=17
				17:[f84<-0.00479762629] yes=35,no=36,missing=35
					35:leaf=-0.0318336934
					36:leaf=0.0264720768
				18:[f35<-0.431465328] yes=37,no=38,missing=37
					37:leaf=0.0222001504
					38:leaf=0.133744955
		4:[f472<-0.322227627] yes=9,no=10,missing=9
			9:[f58<0.00148011092] yes=19,no=20,missing=19
				19:[f50<-1.2437253] yes=39,no=40,missing=39
					39:leaf=-0.029363025
					40:leaf=-0.0798422769
				20:[f64<1.03089201] yes=41,no=42,missing=41
					41:leaf=-0.0480334163
					42:leaf=0.34020564
			10:[f74<-0.343420625] yes=21,no=22,missing=21
				21:[f232<31.4923496] yes=43,no=44,missing=43
					43:leaf=-0.0778087229
					44:leaf=0.164636463
				22:[f413<12.9880123] yes=45,no=46,missing=45
					45:leaf=-0.0349386446
					46:leaf=0.117870905
	2:[f305<0.0637011975] yes=5,no=6,missing=5
		5:[f34<-0.252361298] yes=11,no=12,missing=11
			11:[f71<0.362090468] yes=23,no=24,missing=23
				23:[f90<-0.662259221] yes=47,no=48,missing=47
					47:leaf=0.0425142124
					48:leaf=-0.0410075597
				24:[f74<0.924322128] yes=49,no=50,missing=49
					49:leaf=0.0132288737
					50:leaf=-0.0308127459
			12:[f460<5.13896751] yes=25,no=26,missing=25
				25:[f84<-0.000878713443] yes=51,no=52,missing=51
					51:leaf=-0.0484069549
					52:leaf=0.0845841467
				26:[f85<-0.00309291156] yes=53,no=54,missing=53
					53:leaf=0.000290953147
					54:leaf=0.321406931
		6:[f283<-0.0328001007] yes=13,no=14,missing=13
			13:[f87<0.0202251058] yes=27,no=28,missing=27
				27:[f413<0.491178155] yes=55,no=56,missing=55
					55:leaf=-0.0136181191
					56:leaf=0.0128817363
				28:[f198<0.00507212896] yes=57,no=58,missing=57
					57:leaf=-0.0688805804
					58:leaf=0.311268538
			14:[f308<0.331140667] yes=29,no=30,missing=29
				29:[f289<0.198042914] yes=59,no=60,missing=59
					59:leaf=-0.0327703319
					60:leaf=0.0609470792
				30:[f118<-0.0620088279] yes=61,no=62,missing=61
					61:leaf=0.0286609866
					62:leaf=0.182689235
booster[41]:
0:[f83<-0.64491874] yes=1,no=2,missing=1
	1:[f205<0.442952573] yes=3,no=4,missing=3
		3:[f289<0.331873864] yes=7,no=8,missing=7
			7:[f74<-1.10866773] yes=15,no=16,missing=15
				15:[f52<0.00426877756] yes=31,no=32,missing=31
					31:leaf=-0.054959204
					32:leaf=0.102931477
				16:[f7<1.25382984] yes=33,no=34,missing=33
					33:leaf=0.0170018058
					34:leaf=-0.0312541984
			8:[f511<0.00395564036] yes=17,no=18,missing=17
				17:[f493<0.0496231765] yes=35,no=36,missing=35
					35:leaf=0.15161337
					36:leaf=0.625115335
				18:[f431<3.02673244] yes=37,no=38,missing=37
					37:leaf=-0.0593720749
					38:leaf=0.265861869
		4:[f332<0.838102818] yes=9,no=10,missing=9
			9:[f49<0.647768497] yes=19,no=20,missing=19
				19:[f84<-0.00464689918] yes=39,no=40,missing=39
					39:leaf=-0.0351299159
					40:leaf=-0.00146608788
				20:[f49<1.03814173] yes=41,no=42,missing=41
					41:leaf=0.0382437669
					42:leaf=-0.032855805
			10:[f489<3.14104176] yes=21,no=22,missing=21
				21:[f168<2.40715218] yes=43,no=44,missing=43
					43:leaf=0.00879446883
					44:leaf=0.10914319
				22:[f479<7.64145756] yes=45,no=46,missing=45
					45:leaf=-0.0636205599
					46:leaf=0.0969686732
	2:[f48<-0.388438582] yes=5,no=6,missing=5
		5:[f71<0.328071505] yes=11,no=12,missing=11
			11:[f226<0.170346752] yes=23,no=24,missing=23
				23:[f463<-0.335237801] yes=47,no=48,missing=47
					47:leaf=-0.0817222297
					48:leaf=-0.0459715649
				24:[f297<-0.0639455616] yes=49,no=50,missing=49
					49:leaf=0.157676458
					50:leaf=0.00119896256
			12:[f106<-0.0979738757] yes=25,no=26,missing=25
				25:[f99<-0.00951690599] yes=51,no=52,missing=51
					51:leaf=0.0152224256
					52:leaf=-0.0238020252
				26:[f64<0.308508694] yes=53,no=54,missing=53
					53:leaf=-0.0850380212
					54:leaf=-0.0299706496
		6:[f505<0.608128786] yes=13,no=14,missing=13
			13:[f50<-1.22663236] yes=27,no=28,missing=27
				27:[f49<0.647768497] yes=55,no=56,missing=55
					55:leaf=-0.0620756932
					56:leaf=0.078541711
				28:[f133<0.1705679] yes=57,no=58,missing=57
					57:leaf=-0.0744619444
					58:leaf=-0.0400450826
			14:[f461<-0.288551927] yes=29,no=30,missing=29
				29:[f431<-0.485064775] yes=59,no=60,missing=59
					59:leaf=0.0457852706
					60:leaf=0.543623388
				30:[f316<0.7010203] yes=61,no=62,missing=61
					61:leaf=-0.028867621
					62:leaf=0.180059195
booster[42]:
0:[f283<0.351812065] yes=1,no=2,missing=1
	1:[f64<-1.11367416] yes=3,no=4,missing=3
		3:[f493<-0.66203022] yes=7,no=8,missing=7
			7:[f93<-0.0129984478] yes=15,no=16,missing=15
				15:[f215<2.56476879] yes=31,no=32,missing=31
					31:leaf=-0.0909945965
					32:leaf=0.137114078
				16:[f45<-0.21573776] yes=33,no=34,missing=33
					33:leaf=0.690981448
					34:leaf=0.0109403264
			8:[f307<1.90382409] yes=17,no=18,missing=17
				17:[f98<-0.145757467] yes=35,no=36,missing=35
					35:leaf=0.120580666
					36:leaf=-0.0715149045
				18:[f3<-0.64076972] yes=37,no=38,missing=37
					37:leaf=-0.0269899257
					38:leaf=0.0884135887
		4:[f94<-0.0170326047] yes=9,no=10,missing=9
			9:[f445<-0.697016478] yes=19,no=20,missing=19
				19:[f14<5.09917736] yes=39,no=40,missing=39
					39:leaf=-0.0676137134
					40:leaf=0.275122076
				20:[f71<0.541284323] yes=41,no=42,missing=41
					41:leaf=-0.0237958655
					42:leaf=0.00316737965
			10:[f85<-0.00433246978] yes=21,no=22,missing=21
				21:[f104<-0.13710548] yes=43,no=44,missing=43
					43:leaf=-0.00184951932
					44:leaf=-0.0467764251
				22:[f480<-0.0539630949] yes=45,no=46,missing=45
					45:leaf=0.0366399176
					46:leaf=0.00629281253
	2:[f61<0.00256732595] yes=5,no=6,missing=5
		5:[f50<-1.16775692] yes=11,no=12,missing=11
			11:[f49<0.647768497] yes=23,no=24,missing=23
				23:[f495<1.02614236] yes=47,no=48,missing=47
					47:leaf=-0.0870977715
					48:leaf=0.0127998739
				24:[f89<-0.00801634975] yes=49,no=50,missing=49
					49:leaf=-0.0412858315
					50:leaf=0.158394411
